{
	"createNewClassifierString": "function () {\n\tvar FeatureExtractor = require('/home/erelsgl/Dropbox/machine-learning/demos/../FeatureExtractor');\n\tvar BinaryClassifierSet = require('/home/erelsgl/Dropbox/machine-learning/demos/../BinaryClassifierSet');\n\tvar ClassifierWithFeatureExtractor = require('/home/erelsgl/Dropbox/machine-learning/demos/../ClassifierWithFeatureExtractor');\n\t\n\tvar baseBinaryClassifierType = require('/home/erelsgl/Dropbox/machine-learning/demos/../svmjs').SVM;\n\t//var baseBinaryClassifierType = require('/home/erelsgl/Dropbox/machine-learning/demos/../brain').NeuralNetwork;\n\t//var baseBinaryClassifierType = require('/home/erelsgl/Dropbox/machine-learning/demos/../classifier/lib/bayesian').Bayesian;\n\t\n\treturn new ClassifierWithFeatureExtractor({\n\t\tclassifierType: BinaryClassifierSet,\n\t\tclassifierOptions: {\n\t\t\t\tbinaryClassifierType: baseBinaryClassifierType,\n\t\t//binaryClassifierType: ClassifierWithFeatureExtractor,\n\t\t//binaryClassifierOptions: {\n\t\t\t\t//classifierType:   baseBinaryClassifierType,\n\t\t\t\tbinaryClassifierOptions: {\n\t\t\t\t\tC: 1.0,\n\t\t\t\t\t//iterations: 10,\n\t\t\t\t\t//log: true\n\t\t\t\t},\n\t\t},\n\t\tfeatureExtractor: FeatureExtractor.CollectionOfExtractors([\n\t\t\t\t\tFeatureExtractor.WordsFromText(1),\n\t\t\t\t\t//FeatureExtractor.WordsFromText(2),\n\t\t\t\t\t//FeatureExtractor.LettersFromText(2), \n\t\t\t\t\t//FeatureExtractor.LettersFromText(4),\n\t\t]),\n\t\tfeatureLookupTable: new FeatureExtractor.FeatureLookupTable(),\n\t});\n}",
	"trainedClassifier": {
		"classifier": {
			"{\"Quit\": true}": {
				"N": 100,
				"D": 183,
				"b": -0.8127135671781828,
				"kernelType": "linear",
				"w": [
					0,
					0.6042465271986002,
					0.6042465271986002,
					0.6042465271986002,
					-0.11800207951081708,
					0,
					-0.023765742869959458,
					-0.04852619763293002,
					0,
					0,
					-0.004828923110206449,
					-0.004828923110206449,
					-0.058462901001095365,
					-0.03423819487013018,
					-0.04745401881540738,
					-0.04745401881540738,
					-0.06132026915726623,
					0,
					-0.024678677843590527,
					-0.026438120276326853,
					-0.01506727482888552,
					-0.056105308721888396,
					-0.002672377406367395,
					-0.009334191614605998,
					-0.11145406130506981,
					-0.01071112448501297,
					-0.06479062917264158,
					-0.02992986192610998,
					0,
					0,
					0,
					-0.002672377406367395,
					-0.03971966793622564,
					-0.023765742869959458,
					-0.07628269578385323,
					-0.002672377406367395,
					-0.04918362038172099,
					0,
					0,
					0,
					-0.013215823945277197,
					0,
					0,
					0,
					-0.07586241627371029,
					-0.039797686063784185,
					-0.06455814082675475,
					-0.04345100071981113,
					-0.039797686063784185,
					0,
					0,
					-0.02476045476297056,
					-0.02476045476297056,
					0,
					-1.3010426069826053e-18,
					0,
					0,
					-0.004828923110206449,
					0,
					-0.004828923110206449,
					-0.0024734555869675113,
					-0.024652393107340118,
					0,
					0,
					0,
					-0.004828923110206449,
					0,
					-0.01618595905231961,
					-0.004828923110206449,
					0,
					-0.013215823945277197,
					-0.024224706130965182,
					0,
					-0.0023554675232389374,
					0,
					0,
					-0.02476045476297056,
					0,
					0,
					0,
					0,
					0,
					-0.008482237766233395,
					-0.03847249589670802,
					-0.03847249589670802,
					-0.013215823945277198,
					0,
					0,
					-0.01506727482888552,
					0,
					-0.013513581645952214,
					0,
					-0.024652393107340118,
					-0.024652393107340118,
					0,
					-0.013215823945277197,
					0,
					0,
					0,
					-0.02328183185299677,
					-0.0125707073679838,
					-0.0219048989825898,
					-0.053595593670665936,
					0,
					0,
					0,
					0,
					0,
					-0.06932873625768715,
					0,
					0,
					0,
					0,
					-0.032627794728418105,
					0,
					-0.013215823945277197,
					0,
					0,
					-0.024652393107340118,
					-0.024652393107340118,
					-0.024652393107340118,
					-0.06980203161672008,
					0,
					-0.002672377406367395,
					-0.002672377406367395,
					0,
					0,
					0,
					0,
					0,
					-0.05730647257200863,
					0,
					0,
					0,
					0,
					0,
					0,
					0,
					-0.01071112448501297,
					0,
					0,
					-0.009334191614605998,
					0,
					0,
					0,
					-0.01071112448501297,
					0,
					0,
					-0.003653314656026946,
					-0.02510093881590353,
					0,
					-0.013513581645952214,
					0,
					-0.012640479108393955,
					-0.012640479108393955,
					-0.012640479108393955,
					-0.012640479108393955,
					-0.012640479108393955,
					-0.012640479108393955,
					0,
					-0.009334191614605998,
					-0.013215823945277197,
					-0.013215823945277197,
					0,
					0,
					0,
					-0.032627794728418105,
					-0.032627794728418105,
					-0.032627794728418105,
					0,
					0,
					0,
					-0.024678677843590527,
					-0.024678677843590527,
					0,
					0,
					0,
					0,
					0,
					0,
					0,
					0,
					0
				]
			},
			"{\"Reject\": \"previous\"}": {
				"N": 100,
				"D": 183,
				"b": -1.1599880304887966,
				"kernelType": "linear",
				"w": [
					0,
					0,
					0,
					0,
					0.27323002644929584,
					1,
					0.3600724514617557,
					0.21685199283123002,
					0,
					-0.06622454693693791,
					-0.13485602462964333,
					-0.06622454693693791,
					-0.23000994566419342,
					-0.0035648069911548173,
					-0.0035648069911548173,
					-0.0035648069911548173,
					-0.14430631025567062,
					-0.06622454693693791,
					0.4631040908181253,
					-0.1710879914669787,
					-0.06622454693693791,
					0.27155951755403923,
					-0.06622454693693791,
					-0.06645226488961872,
					-0.06681457477930346,
					-6.938893903907228e-18,
					-0.11178166999615635,
					-0.059534623547899866,
					0,
					0,
					-0.13530483888796657,
					3.469446951953614e-18,
					-0.20355694187727194,
					-0.1340667523410541,
					0.021154624913552397,
					-3.469446951953614e-18,
					-0.06871798206134394,
					-0.010012083643582897,
					0,
					-0.010239801596263714,
					-0.06927978007889955,
					0,
					0,
					0,
					-0.013576890634737718,
					0.09451496144775248,
					-0.047614361507364394,
					0.01885206696192511,
					0.09451496144775248,
					0.30170073986904933,
					0.30170073986904933,
					0.06659421349017784,
					0.15957141691393245,
					0.30170073986904933,
					0.09165834979566487,
					0.20872353644529473,
					0.2294179508165506,
					-0.009363781257388775,
					0,
					-0.00022771795268081727,
					0,
					-0.20981467212070365,
					-0.019603582853652483,
					0,
					0,
					3.469446951953614e-18,
					0,
					-0.003564806991154814,
					-0.009363781257388775,
					0,
					0,
					-6.938893903907228e-18,
					-0.009363781257388775,
					-0.009363781257388775,
					-0.010012083643582897,
					0,
					-0.23510652637887147,
					0,
					-0.00022771795268081727,
					0,
					0,
					0,
					-0.07566289448582737,
					0,
					-0.00022771795268081727,
					-0.21982675576428654,
					0,
					0,
					0,
					0,
					0,
					0,
					0,
					0,
					0,
					0,
					0,
					0,
					0,
					-6.938893903907228e-18,
					0,
					0,
					-0.010012083643582897,
					0,
					0,
					0,
					0,
					0,
					-0.30505415834401006,
					0,
					-0.009363781257388775,
					0,
					0,
					-0.04670061870549028,
					0,
					0,
					0,
					0,
					0,
					0,
					4.7704895589362195e-18,
					-0.11320801974644233,
					0,
					3.469446951953614e-18,
					3.469446951953614e-18,
					0,
					-6.938893903907228e-18,
					4.7704895589362195e-18,
					-0.00022771795268081727,
					0,
					0.34665293307751643,
					-0.05300996619188494,
					-0.00022771795268081727,
					-0.00022771795268081727,
					-0.00022771795268081727,
					-0.00022771795268081727,
					-0.00022771795268081727,
					-0.00022771795268081727,
					-0.0002277179526808242,
					-0.00022771795268081727,
					-0.00022771795268081727,
					0,
					0,
					0,
					0,
					-6.938893903907228e-18,
					4.7704895589362195e-18,
					0,
					-0.07566289448582737,
					-0.07311121002483202,
					0,
					0,
					0,
					0,
					0,
					0,
					0,
					0,
					0,
					-0.010012083643582897,
					0,
					0,
					0,
					0,
					0,
					0,
					-0.04670061870549028,
					-0.04670061870549028,
					-0.04670061870549028,
					-0.06871798206134393,
					-0.06871798206134393,
					-0.06871798206134393,
					0.5393407213986462,
					0.5393407213986462,
					-0.09297720342375462,
					-6.938893903907228e-18,
					-6.938893903907228e-18,
					-0.09297720342375461,
					-0.09297720342375461,
					-0.09297720342375461,
					-0.09297720342375461,
					-0.23000994566419342,
					-0.23000994566419342
				]
			},
			"{\"Offer\": {\"Promotion Possibilities\": \"Fast promotion track\"}}": {
				"N": 100,
				"D": 183,
				"b": -1.1374205206188215,
				"kernelType": "linear",
				"w": [
					0,
					0,
					0,
					0,
					0.03283738670074593,
					-8.131516293641283e-20,
					-0.029088707174754373,
					0.06967705134789837,
					-1.734723475976807e-18,
					0.00857560714089508,
					0.07316330639220753,
					0.024151227404375163,
					-0.03447787952174039,
					1.008846462284445,
					0.5815240417384756,
					0.5815240417384756,
					-0.12326886374556112,
					-0.03876719658936327,
					-0.03876719658936325,
					-0.035339849885516826,
					0.2411021411204363,
					-0.0030941268513297177,
					0.018835305565876086,
					-0.021736600065088527,
					0.058467742100572824,
					-0.026337355463043548,
					0.12635545049702931,
					-0.002506170188348887,
					0,
					0,
					0.11311094011728845,
					-0.043292038458377785,
					-0.0937445650275947,
					0,
					-0.0410529865021911,
					0.18027054719356195,
					-0.023424670938222744,
					-0.055554785375613196,
					-0.055554785375613175,
					0.040571905630964585,
					0.08402777858026156,
					0.03531846189754806,
					-0.045295086950632224,
					-0.045295086950632224,
					0.04618228729242558,
					-0.010026992696747589,
					-0.010026992696747589,
					-0.010026992696747589,
					-0.010026992696747589,
					-0.010026992696747587,
					-0.010026992696747587,
					-0.010026992696747587,
					-0.010026992696747587,
					-0.010026992696747587,
					-0.00965039472973292,
					-0.010026992696747587,
					0.09713227455978164,
					0.05047233701865907,
					0.06658736162556464,
					0.026346285376608963,
					0.03754258641587637,
					-0.01255315263576804,
					-0.17627331559427956,
					-0.001248298604014944,
					0.06658736162556464,
					-0.09579320407453074,
					0.06658736162556464,
					-0.055134557696423406,
					0.007104385031340789,
					0.06658736162556464,
					0.7444615933069346,
					-0.267404298991046,
					-1.2088854223213374e-17,
					-0.011196301039267418,
					0.014283923346220813,
					0.10950512188582814,
					-0.009985632267028633,
					-0.009985632267028633,
					-0.00998563226702863,
					-0.00998563226702863,
					-0.053353584254346914,
					-8.673617379884035e-19,
					-0.016115024606905566,
					0,
					0,
					-0.09454279568750995,
					-0.06783566022957958,
					0.06543254961774421,
					-0.05622153246635647,
					0.06543254961774422,
					-0.12512478076807654,
					-0.12512478076807654,
					-0.13805453137085924,
					-0.10375994680805255,
					0.1324205047556395,
					0.060806046734266594,
					0.18790476618714302,
					0.18790476618714302,
					-0.13805453137085924,
					-0.12481483003165098,
					0.0245436217712018,
					3.469446951953614e-18,
					1.0408340855860843e-17,
					-0.1449290617550375,
					-0.729088814594785,
					-0.9899688359589647,
					-0.0013606558551252242,
					-0.010259698424980965,
					-0.029088707174754373,
					-0.267404298991046,
					-0.10289758910587155,
					0.017030596524274733,
					-3.2526065174565133e-18,
					1.0625181290357943e-17,
					-3.2526065174565133e-18,
					0.05126181258907183,
					-0.012929750602782711,
					0.09153157690909708,
					0,
					0,
					0,
					0,
					0.059979856538142196,
					0,
					0,
					0,
					-0.01979206293439994,
					0,
					0,
					0,
					-0.019792062934399925,
					0,
					0,
					0,
					0,
					0,
					0,
					0,
					0,
					0,
					0,
					0.23650138572248125,
					-0.043367951987318284,
					-0.043367951987318284,
					-0.043367951987318284,
					0,
					0,
					0,
					-2.168404344971009e-19,
					0,
					0.27986933770979955,
					-1.0408340855860843e-17,
					0.024543621771201795,
					-5.204170427930421e-18,
					-5.204170427930421e-18,
					-5.204170427930421e-18,
					-5.204170427930421e-18,
					-5.204170427930421e-18,
					-5.204170427930421e-18,
					6.938893903907228e-18,
					0,
					0.06419156319185454,
					0.06419156319185454,
					0,
					0,
					0,
					1.3877787807814457e-17,
					1.3877787807814457e-17,
					1.3877787807814457e-17,
					0,
					0,
					0,
					0,
					0,
					-0.01979206293439994,
					-0.01979206293439994,
					-0.01979206293439994,
					0,
					0,
					0,
					0,
					0,
					0
				]
			},
			"{\"Offer\": {\"Job Description\": \"Programmer\"}}": {
				"N": 100,
				"D": 183,
				"b": -1.0293196336664179,
				"kernelType": "linear",
				"w": [
					0,
					0,
					0,
					0,
					-0.018661345727308612,
					0,
					-3.767602549387128e-18,
					-0.03589593613708057,
					0.25467017846189716,
					0.248670404387307,
					0.19183571226527685,
					1.3048237048855185,
					-0.016115325886944587,
					0.029781609698053324,
					0.007988434343354223,
					0.007988434343354223,
					0.1557627199213084,
					0.11606584193510863,
					0.09207436565176036,
					0.13055643035057865,
					-0.09395747982873573,
					-0.2067066098444547,
					0.037029635140789025,
					0.07243709436542792,
					-0.04822493619980983,
					0.1347786467214859,
					-0.08242562873733118,
					0.15017022087689585,
					0.18846802005556404,
					0.18846802005556404,
					0.0069730974552948966,
					0.05760928341973712,
					0.15028276932818163,
					-0.08100833042838845,
					-0.19278487850369685,
					0.23044245952521222,
					0.08603015220490029,
					-0.07308199424238793,
					-0.05282287256565929,
					0.013959824372797887,
					0.19716246893297096,
					-0.08256216297720256,
					-0.06598959204404373,
					-0.06598959204404373,
					0.0775445698662276,
					0,
					-0.0054755682597531045,
					0,
					0,
					0.11471095619699746,
					0,
					0,
					0,
					0,
					-0.18727099975779832,
					0,
					0.03253303851778189,
					0.3054035627713861,
					0.12277694311260004,
					-0.3419272117175559,
					-0.18821224962413421,
					0.08063121470578744,
					-0.19062064380060262,
					0.02942070162686461,
					-0.023503130063112162,
					0.34226958253824225,
					-0.023503130063112162,
					-0.13068823152759423,
					0.15912348959567385,
					-0.023503130063112162,
					-0.05208780377776007,
					-0.07827421626045107,
					-0.10008775019855544,
					-0.23991300640959234,
					-0.10764519826362906,
					-0.04707792220372298,
					-0.022650879001620588,
					-0.01717531074186749,
					1.734723475976807e-18,
					0,
					0,
					0.009937983156290782,
					0.17597134949247129,
					-0.10628933978195976,
					-0.10628933978195976,
					-0.14268101214191237,
					-0.09335624148573543,
					0.19344334757197915,
					-0.008552750188757341,
					0.2140415626939767,
					-0.11934241386955943,
					-0.03871832618226517,
					0.13428585197054743,
					1.3593183878390644,
					-0.04707792220372298,
					0.17143052321849017,
					0.006571426677394965,
					0.006571426677394965,
					-0.11934241386955943,
					-0.023626451472856948,
					-0.10055279606528486,
					0,
					-0.01689620238283677,
					0.05364934888111794,
					0.09043263114253258,
					0.03022919399085866,
					-1.3010426069826053e-18,
					0.013166719478384444,
					-0.00547556825975311,
					-0.021221923632481043,
					0.016134112481632712,
					-0.1785988254434068,
					-0.01717531074186749,
					0.43643760774991863,
					-0.01717531074186749,
					-0.10742059205787932,
					-0.08062408768729426,
					-0.341074065840987,
					0.09238009046551834,
					0.09238009046551834,
					0.11983823895870523,
					0,
					0,
					-0.08322977226051885,
					-0.08322977226051885,
					-0.0054755682597531045,
					-0.07751126993251288,
					-0.005475568259753098,
					-0.005475568259753103,
					-0.0054755682597531045,
					0.23188190401827716,
					-0.10544471484067229,
					1.734723475976807e-18,
					1.734723475976807e-18,
					1.734723475976807e-18,
					1.734723475976807e-18,
					1.734723475976807e-18,
					1.734723475976807e-18,
					-0.03679317095124139,
					1.734723475976807e-18,
					1.734723475976807e-18,
					-0.11158912034281088,
					0,
					0,
					0,
					-0.03679317095124139,
					0.1462800731757122,
					0.1462800731757122,
					0,
					2.3852447794681098e-18,
					-0.11158912034281088,
					0,
					-0.10055279606528486,
					0,
					0,
					0,
					0,
					0,
					0,
					0,
					0,
					-0.02679650437058507,
					-0.02679650437058507,
					0,
					0,
					0,
					0.45361291849178614,
					0.45361291849178614,
					0.45361291849178614,
					-0.059013881061372314,
					-0.059013881061372314,
					-0.059013881061372314,
					-0.04425059796007691,
					-0.04425059796007691,
					-0.07203570167275977,
					-0.07203570167275977,
					-0.07203570167275977,
					0,
					0,
					0,
					0,
					1.1926223897340549e-18,
					1.1926223897340549e-18
				]
			},
			"{\"Offer\": {\"Salary\": \"12,000 NIS\"}}": {
				"N": 100,
				"D": 183,
				"b": -1.008206227601952,
				"kernelType": "linear",
				"w": [
					0,
					1.8973538018496328e-19,
					1.8973538018496328e-19,
					1.8973538018496328e-19,
					-0.04335150346043724,
					0,
					-0.009642546910844976,
					0.01660967675065687,
					-0.07735052740845455,
					-0.028099171683316895,
					0.018894783313543426,
					0.08655491577822805,
					-0.029619999087582272,
					0.08307983102837863,
					-0.02252421219771543,
					-0.02252421219771543,
					1.6757069601022103,
					0.09541417182854423,
					0.03990496324850066,
					0.052591116356827804,
					-0.005919505039986596,
					-0.03495506132469638,
					0.0005567721572301634,
					0.15132352200446575,
					-0.045692871748601094,
					-0.03955847055864466,
					-0.049590042840599646,
					0.041620382964015365,
					-3.903127820947816e-18,
					-3.903127820947816e-18,
					0.002139884986723274,
					-0.054726689242711846,
					0.02922445731679556,
					-0.0017619757540879768,
					0.05380068916845973,
					0.09776911365765538,
					0.17181972890255648,
					-0.04787906795868827,
					0.007630140621355294,
					0.005498452370953165,
					0.07966827419776844,
					0.027864726435259737,
					-0.006116711983353021,
					-0.006116711983353021,
					0.05390655918034769,
					-0.03174832914777352,
					0.10353698775628115,
					-0.03174832914777352,
					-0.03174832914777352,
					0,
					0,
					-0.037329369373872906,
					-0.037329369373872906,
					0,
					-0.04248326739228046,
					0,
					0.03965917827145839,
					0.004170124691439528,
					0.022715766785159533,
					-0.08169634926025371,
					0.0630461725247721,
					-0.02512743653463441,
					0.013281336947633011,
					0.00126432608257325,
					2.9815559743351372e-18,
					-0.043267125527616586,
					2.9815559743351372e-18,
					0.004757674624474958,
					-0.04032591412585547,
					2.9815559743351372e-18,
					-0.032822677215523274,
					0.15565525567288063,
					0.06027952950764582,
					0.06287117563678994,
					-0.04176235597533522,
					-0.03843202032528123,
					-0.037329369373872906,
					-2.656295322589486e-18,
					-0.010756401861090118,
					-2.6020852139652106e-18,
					-0.021780272032135475,
					0.0016724824230736114,
					0.0033099621353641223,
					0.08581991803735775,
					0.07506351617626764,
					-0.011694825902195068,
					-0.021451440702586283,
					-0.03068417663301914,
					0.02800800454813429,
					-0.3520893044221447,
					0.11490571105763016,
					-0.012335806108870688,
					-0.06017900942866463,
					0.05648524420760659,
					-0.012335806108870688,
					0.09240956105964178,
					-0.0034878429493158114,
					-0.0034878429493158114,
					0.001796345024064512,
					-0.2391194766590139,
					0.12415792766010196,
					0.018208993419186054,
					0.05093570959509664,
					0.008847963159554884,
					2.2768245622195593e-18,
					-0.0017141081079533604,
					0.058060469449628435,
					0.013746852604708343,
					6.505213034913027e-19,
					0.06870729289727298,
					0.19685729556072562,
					8.673617379884035e-19,
					-5.421010862427522e-20,
					9.215718466126788e-19,
					-5.421010862427522e-20,
					-0.01520268313327227,
					0.014132151132935193,
					0.043794861746581724,
					0.018481376245962335,
					0.018481376245962335,
					-0.029224457316795738,
					0,
					0,
					-0.05599101532528509,
					-0.05599101532528509,
					-1.951563910473908e-18,
					-0.03546330609449509,
					6.505213034913027e-19,
					-0.010756401861090118,
					-1.951563910473908e-18,
					-0.03546330609449509,
					0,
					-0.010756401861090116,
					-0.010756401861090116,
					-0.010756401861090116,
					-0.010756401861090116,
					-0.010756401861090116,
					-0.010756401861090116,
					-0.010821590902637556,
					-0.010756401861090116,
					-0.010756401861090116,
					0.04252551499953172,
					-0.02178027203213547,
					-0.02178027203213547,
					-0.02178027203213547,
					-0.00006518904154743951,
					0.022715766785159533,
					0.02271576678515953,
					0,
					-0.05226722099291873,
					-0.00235996500534446,
					0.0870131518171551,
					0,
					0,
					0,
					0,
					0,
					0,
					0,
					-0.055509208580043566,
					0.06666575203701165,
					-0.029334834266207463,
					-0.029334834266207463,
					0,
					0,
					0,
					9.75781955236954e-19,
					9.75781955236954e-19,
					9.75781955236954e-19,
					0.0519325625131446,
					0.0519325625131446,
					0.0519325625131446,
					0,
					0,
					-0.03546330609449509,
					-0.03546330609449509,
					-0.03546330609449509,
					0,
					0,
					0,
					0,
					-2.5478751053409354e-18,
					-2.5478751053409354e-18
				]
			},
			"{\"Offer\": {\"Pension Fund\": \"10%\"}}": {
				"N": 100,
				"D": 183,
				"b": -1.2562240350024818,
				"kernelType": "linear",
				"w": [
					0,
					-3.469446951953614e-18,
					-3.469446951953614e-18,
					-3.469446951953614e-18,
					-0.12814697476888323,
					4.336808689942018e-18,
					0.001676638318376974,
					0.125766319003108,
					-0.04418533636411419,
					0.2907288866543177,
					0.19179695319397375,
					-0.019571284135419607,
					-0.4063231286928877,
					-0.0642140536530975,
					0.3340194540222723,
					-0.025477426324332253,
					0.13261747034273846,
					-0.24057025067045146,
					-0.10564562021449271,
					-0.024942880187061034,
					0,
					0.014899104628415656,
					0.14143998285377998,
					-0.2510036480194153,
					0.9675582534067219,
					0.22676543505673807,
					-0.04531063031919022,
					-0.10834902056810136,
					0.04775571919026759,
					0.04775571919026759,
					-0.1469604984551963,
					0.07248819977470701,
					1.0437935552766748,
					-0.03230609156391975,
					0.3630785837781052,
					0.6718321880044535,
					0.11827469919254413,
					-0.0013789024062938336,
					0.34483696847865025,
					0.08386298087118772,
					0.012364148879615088,
					-0.11976592439302812,
					0.1059163529723107,
					0.1059163529723107,
					-0.7114838740710182,
					0,
					-0.16409287202508624,
					-0.029900099864279796,
					0,
					-0.04614472790553945,
					0,
					-0.03744111063137158,
					0,
					0,
					-0.3077553664820634,
					-0.03744111063137158,
					0.041010724011726694,
					-0.037074554637120935,
					-0.013928979175439676,
					0.32461769569996063,
					-0.12880703010645397,
					-0.45223850231210627,
					0.13684504086138188,
					-0.24719313170652266,
					-0.013928979175439676,
					-0.24457648438567275,
					-0.013928979175439676,
					-0.10767292358930236,
					-0.037074554637120935,
					-0.013928979175439676,
					0.37102075892022135,
					-0.24057025067045146,
					-0.26371582613213274,
					0.24538086294442576,
					0.16171527874853936,
					-0.15528222506976982,
					-0.14125636542388365,
					-0.21094051577691747,
					-0.2109541883399137,
					-0.15528222506976982,
					-0.15528222506976982,
					0.023003060943966445,
					-0.06220619142819954,
					-2.0166160408230382e-17,
					-0.055671963270143905,
					0.06904445201909734,
					-0.23326415253108299,
					0.26901053412714376,
					-1.9332000536063483,
					0.06742931549018205,
					0.11784038326464648,
					0.22644394893857997,
					0.09943138094050197,
					-0.030641023645120252,
					0,
					-0.2590298992951302,
					0.37562078358484186,
					0.37562078358484186,
					0.024911327104372508,
					0.03084061173417648,
					0.04282921767596004,
					-0.06208844442609749,
					-0.11850831488648826,
					0.595027035082417,
					-0.09713261243192708,
					0.12434536118707518,
					-0.18416284513622247,
					0.2389206155063398,
					0.001676638318376987,
					0,
					-0.25379308067191436,
					-0.14918695684373198,
					-0.055658290707147645,
					-0.055658290707147645,
					-0.055658290707147645,
					-0.09223691372210961,
					-0.01567450951365952,
					0.09292905616027397,
					-0.14268707751173754,
					-0.14268707751173754,
					-0.11845588206465923,
					3.144186300207963e-18,
					-0.7347789664418972,
					-0.11646252367764977,
					-0.11646252367764977,
					0,
					0.10544862266602842,
					0.001676638318376987,
					-0.055671963270143884,
					0,
					0.1697235268852328,
					0.20716463751660436,
					-0.055671963270143884,
					-0.055671963270143884,
					-0.055671963270143884,
					-0.055671963270143884,
					-0.055671963270143884,
					-0.055671963270143884,
					-0.055671963270143884,
					-0.055671963270143884,
					-0.055671963270143884,
					0,
					0,
					0,
					0,
					0,
					0.001676638318376987,
					0,
					-0.029900099864279796,
					-0.01338206781951545,
					0,
					0,
					0.26901053412714376,
					0.21482297257187266,
					0.21482297257187266,
					0.21482297257187266,
					0.21482297257187266,
					0.21482297257187266,
					0.21482297257187266,
					-0.10564562021449271,
					0,
					-0.07656240420845009,
					-0.07656240420845009,
					0.10544862266602842,
					0.10544862266602842,
					0.10544862266602842,
					-3.0357660829594124e-18,
					-3.0357660829594124e-18,
					-3.0357660829594124e-18,
					0,
					0,
					0,
					-8.673617379884035e-19,
					-8.673617379884035e-19,
					-0.03744111063137158,
					2.6020852139652106e-18,
					2.6020852139652106e-18,
					-0.03744111063137158,
					-0.03744111063137158,
					-0.03744111063137158,
					-0.03744111063137158,
					0,
					0
				]
			},
			"{\"Accept\": \"previous\"}": {
				"N": 100,
				"D": 183,
				"b": -0.5081731521393218,
				"kernelType": "linear",
				"w": [
					0,
					-0.16372942550255223,
					-0.16372942550255223,
					-0.16372942550255223,
					0.6669112771324176,
					-1,
					0.17507685782045823,
					-0.04457262112670635,
					0,
					-0.3775811456383234,
					0.0028517169767302286,
					-0.5787718838844143,
					-0.4902610972840494,
					0.17942378313912888,
					-0.13120937350471945,
					-0.13120937350471945,
					-0.2752172746956337,
					-0.1313314132491235,
					-0.3093787015590807,
					-0.041593662830477794,
					-0.47819564363549943,
					0.3403299119169032,
					0.01471620724258551,
					-0.0915884459809369,
					0.00046723951924491913,
					0.723036841479512,
					0.6379058942250861,
					-0.5374325542625402,
					-0.1556079115447031,
					-0.1556079115447031,
					0.6278055418715343,
					-0.3651631725903689,
					-0.41402805589963754,
					0.7820127999338252,
					-0.24031099914433712,
					1.5612511283791264e-17,
					-0.15577698093872033,
					-0.03523566099822105,
					-0.0163201320789269,
					-0.018915528919294086,
					0.11500534429677654,
					-0.016320132078926894,
					-0.0163201320789269,
					-0.0163201320789269,
					-0.4342874208910593,
					-0.04817471198918773,
					-0.34701197549257845,
					-0.04817471198918772,
					-0.04817471198918773,
					-0.09158844598093697,
					-2.8189256484623115e-18,
					-0.13084836140087808,
					-0.05103010390975767,
					-2.8189256484623115e-18,
					-0.6096625171537153,
					-0.07981825749112041,
					0.39318462249676606,
					-0.07799234701469013,
					-3.469446951953614e-18,
					5.2909066017292616e-17,
					5.2909066017292616e-17,
					0.02626648721606614,
					0.30528328769078994,
					-0.041055013488004874,
					0,
					-0.5182254182829001,
					0,
					0.025887174481594222,
					-0.16331814098426445,
					0,
					-0.08170123757193325,
					-0.16736086625533414,
					-0.20932376026381364,
					-0.20932376026381364,
					-0.01891552891929414,
					-0.16198556554518245,
					0.08213180948363068,
					0.2674806216442639,
					-0.1619855655451824,
					-0.16198556554518245,
					-0.24731135951475677,
					0,
					-0.8467990709973312,
					-0.03024891041739335,
					-0.030248910417393294,
					0.08120130867738597,
					-0.041055013488004874,
					3.469446951953614e-18,
					-0.2655838566425113,
					1.734723475976807e-18,
					7.860465750519907e-18,
					7.860465750519907e-18,
					-0.040540306782350675,
					-0.05686043886127756,
					3.469446951953614e-18,
					-0.09802136965086014,
					6.1257422745431e-18,
					6.1257422745431e-18,
					7.860465750519907e-18,
					-0.3291127001616789,
					-0.3705606469039022,
					-0.29308324715546824,
					0.7418552374259271,
					2.656295322589486e-18,
					-0.016320132078926904,
					8.673617379884035e-18,
					0,
					0,
					0.8416703641142276,
					0,
					-0.09431247909361698,
					5.204170427930421e-18,
					0.42946618718944635,
					0.6189514753528064,
					0.42946618718944635,
					-0.08170123757193325,
					0,
					0,
					-0.04054030678235068,
					-0.04054030678235068,
					0.07528900230309325,
					0.842054279342987,
					0,
					-0.16850024755766094,
					-0.16850024755766094,
					-0.1703297598451991,
					-0.17032975984519907,
					-0.05450045075975517,
					-0.17032975984519905,
					-0.1703297598451991,
					0.3209981179024654,
					0.6331256731191359,
					5.551115123125783e-17,
					5.551115123125783e-17,
					5.551115123125783e-17,
					5.551115123125783e-17,
					5.551115123125783e-17,
					5.551115123125783e-17,
					-0.03602945300621059,
					5.551115123125783e-17,
					5.551115123125783e-17,
					-0.2979375809625625,
					-0.08532579396957432,
					-0.08532579396957432,
					-0.08532579396957432,
					-0.036029453006210646,
					0.11582930908544394,
					-3.469446951953614e-18,
					5.204170427930421e-18,
					-0.054194664976327335,
					-0.21261178699298816,
					0,
					0,
					-0.08193263867396393,
					-0.08193263867396393,
					-0.08193263867396393,
					-0.08193263867396393,
					-0.08193263867396393,
					-0.08193263867396393,
					0.11241588432982937,
					9.974659986866641e-18,
					-0.08170123757193325,
					-0.08170123757193325,
					2.7755575615628914e-17,
					2.7755575615628914e-17,
					2.7755575615628914e-17,
					0.18948528816336002,
					0.18948528816336002,
					0.18948528816336002,
					0.14974137379387104,
					0.14974137379387104,
					0.14974137379387104,
					-0.42179458588891006,
					-0.42179458588891006,
					-0.0798182574911204,
					6.938893903907228e-18,
					6.938893903907228e-18,
					-0.07981825749112041,
					-0.07981825749112041,
					-0.07981825749112041,
					-0.07981825749112041,
					0.600765437649057,
					0.600765437649057
				]
			},
			"{\"Offer\": {\"Working Hours\": \"9 hours\"}}": {
				"N": 100,
				"D": 183,
				"b": -1.022271664148915,
				"kernelType": "linear",
				"w": [
					0,
					0,
					0,
					0,
					-0.135066015143563,
					0,
					-0.06001261818500293,
					0.021207923693997842,
					0,
					-0.179533017668629,
					0.037761847510319545,
					0.0904542005320893,
					-0.012162610001434128,
					0.04979019476717565,
					0.1575624545675459,
					-0.1729356684818786,
					0.08302505005414594,
					1.734723475976807e-18,
					-0.0018504526634101587,
					0.01962785914355942,
					0,
					0.015462061800236137,
					-0.09081040656742574,
					-0.09581753543792763,
					-0.34413605148364784,
					-0.10152566790585402,
					0.09533290681274464,
					-0.056418564122500924,
					0,
					0,
					-0.020080946753288392,
					0.06348776380220685,
					0.011967498433218985,
					-0.054276429135689884,
					0.000429656223574089,
					1.6708601587359753,
					-0.0002774114705091182,
					0.044107820646342936,
					0.044107820646342936,
					-0.1529930874343632,
					0.1079483490708837,
					0.11273880430867317,
					0.044107820646342936,
					0.044107820646342936,
					0.2151189775863981,
					-0.0031814306837274218,
					-0.013054255951895369,
					-0.0031814306837274218,
					-0.0031814306837274218,
					-0.003181430683727424,
					-0.003181430683727424,
					-0.005822175453226794,
					-0.003181430683727418,
					-0.003181430683727424,
					-0.0038192713518244324,
					-0.0058221754532268005,
					-0.003181430683727429,
					0,
					0,
					-0.04934902731459157,
					-1.3010426069826053e-18,
					-0.013904852829595409,
					-0.010246388747919579,
					0,
					0,
					-0.05071269224476463,
					0,
					0.0009045934212721929,
					-0.005708132467926378,
					0,
					0.12835623892110165,
					-0.02211379292011041,
					1.734723475976807e-18,
					-0.04934902731459157,
					6.071532165918825e-18,
					-0.004212628036332673,
					-0.0026407447694993696,
					8.673617379884035e-19,
					0,
					0,
					-0.005708132467926378,
					-0.02523484729899642,
					-1.3010426069826053e-18,
					-0.030415649101056947,
					-0.030415649101056947,
					0.04922671009208221,
					0,
					-0.06269326296803762,
					-0.01499621021962416,
					-0.004212628036332673,
					-0.016083106172502692,
					-0.004212628036332673,
					-0.017479640197831072,
					0.0811343714602262,
					-0.004212628036332673,
					-0.14994794785793011,
					-0.1062288371796839,
					-0.1062288371796839,
					-0.004212628036332673,
					3.645629804982509e-18,
					-0.009872825268167955,
					-3.333921680392926e-18,
					-0.03886656676268771,
					0.1288809761419488,
					-0.08132095016049182,
					0.05049365625581997,
					0,
					3.469446951953614e-18,
					-0.034729930543832804,
					-0.010243314783940393,
					-0.04500455977683825,
					-0.09581753543792763,
					8.673617379884035e-19,
					8.673617379884035e-19,
					8.673617379884035e-19,
					-0.03262849956816799,
					0,
					0,
					-0.0132670121614984,
					-0.0132670121614984,
					-0.0132670121614984,
					0,
					-0.11734726137456016,
					0.06348776380220685,
					0.06348776380220685,
					0,
					0.016124656944968847,
					0,
					0,
					0,
					0.011633459512059312,
					0,
					0,
					0,
					0,
					0,
					0,
					0,
					1.7618285302889447e-19,
					0,
					0,
					-0.005708132467926381,
					-0.005708132467926378,
					-0.005708132467926378,
					-0.005708132467926378,
					1.7618285302889447e-19,
					0,
					0,
					0,
					0,
					0,
					-0.01187047813617002,
					0,
					0,
					0,
					0,
					0,
					0,
					0,
					8.673617379884035e-19,
					-3.333921680392926e-18,
					-0.03262849956816799,
					-0.03262849956816799,
					0,
					0,
					0,
					0,
					0,
					0,
					0,
					0,
					0,
					-0.0018504526634101595,
					-0.0018504526634101595,
					0.013483912175469471,
					0.016124656944968847,
					0.016124656944968847,
					-0.0026407447694993765,
					-0.0026407447694993765,
					-0.0026407447694993765,
					-0.0026407447694993765,
					0,
					0
				]
			},
			"{\"Offer\": {\"Leased Car\": \"With leased car\"}}": {
				"N": 100,
				"D": 183,
				"b": -1.4412686022444692,
				"kernelType": "linear",
				"w": [
					0,
					-1.734723475976807e-18,
					-1.734723475976807e-18,
					-1.734723475976807e-18,
					0.15992734943965412,
					0,
					0,
					-0.15921248358274748,
					-0.04024768038739911,
					-0.10401663111613296,
					-0.11402291355356507,
					0.3985174265677798,
					0.2618445852048665,
					-0.09271791948993001,
					0.06628005993600375,
					0.06628005993600375,
					0.1573289656558294,
					0.06609242294274309,
					-4.336808689942018e-19,
					-0.04431720631154234,
					-7.37257477290143e-18,
					0.11213840048625086,
					-0.2802667409193514,
					-0.09848654825152613,
					0.26557384457310773,
					-0.18239378761606576,
					-0.2905112447124027,
					0.11184010324890022,
					-0.030890545601525887,
					-0.030890545601525887,
					0.017712967548229458,
					-0.05438640401500537,
					0.09647743540985898,
					-0.15493342998542975,
					-0.051967028160042714,
					0.27060634005033113,
					0.12848680134030285,
					0.04670449672331528,
					-0.01938792621942803,
					0.4541503798093409,
					0.6308871667079141,
					-0.03549481838682825,
					-0.03549481838682825,
					-0.03549481838682825,
					0.17587594269581583,
					0,
					0,
					2.0816681711721685e-17,
					0,
					0.26450325700566263,
					0,
					-3.0357660829594124e-18,
					0,
					0,
					-0.18932861838306259,
					-3.0357660829594124e-18,
					0.20047873570932487,
					-0.045185788901250766,
					-0.02674536654913242,
					0.07016394257888597,
					0.07781376442738636,
					0.2546941202252189,
					-0.19023203381178277,
					-0.02674536654913242,
					-0.004152923564373139,
					-0.022593345916491495,
					-0.004152923564373139,
					-0.0796552020247258,
					-0.022593345916491484,
					-0.004152923564373139,
					-0.13396570635790023,
					0.06609242294274308,
					0.06609242294274309,
					0.06609242294274309,
					0.08129589968142313,
					-0.12284675929633354,
					-9.107298248878237e-18,
					-6.071532165918825e-18,
					-0.007649821848500408,
					-6.071532165918825e-18,
					-6.071532165918825e-18,
					0.11170603209571502,
					-0.17337385233754807,
					0,
					-0.007649821848500402,
					-1.9838931078325999,
					0,
					-0.18385910465086894,
					0.0007941918060582476,
					0.03337967670336804,
					-0.32833094000923274,
					-0.20418478906312731,
					0.07725469771122404,
					0.3299631023616766,
					-0.42709061103435986,
					0.4148571214385287,
					-0.028704524971405354,
					-0.028704524971405354,
					-0.024087088271206397,
					-0.005804749880636126,
					-0.0009034154287202005,
					0,
					0,
					0.5201836502120653,
					0.22290582197123254,
					0.07005786381260172,
					2.168404344971009e-19,
					0.016106892167400244,
					0,
					6.938893903907228e-18,
					0,
					-0.35533998340868833,
					0,
					0,
					0,
					0.1800977007919209,
					0.1800977007919209,
					-0.2441349218122111,
					-0.14695051590978045,
					-0.14695051590978045,
					-0.02280436496367501,
					0,
					0,
					0,
					0,
					0,
					-0.01757183976240991,
					0,
					-0.007649821848500402,
					0,
					-0.0339539312080687,
					-0.016382091445658793,
					-0.007649821848500402,
					-0.007649821848500402,
					-0.007649821848500402,
					-0.007649821848500402,
					-0.007649821848500402,
					-0.007649821848500402,
					-0.00764982184850041,
					-0.007649821848500402,
					-0.007649821848500402,
					-2.42861286636753e-17,
					0,
					0,
					0,
					-7.806255641895632e-18,
					-0.022592442984759282,
					-0.022592442984759282,
					2.0816681711721685e-17,
					0,
					-2.42861286636753e-17,
					0,
					-0.0009034154287202005,
					0,
					0,
					0,
					0,
					0,
					0,
					0,
					0,
					-1.734723475976807e-18,
					-1.734723475976807e-18,
					0,
					0,
					0,
					0,
					0,
					0,
					-0.14903084311717182,
					-0.14903084311717182,
					-0.14903084311717182,
					0,
					0,
					-0.017571839762409912,
					-0.01757183976240991,
					-0.01757183976240991,
					-3.0357660829594124e-18,
					-3.0357660829594124e-18,
					-3.0357660829594124e-18,
					-3.0357660829594124e-18,
					0,
					0
				]
			},
			"{\"Insist\": \"previous\"}": {
				"N": 100,
				"D": 183,
				"b": -0.6820154227682305,
				"kernelType": "linear",
				"w": [
					0,
					-0.10603207201976328,
					-0.10603207201976328,
					-0.10603207201976328,
					-0.3691281470259812,
					0,
					-0.13938676390540217,
					0.09700603666300821,
					0,
					-6.938893903907228e-18,
					-0.15194414143512125,
					-0.08120551293511455,
					-0.1626621144979757,
					-0.052944013680292966,
					-0.05118922452675042,
					-0.05118922452675042,
					-0.37613191765340154,
					0,
					-0.19395036346810005,
					-0.1473680865720548,
					5.421010862427522e-18,
					0.42381726941272135,
					-0.14416258059762635,
					-0.025621855496747323,
					-0.4787292001826151,
					-0.017433274941586505,
					-0.2464204715875224,
					0.31735828752568174,
					0,
					0,
					-0.04953225558119202,
					-0.055083260695958626,
					-0.18183673075799828,
					-0.11022504420285846,
					0.1607446229508453,
					-0.13261920476603073,
					-0.06696553052277852,
					0,
					0,
					0,
					-0.0298925893228769,
					0,
					0,
					0,
					-0.23644740647372253,
					0.32720672889838104,
					0.45275023824647576,
					0.5744326717668315,
					0.32720672889838104,
					0,
					0,
					0.43337323884326145,
					0.29373276410423754,
					0,
					-0.21172932008087517,
					0.1396404747390239,
					-0.049532255581192015,
					-0.10257813245572661,
					0,
					-0.08120551293511455,
					-0.05098818812014749,
					-0.1969804382748511,
					-0.023127408674154606,
					0,
					0,
					0.028455630210050185,
					0,
					0.05457788244920611,
					-0.10257813245572661,
					0,
					-4.336808689942018e-19,
					-0.01918806409512905,
					-0.021372619520612056,
					-0.051589944335579105,
					-5.204170427930421e-18,
					-0.01947341965651773,
					0.40498387881819264,
					-0.12330162136420952,
					-0.01947341965651773,
					-0.01947341965651773,
					-0.01947341965651773,
					0,
					0.2756815730785008,
					0,
					0,
					-0.1969804382748511,
					0,
					-1.214306433183765e-17,
					-1.951563910473908e-18,
					-5.204170427930421e-18,
					-1.9664716903455837e-17,
					-1.9664716903455837e-17,
					-1.9664716903455837e-17,
					-4.336808689942018e-19,
					0,
					-4.336808689942018e-19,
					-2.0098397772450038e-17,
					-2.0098397772450038e-17,
					0,
					-0.017433274941586512,
					-0.2778503979013076,
					-0.02562185549674731,
					-0.2778503979013076,
					-4.336808689942018e-19,
					0,
					0,
					0,
					0,
					-0.02972562076023741,
					-0.0017547891535425462,
					-0.021372619520612056,
					0,
					-0.10382820170769179,
					-0.11737438711008377,
					-0.10382820170769179,
					-1.9664716903455837e-17,
					-1.9664716903455837e-17,
					-1.9664716903455837e-17,
					-1.9664716903455837e-17,
					-1.9664716903455837e-17,
					0,
					0,
					0,
					-0.04033437888993455,
					-0.04033437888993455,
					0.10966114314516473,
					0.0026274354630444613,
					0.10966114314516473,
					0.10966114314516473,
					0.10966114314516473,
					-0.1601409000075643,
					0,
					0,
					0,
					0,
					0,
					0,
					0,
					-0.017433274941586505,
					0,
					0,
					-0.025621855496747323,
					0,
					0,
					0,
					-0.017433274941586505,
					0,
					0,
					0.24722594286845054,
					0.7799621485236079,
					0,
					0,
					-5.204170427930421e-18,
					0,
					0,
					0,
					0,
					0,
					0,
					0,
					-0.025621855496747323,
					0,
					0,
					-0.014748881806024074,
					-0.014748881806024074,
					-0.014748881806024074,
					-0.013546185402391983,
					-0.013546185402391983,
					-0.013546185402391983,
					-0.049532255581192015,
					-0.049532255581192015,
					-0.049532255581192015,
					-0.19395036346810005,
					-0.19395036346810005,
					0.047355648862927716,
					-0.0922848258760962,
					-0.0922848258760962,
					0.1396404747390239,
					0.1396404747390239,
					0.1396404747390239,
					0.1396404747390239,
					-1.734723475976807e-17,
					-1.734723475976807e-17
				]
			},
			"{\"Offer\": {\"Working Hours\": \"10 hours\"}}": {
				"N": 100,
				"D": 183,
				"b": -1.2508363611749775,
				"kernelType": "linear",
				"w": [
					0,
					0,
					0,
					0,
					0.1992696255390528,
					0,
					4.7704895589362195e-18,
					-0.16281618758979394,
					5.204170427930421e-18,
					0.15101485037707504,
					0.06888176730600948,
					-0.3000581387859347,
					0.07118538013998299,
					0.09520088850389236,
					-0.09598172617910808,
					0.14992522861067079,
					0.017561448526208168,
					-0.03790224366295478,
					0.11438038224821423,
					0.17980969453451354,
					-0.10793195365600619,
					-0.13446257407510237,
					0.05900013139406937,
					0.04169141742302173,
					0.840965504342426,
					0.026510474520748395,
					-0.1617115536707606,
					0.027165070556727157,
					0,
					0,
					0.07311243501988923,
					0.06547170900623905,
					-0.4090886430168686,
					-6.938893903907228e-18,
					-0.5488574475209999,
					-1.4892293751519012,
					-0.06332115444376962,
					0.07590653472702424,
					-0.07637609118414479,
					0.1656759736209445,
					-0.009316567787185343,
					0.015367266434431887,
					-0.07665360587515069,
					-0.07665360587515069,
					1.3458324461764117,
					6.938893903907228e-18,
					-0.003784786139127964,
					6.938893903907228e-18,
					6.938893903907228e-18,
					0,
					0,
					3.0357660829594124e-18,
					1.3010426069826053e-18,
					0,
					0.047953255159796114,
					1.734723475976807e-18,
					0.1578223996744776,
					0.061422654418814275,
					0.10698803566406964,
					0.06329318266325587,
					0.008429344927514694,
					0.10698803566406964,
					-0.17087132587924858,
					0.2564022639196384,
					0.008429344927514694,
					0.027359113278405657,
					0.008429344927514694,
					-0.019614678740444508,
					0.039351993577086734,
					0.008429344927514694,
					-0.2947437094961536,
					-1.3010426069826053e-18,
					0,
					0.11389861824001471,
					-0.07238503618183412,
					0.122910422523486,
					0.3132743833134581,
					0.31705916945258605,
					0.2385420807527936,
					0.2975768612570671,
					0.3740648911518945,
					0.25222217002219804,
					-0.04935016738438333,
					0,
					-0.05903478050427353,
					-0.09351358404733343,
					0.14941422825556874,
					-0.7859520002829812,
					0.2664670070778914,
					-0.24897022376666422,
					-0.057118727590152324,
					-0.1606424069674239,
					-0.1606424069674239,
					-0.05356537079289583,
					-0.17466643873358112,
					0.27878891542190365,
					0.0929449151657257,
					0.0929449151657257,
					0.006165372798798419,
					-0.06300658569794487,
					-0.224945176784009,
					8.673617379884035e-19,
					-0.03632337105316005,
					-0.051198483534979106,
					0.07730813215510796,
					0.09628267265109641,
					0,
					0.0002775146910058791,
					-0.0037847861391279605,
					0,
					0,
					0.13862844159025003,
					0.01948230819551895,
					0.01948230819551895,
					0.01948230819551895,
					0.040239578988320854,
					0.040239578988320854,
					0.05264721756987409,
					0.040239578988320854,
					0.040239578988320854,
					4.7704895589362195e-18,
					1.1899118843028411e-17,
					0.06768553015252468,
					0.04244396679812435,
					0.04244396679812435,
					-0.0037847861391279653,
					-0.0037847861391279653,
					-0.0037847861391279605,
					-0.06281956664340149,
					-0.0037847861391279653,
					-0.05980319783873618,
					-0.05980319783873618,
					-0.05903478050427353,
					-0.05903478050427353,
					-0.05903478050427353,
					-0.05903478050427353,
					-0.05903478050427353,
					-0.05903478050427353,
					-0.05903478050427353,
					-0.05903478050427353,
					-0.05903478050427353,
					0.006458319901775991,
					0.0764880298948274,
					0.0764880298948274,
					0.0764880298948274,
					0,
					0.09855869073655495,
					0.09855869073655495,
					0,
					0,
					-0.07002970999305141,
					-1.3010426069826053e-18,
					-0.224945176784009,
					-0.09842400001928861,
					-0.09842400001928861,
					-0.09842400001928861,
					-0.09842400001928861,
					-0.09842400001928861,
					-0.09842400001928861,
					0.152282625911169,
					0,
					0,
					0,
					0,
					0,
					0,
					0,
					0,
					0,
					-0.008767016517958243,
					-0.008767016517958243,
					-0.008767016517958243,
					0,
					0,
					1.734723475976807e-18,
					0,
					0,
					1.734723475976807e-18,
					1.734723475976807e-18,
					1.734723475976807e-18,
					1.734723475976807e-18,
					0,
					0
				]
			},
			"{\"Offer\": {\"Job Description\": \"Team Manager\"}}": {
				"N": 100,
				"D": 183,
				"b": -1.5259820934623662,
				"kernelType": "linear",
				"w": [
					0,
					0,
					0,
					0,
					-0.03620210808137652,
					0,
					-0.010574583958994747,
					-0.03649070103044313,
					0,
					0.12263062485244,
					0.03092367472615536,
					-0.3569122867128384,
					0.05173792975186779,
					-0.029207598170103898,
					0.056917235047384426,
					0.056917235047384426,
					0.2459958544465421,
					0.14659724512653027,
					-0.09142022607821663,
					-0.030316056375466194,
					0,
					0.15476171549286405,
					-0.028278922818491075,
					0.14869701470278957,
					0.12875804686611259,
					-0.22566376399171167,
					0.17224846228555057,
					-0.03761982411635151,
					0,
					0,
					-0.07367772324498224,
					-0.10411330267045825,
					0.051365938766809734,
					0,
					0.31062937052204603,
					-0.0465649117463569,
					0.035770994545857596,
					0.023446523962991926,
					-0.03173049508532169,
					0.006187551181568155,
					0.1628976094894578,
					0.1484408429778435,
					-0.021140478118851277,
					-0.021140478118851277,
					0.05763527852169022,
					-0.012618105955490358,
					-0.012618105955490358,
					-0.012618105955490358,
					-0.012618105955490358,
					-0.012618105955490358,
					-0.012618105955490358,
					-0.012618105955490358,
					-0.012618105955490358,
					-0.012618105955490358,
					0.03344612128554436,
					-0.012618105955490358,
					0.05469666375272929,
					0.07901990323212107,
					0.006254360557141701,
					0.6820110095500939,
					0.5464992080889794,
					0.17738807141483554,
					0.2549414077555639,
					0.006254360557141701,
					0.05617338381310821,
					-0.2318519470013186,
					0.05617338381310821,
					-0.052989994364622636,
					0.12893892648808758,
					0.05617338381310821,
					-0.05641607650068811,
					0.0930550537676855,
					0.499624243804705,
					0.5487039458258188,
					0.009351952558146456,
					0.11312960270490356,
					-0.045074746419630454,
					-0.01554093256984074,
					0.08304539515239927,
					-0.00338670428760123,
					-0.0033867042876012336,
					-0.04717093202733478,
					-0.28026145600319535,
					0,
					0.08643209944000049,
					0.07646164157726656,
					0,
					-0.03523504952369677,
					-0.07796597669309488,
					-0.03523504952369677,
					-0.13956346590426114,
					-0.08228040673050153,
					0.1165163069925048,
					-0.5449621212262511,
					-0.08228040673050153,
					0.1777139213186204,
					-0.08228040673050153,
					-0.08228040673050153,
					0.059233247818745186,
					0,
					-0.03523504952369677,
					-0.059780048736337146,
					-0.09142022607821663,
					0,
					-0.007763874811231451,
					0.09676259317056297,
					-0.08825063527941121,
					-0.01059001696647041,
					-0.010574583958994747,
					-0.05354219135884478,
					0.34526312386694324,
					0.12204496399912618,
					-0.012154228282239509,
					-0.012154228282239509,
					-0.012154228282239509,
					0.11120460096595193,
					0.14151365454924672,
					-0.08228040673050153,
					-0.05728305917375961,
					-0.05728305917375961,
					-0.010574583958994743,
					0,
					-0.07462649478509761,
					0,
					0,
					0,
					-0.036570416932607895,
					-0.010574583958994747,
					0.08643209944000049,
					0,
					-0.017611187041812925,
					0,
					0.08643209944000049,
					0.08643209944000049,
					0.08643209944000049,
					0.08643209944000049,
					0.08643209944000049,
					0.08643209944000049,
					0.08643209944000049,
					0.08643209944000049,
					0.08643209944000049,
					-0.059780048736337146,
					-3.469446951953614e-18,
					-3.469446951953614e-18,
					-3.469446951953614e-18,
					0,
					-0.06049360721496126,
					-0.04991902325596651,
					0,
					0,
					0,
					0,
					-0.03523504952369677,
					0,
					0,
					0,
					0,
					0,
					0,
					-0.09142022607821663,
					-0.059780048736337146,
					-0.030309053583294786,
					-0.030309053583294786,
					-0.01895922989079497,
					-0.01895922989079497,
					-0.01895922989079497,
					0,
					0,
					0,
					0,
					0,
					0,
					0,
					0,
					-0.017611187041812925,
					-0.017611187041812925,
					-0.017611187041812925,
					0,
					0,
					0,
					0,
					0,
					0
				]
			},
			"{\"Insist\": \"Working Hours\"}": {
				"N": 100,
				"D": 183,
				"b": -1.2587766406240803,
				"kernelType": "linear",
				"w": [
					0,
					0,
					0,
					0,
					0.15869906162246172,
					0,
					-0.043118508491814894,
					-0.07316878397987467,
					0,
					-0.00220716240656648,
					0.12127684305608333,
					-0.038407808666035645,
					-0.006393577712376674,
					-0.002207162406566483,
					-0.039720106031596064,
					-0.039720106031596064,
					-0.027747994025823775,
					3.7947076036992655e-19,
					3.7947076036992655e-19,
					-0.0058584758006294275,
					-0.037512943625029584,
					-0.1151548789605665,
					-0.05149813364605353,
					0.08922304185932896,
					0.1464423794883748,
					0,
					-0.005858475800629427,
					0.21454092779770284,
					0,
					0,
					-0.04376114891388672,
					-0.009899518682920088,
					-0.051184146699010794,
					-0.012723357683426176,
					0.1123646054915015,
					0,
					-0.0022071624065664805,
					-0.0022071624065664805,
					-0.0022071624065664805,
					0.08701587945276248,
					-0.036443853200436443,
					-0.0022071624065664805,
					-0.0022071624065664805,
					-0.0022071624065664805,
					-0.05972559183415438,
					0,
					0,
					0,
					0,
					0,
					0,
					0,
					0,
					0,
					0.05331429057063977,
					0,
					-0.0022071624065664814,
					-0.06615580269185942,
					-8.673617379884035e-19,
					0.046628817887483125,
					-0.034226900798282035,
					-0.03423669079386996,
					0.01835653934169029,
					-0.0040410428822906614,
					-8.673617379884035e-19,
					-0.038407808666035645,
					-8.673617379884035e-19,
					-0.0058584758006294275,
					-0.06615580269185942,
					-8.673617379884035e-19,
					-8.673617379884035e-19,
					0,
					-0.027747994025823775,
					-0.03611531719938757,
					0,
					0.257057654844079,
					0.16297611461795783,
					0.21195309891040215,
					0.35046711200921815,
					0.2612440701498892,
					0.2612440701498892,
					0,
					-0.038407808666035645,
					0,
					0.08922304185932896,
					-0.03005027548805977,
					-0.004041042882290661,
					0,
					-3.252606517456513e-17,
					-0.0022071624065664805,
					0,
					0,
					-0.00418641530581019,
					-0.0022071624065664805,
					0,
					-0.00418641530581019,
					0,
					0,
					-0.00418641530581019,
					-8.673617379884035e-19,
					-8.673617379884035e-19,
					-8.673617379884035e-19,
					-8.673617379884035e-19,
					0,
					0,
					0,
					0,
					0,
					-0.043118508491814894,
					0,
					-0.027747994025823775,
					0,
					-0.04929097123948705,
					-0.04929097123948705,
					-0.04929097123948705,
					-0.00418641530581019,
					-0.00418641530581019,
					0,
					0,
					0,
					-0.043118508491814894,
					0,
					0,
					0,
					0,
					0,
					-0.005858475800629427,
					-0.043118508491814894,
					0.08922304185932896,
					0,
					0,
					0,
					0.08922304185932896,
					0.08922304185932896,
					0.08922304185932896,
					0.08922304185932896,
					0.08922304185932896,
					0.08922304185932896,
					0.08922304185932896,
					0.08922304185932896,
					0.08922304185932896,
					-0.037512943625029584,
					0,
					0,
					0,
					0,
					-0.043118508491814894,
					0,
					0,
					0,
					-0.037512943625029584,
					0,
					0,
					6.5052130349130266e-18,
					6.5052130349130266e-18,
					6.5052130349130266e-18,
					6.5052130349130266e-18,
					6.5052130349130266e-18,
					6.5052130349130266e-18,
					0,
					0,
					0,
					0,
					-0.005858475800629427,
					-0.005858475800629427,
					-0.005858475800629427,
					0,
					0,
					0,
					0,
					0,
					0,
					0,
					0,
					0,
					0,
					0,
					0,
					0,
					0,
					0,
					0,
					0
				]
			},
			"{\"Reject\": \"Job Description\"}": {
				"N": 100,
				"D": 183,
				"b": -1.11015004220022,
				"kernelType": "linear",
				"w": [
					0,
					0,
					0,
					0,
					0.06282313156827819,
					0,
					-0.02948785466503412,
					-0.029487854665034115,
					-0.008533772754509136,
					-0.19252546092337622,
					0.1615401099667737,
					0.3317026057257632,
					-0.10507762363774266,
					-0.008533772754509132,
					-0.03350072749942016,
					-0.03350072749942016,
					0.14201401397896096,
					1.214306433183765e-17,
					1.214306433183765e-17,
					0.007046207788354783,
					-0.004089304080092782,
					-0.36623751303245694,
					-0.1839916881688671,
					1.214306433183765e-17,
					-0.031931428393200886,
					-0.07837477267891783,
					-0.029487854665034115,
					0.13912786508135475,
					3.469446951953614e-18,
					3.469446951953614e-18,
					-0.09569692449815011,
					3.469446951953614e-18,
					-0.08549007315485087,
					0.19156739840696763,
					-0.1528403439397573,
					0,
					-0.019335771233813075,
					-0.013232847739139478,
					-0.013232847739139478,
					0,
					-0.109776698622373,
					-0.013232847739139478,
					-0.013232847739139478,
					-0.013232847739139478,
					-0.11030620107211872,
					0,
					-0.029405480923832578,
					-1.3010426069826053e-18,
					0,
					0,
					0,
					0,
					0,
					0,
					-0.09313487608052962,
					0,
					-0.0076448029256787516,
					0.14321716916144753,
					-0.0076448029256787516,
					0.2773589324471434,
					0.28784674557279116,
					-0.01869858065406141,
					-0.23833041709460814,
					-0.0076448029256787516,
					-0.0076448029256787516,
					0.28995324689162166,
					-0.0076448029256787516,
					-0.12865790426756862,
					0.06484239648252968,
					-0.0076448029256787516,
					-0.0076448029256787516,
					0,
					-0.14519554101407853,
					0.1508619720871263,
					0,
					-0.011053777728382657,
					-0.029405480923832578,
					0,
					0,
					0,
					-0.07837477267891783,
					0,
					0.48770728524937396,
					-0.006102923494673598,
					-0.006102923494673598,
					-0.013232847739139478,
					0,
					0,
					0,
					0,
					0,
					0,
					-0.011053777728382657,
					-0.013232847739139478,
					0,
					-0.024286625467522135,
					0,
					0,
					-0.011053777728382657,
					0,
					2.168404344971009e-19,
					0,
					2.168404344971009e-19,
					0,
					-0.013232847739139478,
					0,
					0,
					0,
					-0.029405480923832578,
					0,
					0.14811693747363458,
					0,
					0,
					0,
					0,
					-0.011053777728382657,
					-0.011053777728382657,
					0,
					0,
					0,
					0,
					0,
					0,
					0,
					0,
					-0.029405480923832578,
					-0.029405480923832578,
					-0.029405480923832578,
					-0.029405480923832578,
					-0.029405480923832578,
					0,
					0,
					0,
					0,
					0,
					0,
					0,
					0,
					0,
					0,
					0,
					-0.08246407675901063,
					-0.07837477267891783,
					-0.07837477267891783,
					-0.07837477267891783,
					0,
					0,
					0,
					-1.3010426069826053e-18,
					0,
					-0.004089304080092794,
					0,
					0,
					0,
					0,
					0,
					0,
					0,
					0,
					0,
					0,
					0,
					0,
					0,
					0,
					0,
					0,
					0,
					0,
					0,
					0,
					0,
					0,
					0,
					0,
					0,
					0,
					0,
					0,
					0,
					0,
					0,
					0
				]
			},
			"{\"Offer\": {\"Pension Fund\": \"0%\"}}": {
				"N": 100,
				"D": 183,
				"b": -1.6896463415480465,
				"kernelType": "linear",
				"w": [
					0,
					0,
					0,
					0,
					0.27171293249964545,
					0,
					-0.044980334987340886,
					0.15953224297803736,
					0,
					-0.2645487212688854,
					-0.5897306442530716,
					-0.054095445136353004,
					0.3932184555492649,
					0.11159257320890109,
					-0.014280289904515964,
					-0.014280289904515964,
					0.10328639570863968,
					0,
					-3.469446951953614e-18,
					-0.046056566335018576,
					-1.734723475976807e-18,
					0.3133981914320799,
					-0.2653483414883995,
					0.3941009112421968,
					-0.10953815584389073,
					-0.06469403613609849,
					-0.14877923018329378,
					0.3629938317542988,
					-0.06469403613609849,
					-0.06469403613609849,
					-0.1872400108166481,
					-0.11075060247111707,
					0.7710646965077055,
					-0.19548507395225775,
					-0.10910485370416009,
					-0.30699913633120496,
					0.26710260007984743,
					-0.08553996497544618,
					-0.08553996497544618,
					-0.06131992553799548,
					-0.3694758159134446,
					0.2885889504812994,
					-0.06131992553799548,
					-0.06131992553799548,
					-0.15361466971882148,
					-0.0630482873691415,
					-0.0630482873691415,
					-0.0630482873691415,
					-0.0630482873691415,
					0.3310526238730553,
					-0.06304828736914152,
					-0.06304828736914152,
					-0.06304828736914152,
					-0.06304828736914152,
					0.25591342920205506,
					-0.06304828736914152,
					0.09185549294251977,
					-0.025019659656964798,
					-0.025019659656964798,
					-0.13705382821035408,
					0,
					0.3714598088996397,
					-0.24114729956941366,
					-0.025019659656964798,
					0,
					0,
					0,
					-0.02103690667805378,
					0,
					0,
					-2.168404344971009e-19,
					-0.020642565960191112,
					0,
					-0.13705382821035408,
					-0.024220039437450706,
					-2.168404344971009e-19,
					-0.021036906678053777,
					0,
					0,
					0,
					0,
					0,
					-0.19548507395225775,
					-1.734723475976807e-18,
					-1.734723475976807e-18,
					-0.08677840341397608,
					0,
					-0.1790087562934392,
					-0.39296392110570544,
					-0.06131992553799547,
					-3.686287386450715e-18,
					-2.168404344971009e-19,
					-0.1640238883018684,
					0.2029175904321156,
					-2.168404344971009e-19,
					0.418732808100783,
					-2.168404344971009e-19,
					-2.168404344971009e-19,
					-2.168404344971009e-19,
					2.9815559743351372e-18,
					0,
					8.673617379884035e-19,
					-1.3877787807814457e-17,
					-0.009461600863254057,
					-0.009461600863254057,
					-0.13705382821035408,
					0,
					-0.024220039437450706,
					-1.3877787807814457e-17,
					-0.020642565960191112,
					0,
					0,
					0,
					0,
					0,
					0,
					0,
					0,
					-0.1640238883018684,
					-0.1640238883018684,
					-0.1640238883018684,
					3.469446951953614e-18,
					0.793961840560854,
					0,
					0,
					0,
					-0.021036906678053777,
					0,
					0,
					0,
					-0.04920129960435618,
					-0.04920129960435618,
					0,
					0,
					0,
					0,
					0,
					0,
					2.9815559743351372e-18,
					0,
					0,
					4.336808689942018e-18,
					0,
					0,
					0,
					2.9815559743351372e-18,
					-0.025019659656964798,
					-0.025019659656964798,
					0,
					-6.938893903907228e-18,
					3.469446951953614e-18,
					-3.469446951953614e-18,
					0,
					0,
					0,
					0,
					0,
					0,
					0,
					0,
					8.673617379884035e-19,
					0,
					0,
					-0.021036906678053777,
					-0.021036906678053777,
					-0.021036906678053777,
					0,
					0,
					0,
					-0.17787720539254004,
					-0.17787720539254004,
					-0.17787720539254004,
					-3.469446951953614e-18,
					-3.469446951953614e-18,
					0,
					0,
					0,
					0,
					0,
					0,
					0,
					-0.044980334987340886,
					-0.044980334987340886
				]
			},
			"{\"Offer\": {\"Pension Fund\": \"20%\"}}": {
				"N": 100,
				"D": 183,
				"b": -1.000687900302021,
				"kernelType": "linear",
				"w": [
					0,
					-0.00003264736759405344,
					-0.00003264736759405344,
					-0.00003264736759405344,
					0.0002758570308245289,
					0,
					-8.131516293641283e-19,
					-0.00019313635466755574,
					0,
					0.000987889603921932,
					-0.0008019889903225774,
					-0.0002446653042493572,
					-0.0005914725730795922,
					0.00006761499178065122,
					0.000025956137943825464,
					0.0013029151262570846,
					-0.0003005281670979296,
					-0.000309613915820494,
					-0.0003096139158204938,
					-0.0004691602561278788,
					0.0009364866285944725,
					-0.0004365234231447344,
					0.0012888895960403435,
					0.000274373617741454,
					-0.002371453385270228,
					0.0006261408632313193,
					0.00024163418497465014,
					-0.0000934384097375496,
					0,
					0,
					-0.0006671175324285672,
					-0.0002763421648803754,
					0.0026341223926227017,
					-0.0003669841088939602,
					2.1846673775582914e-17,
					0.00016886215719011762,
					-0.0008333321137079786,
					-0.00008030362465483165,
					-0.00008030362465483165,
					0.0007656256083732327,
					0.0005822457377850185,
					-0.0015083787123280068,
					-0.000037676139724385216,
					-0.000037676139724385216,
					0.0014214178198417304,
					1.8566962203814263e-18,
					-0.00003197211346770173,
					1.8566962203814263e-18,
					1.8566962203814263e-18,
					-0.0004579719499336044,
					0,
					-0.00003197211346770348,
					-0.00003197211346770348,
					0,
					-0.00045820168408339056,
					0,
					0.00012662112329173245,
					0,
					0,
					-0.00001519425140584802,
					0.00041581862026423254,
					-0.0003051574350761741,
					-0.0005012481194604861,
					0,
					0,
					-0.000017468185993507762,
					0,
					-0.0002763421648803754,
					0,
					0,
					0.00005861517591583033,
					0,
					0,
					-0.00043101287167008056,
					-0.0001768914954970558,
					0.0008653288132840205,
					-0.00003197211346770348,
					0,
					0,
					0,
					0,
					-0.0004004506615016844,
					-0.0003669841088939823,
					0,
					0,
					-0.0008013313500653175,
					0,
					-0.0000027667151192874292,
					1.997449355734951,
					0.0017020693417244548,
					-0.0001781446654102062,
					-0.0001781446654102062,
					-0.00039208452529697205,
					0.0000932968154585545,
					0.0008653288132840205,
					0.000896527828306357,
					0.00010602518385194326,
					0.00010602518385194326,
					-0.00017814466541020576,
					-0.0006056310662257543,
					-0.00013426401056649846,
					2.710505431213761e-19,
					-4.0657581468206416e-19,
					-0.0003894823185273122,
					0.00012667313073156197,
					0.00003339209280279565,
					0.000653183218115717,
					-0.00004262748493055746,
					-8.131516293641283e-19,
					0,
					0,
					0.001041959483495552,
					0,
					0,
					0,
					-0.0002905581881094604,
					-4.336808689942018e-19,
					0.00086532881328402,
					-0.00021393985988676632,
					-0.00021393985988676632,
					-0.0002139398598867659,
					0,
					-0.0008882402702366037,
					-0.00014207815431387707,
					-0.00014207815431387707,
					0,
					0,
					0,
					0,
					0,
					2.0328790734103208e-19,
					0,
					0,
					0,
					0,
					0,
					0,
					0,
					0,
					0,
					0,
					-0.0002603392532872707,
					0,
					0,
					0,
					0,
					0,
					0,
					0,
					0,
					-0.000260339253287271,
					0,
					-0.00013426401056649835,
					0,
					0,
					0,
					0,
					0,
					0,
					0,
					2.710505431213761e-19,
					-0.00029055818810946,
					-0.00029055818810946,
					0,
					0,
					0,
					0,
					0,
					0,
					0,
					0,
					0,
					2.0328790734103208e-19,
					2.0328790734103208e-19,
					0,
					0,
					0,
					0,
					0,
					0,
					0,
					0,
					0
				]
			},
			"{\"Offer\": {\"Leased Car\": \"Without leased car\"}}": {
				"N": 100,
				"D": 183,
				"b": -1.8310720831311584,
				"kernelType": "linear",
				"w": [
					0,
					0,
					0,
					0,
					-0.2377135596492145,
					3.469446951953614e-18,
					-6.071532165918825e-18,
					0.09865042239518428,
					0,
					0.1585037694959533,
					0.6196131105447108,
					-0.19427872654984862,
					-0.050041294565611516,
					0.03178898617542708,
					0.042948834269971814,
					0.042948834269971814,
					0.03813210802655861,
					-0.05955376317066875,
					0.060621410649706366,
					-0.02412425772547929,
					-0.024124257725479294,
					-0.09335240234126241,
					0.28897826931909865,
					0.29821873208003413,
					-0.08275318810892318,
					0.19750484140081234,
					0.1715982212604437,
					-0.11854430754577946,
					0,
					0,
					0.05108742301475139,
					1.431146867680866e-17,
					-0.5093171103546995,
					-7.806255641895632e-18,
					4.651227319962814e-17,
					-0.08046289627873343,
					0.1388750568501927,
					-0.04488411183759927,
					-0.09420027476759554,
					-0.3220218383600105,
					0.8713657455481087,
					0.28715810589868174,
					-0.048995011484493256,
					-0.048995011484493256,
					0.13338279023819305,
					8.673617379884035e-19,
					-8.673617379884035e-19,
					8.673617379884035e-19,
					8.673617379884035e-19,
					-4.336808689942018e-19,
					0,
					-2.358139725155972e-18,
					0,
					0,
					-0.10930384478484367,
					-2.358139725155972e-18,
					-0.14064150305847598,
					3.469446951953614e-18,
					3.469446951953614e-18,
					0.08004635696844421,
					0.034600213417515804,
					-0.19954177977202903,
					0.08474566837518564,
					3.469446951953614e-18,
					0,
					1.5612511283791264e-17,
					0,
					2.6454533008646308e-17,
					0,
					0,
					0.22963371297765003,
					-0.03542950544518946,
					-0.03542950544518946,
					0.01001663810573894,
					0.00411089964689371,
					0.326320317428335,
					5.583641188300348e-18,
					7.94178091345632e-18,
					9.676504389433127e-18,
					7.94178091345632e-18,
					7.94178091345632e-18,
					-0.049839731094853366,
					0,
					0,
					1.734723475976807e-18,
					1.9996555519238135,
					0,
					0.25570431277634864,
					-0.000036798489747649765,
					0.03923316109523789,
					0.16578142333731097,
					0.16578142333731097,
					0.07554348835012564,
					-0.08265073532740086,
					0.41655825241552036,
					-0.25357155761977745,
					0.09412683472719091,
					0.09412683472719091,
					0.0755434883501256,
					0.03738553000291691,
					4.7704895589362195e-18,
					1.734723475976807e-18,
					0.08474566837518563,
					-0.4377466807882098,
					-0.2507768290782094,
					0.032302964195103645,
					0,
					-0.04520526328310248,
					-1.734723475976807e-18,
					0,
					1.5612511283791264e-17,
					0.32234298980551346,
					0,
					1.5178830414797062e-18,
					0,
					-0.09019262271505527,
					-0.0902379349871853,
					0.25682547449152254,
					3.5561831257524545e-17,
					3.5561831257524545e-17,
					0,
					0,
					-1.214306433183765e-17,
					7.806255641895632e-18,
					7.806255641895632e-18,
					0,
					1.6263032587282567e-19,
					0,
					1.734723475976807e-18,
					0,
					3.2282119685755895e-17,
					0,
					1.734723475976807e-18,
					1.734723475976807e-18,
					1.734723475976807e-18,
					1.734723475976807e-18,
					1.734723475976807e-18,
					1.734723475976807e-18,
					2.168404344971009e-18,
					1.734723475976807e-18,
					1.734723475976807e-18,
					-1.734723475976807e-18,
					0,
					0,
					0,
					4.336808689942018e-19,
					3.469446951953614e-18,
					3.469446951953614e-18,
					0,
					0,
					0,
					0,
					3.0357660829594124e-18,
					0,
					0,
					0,
					0,
					0,
					0,
					0.08474566837518563,
					-1.734723475976807e-18,
					0.00004531227213003768,
					0.00004531227213003768,
					0,
					0,
					0,
					1.5178830414797062e-18,
					1.5178830414797062e-18,
					1.5178830414797062e-18,
					0,
					0,
					0,
					3.2959746043559335e-17,
					3.2959746043559335e-17,
					-2.1955093992831465e-18,
					1.6263032587282567e-19,
					1.6263032587282567e-19,
					-2.358139725155972e-18,
					-2.358139725155972e-18,
					-2.358139725155972e-18,
					-2.358139725155972e-18,
					0,
					0
				]
			},
			"{\"Offer\": {\"Working Hours\": \"8 hours\"}}": {
				"N": 100,
				"D": 183,
				"b": -1.306977585192279,
				"kernelType": "linear",
				"w": [
					0,
					0,
					0,
					0,
					-0.03796760432921461,
					0,
					0,
					0.14357822087878933,
					-0.03129595996179633,
					0.10232837663314451,
					-0.0267786611817656,
					0.15352599471283945,
					0.170260061435748,
					-0.005451886254595747,
					-0.027039958659102553,
					-0.027039958659102553,
					-0.07730563516431348,
					0,
					-1.3010426069826053e-18,
					-0.09916461382251462,
					3.469446951953614e-18,
					0.1258346394921226,
					0.0996567601269184,
					-0.06937445794554899,
					-0.3677707106115914,
					-0.02855621212561344,
					-0.028604428033943915,
					0.017530002750676496,
					-0.024961430772141992,
					-0.024961430772141992,
					0.037484985879934804,
					0.08513452532546041,
					0.1357048776410389,
					-0.027175341831199698,
					-0.008270344071856825,
					-0.08452381949277701,
					0.0627501129244482,
					-0.15611194806677697,
					-0.15611194806677697,
					-0.10457135549376945,
					0.033218457987383807,
					-0.10457135549376945,
					-0.10457135549376945,
					-0.10457135549376945,
					0.23262643524646132,
					0,
					1.734723475976807e-18,
					0,
					0,
					-0.06937445794554899,
					0,
					5.854691731421724e-18,
					0,
					0,
					-0.10325004843518996,
					5.854691731421724e-18,
					-0.17394581343931842,
					-0.004627346810054908,
					-0.004627346810054908,
					4.336808689942018e-19,
					4.336808689942018e-19,
					-0.07607470660399027,
					0.16380143649737777,
					-0.004627346810054908,
					0,
					-0.010013447519682701,
					0,
					0.10917530277855787,
					-0.0035947813534714483,
					0,
					-0.003291085081099987,
					-0.001953218775627985,
					0,
					0,
					0.14406353256562487,
					0.11012106780873998,
					1.0191500421363742e-17,
					1.734723475976807e-18,
					0,
					0,
					-0.0035947813534714487,
					0,
					-0.027175341831199698,
					0,
					0,
					0.10183924821681752,
					0,
					0.8591584410707918,
					0.14806524508753927,
					0.34501998185925326,
					0.108167849033112,
					0.11012106780873998,
					0.11012106780873998,
					0.09324791733755847,
					0.11012106780873998,
					-0.061815337570027135,
					-0.003291085081099987,
					-0.003291085081099987,
					0.11012106780873998,
					-0.018296987323406774,
					0.1956041251386324,
					0,
					8.673617379884035e-19,
					-0.11341215288983995,
					0,
					-0.018296987323406774,
					0,
					-0.051540592573007527,
					8.673617379884035e-19,
					0,
					0,
					0,
					1.734723475976807e-18,
					1.734723475976807e-18,
					1.734723475976807e-18,
					0,
					0,
					-0.25727829729549034,
					0,
					0,
					0,
					0,
					0,
					-0.08088082223097509,
					-0.08088082223097509,
					8.673617379884035e-19,
					-0.003642997261801923,
					8.673617379884035e-19,
					8.673617379884035e-19,
					8.673617379884035e-19,
					-0.0036429972618019207,
					0,
					0,
					0,
					0,
					0,
					0,
					0,
					0,
					0,
					0,
					-0.0035947813534714453,
					-0.0035947813534714487,
					-0.0035947813534714487,
					-0.0035947813534714487,
					0,
					-0.004627346810054908,
					-0.004627346810054908,
					0,
					-1.734723475976807e-18,
					3.469446951953614e-18,
					-0.001953218775627985,
					0.1956041251386324,
					0,
					0,
					0,
					0,
					0,
					0,
					0,
					0,
					0,
					0,
					1.734723475976807e-18,
					1.734723475976807e-18,
					1.734723475976807e-18,
					0,
					0,
					0,
					0,
					0,
					0,
					-1.3010426069826053e-18,
					-1.3010426069826053e-18,
					-0.00364299726180192,
					-0.0036429972618019254,
					-0.0036429972618019254,
					5.854691731421724e-18,
					5.854691731421724e-18,
					5.854691731421724e-18,
					5.854691731421724e-18,
					0,
					0
				]
			},
			"{\"Offer\": {\"Salary\": \"20,000 NIS\"}}": {
				"N": 100,
				"D": 183,
				"b": -1.3056891253942426,
				"kernelType": "linear",
				"w": [
					0,
					0,
					0,
					0,
					0.11666561456674082,
					8.673617379884035e-19,
					8.673617379884035e-19,
					-0.18562975195210632,
					-0.03349652079953602,
					-0.09185919156310551,
					0.2424150241259615,
					-0.11741289516561274,
					-0.09720621270367269,
					-0.08662997423216245,
					0.24430606954956416,
					0.24430606954956416,
					-0.8297073105014393,
					0,
					0,
					-0.07049906833665517,
					0.2728839446707878,
					-0.017204506005901954,
					0.04831212973908128,
					-0.0008538354009557117,
					-0.006735964222115731,
					-0.08253048174298883,
					-0.14644867830655628,
					0.28967486414284593,
					-0.05035011627541576,
					-0.05035011627541576,
					0.13509756363069292,
					0.07388789507650396,
					-0.0836801091846695,
					0,
					-0.09763077640356622,
					-0.006726344424552657,
					0.08592496478814185,
					-0.05836267076356949,
					-0.05836267076356949,
					0.04745829433812554,
					-0.0067448062053165675,
					0.04831212973908128,
					0.04831212973908128,
					0.04831212973908128,
					0.04356534577226603,
					0,
					0,
					0,
					0,
					0,
					0,
					0,
					0,
					0,
					-0.06777737344407764,
					0,
					-0.08610513516114138,
					-0.03970459549217,
					-0.03831870286908211,
					-0.04055843089312571,
					-0.03831870286908211,
					-0.06692353804312193,
					0.1086830423346571,
					-0.0619362721218573,
					-0.03831870286908211,
					-0.07188496095974306,
					-0.03831870286908211,
					-0.018742049763100774,
					-0.07188496095974306,
					-0.03831870286908211,
					0.04190399686321052,
					0,
					0,
					-0.0013858926230878924,
					0.041180780102044165,
					-0.03172445905135071,
					-0.034830730674821064,
					-0.034830730674821064,
					-0.035684566075776775,
					-0.034830730674821064,
					-0.06701109614239413,
					0,
					-0.0013858926230878906,
					0,
					-0.0008538354009557117,
					0.0005746420717656908,
					-0.023617569252775198,
					0.15101897993407762,
					-0.00018032465861648247,
					1.170162656396927,
					0.0030963334175382012,
					0.0030963334175382012,
					0.0030963334175382012,
					0.0859820924940542,
					0.003106271623470352,
					-0.026452100770358124,
					0.14427769734577914,
					0.14427769734577914,
					0.003106271623470352,
					-0.1066847387085829,
					0.14785558060469492,
					0,
					0,
					0.14118136392824093,
					0,
					-0.10667480050265075,
					-6.505213034913027e-19,
					-0.10667480050265075,
					-2.0816681711721685e-17,
					0,
					0,
					0,
					8.673617379884035e-19,
					8.673617379884035e-19,
					8.673617379884035e-19,
					-0.06407487402535078,
					-0.000009938205932150806,
					-0.00006706591184450252,
					-0.000009938205932150806,
					-0.000009938205932150806,
					0,
					-6.938893903907228e-18,
					0,
					0,
					0,
					0,
					0,
					0,
					-0.0008538354009557117,
					0,
					0,
					0,
					-0.0008538354009557117,
					-0.0008538354009557117,
					-0.0008538354009557117,
					-0.0008538354009557117,
					-0.0008538354009557117,
					-0.0008538354009557117,
					-0.0008538354009557117,
					-0.0008538354009557117,
					-0.0008538354009557117,
					0.36352648195359394,
					-0.032180365467573066,
					-0.032180365467573066,
					-0.032180365467573066,
					0,
					0,
					0,
					0,
					0,
					0.395706847421167,
					0,
					0.14785558060469492,
					0,
					0,
					0,
					0,
					0,
					0,
					0,
					0,
					-0.06406493581941863,
					-0.06406493581941863,
					0,
					0,
					0,
					0,
					0,
					0,
					0,
					0,
					0,
					0,
					0,
					0,
					0,
					0,
					0,
					0,
					0,
					0,
					0,
					0
				]
			},
			"{\"Offer\": {\"Salary\": \"7,000 NIS\"}}": {
				"N": 100,
				"D": 183,
				"b": -1.0209298340704653,
				"kernelType": "linear",
				"w": [
					0,
					1.0842021724855044e-19,
					1.0842021724855044e-19,
					1.0842021724855044e-19,
					-0.03228097628885707,
					8.673617379884035e-19,
					-0.04946245816996918,
					0.03404737024760675,
					-0.010595797444220336,
					0.07398807880259661,
					0.05247032681351584,
					-0.01566020061570232,
					0.16775273352653286,
					-0.23198178913721706,
					-0.007175361746483817,
					-0.007175361746483817,
					-0.4107954675381318,
					0,
					-0.017230588530413433,
					-0.009678368964086905,
					0,
					-0.056944842723594534,
					-0.012264450534152432,
					-0.02575016977409396,
					-0.0944713640614635,
					0.0950451274298589,
					-0.06528977930252922,
					-0.02723333138576854,
					-1.2576745200831851e-17,
					-1.2576745200831851e-17,
					0.045865253663326014,
					-0.016483066753602078,
					-0.03729760152632636,
					-0.062367709130226136,
					0.11579546043004638,
					-0.004613965792604933,
					0.1799494174734026,
					0.06738300565240679,
					0.08461359418282022,
					-0.029465321128562594,
					-0.027119005559291674,
					-0.012234732598149155,
					-0.012234732598149159,
					-0.012234732598149159,
					-0.0488261035964428,
					-8.673617379884035e-19,
					-0.1273500993185197,
					-0.012451204871409296,
					-8.673617379884035e-19,
					0,
					0,
					-0.013338498363393462,
					0,
					0,
					-0.000006392234406286728,
					-0.013338498363393462,
					-0.012234732598149159,
					0,
					0,
					-0.013302460492208484,
					-0.013302460492208481,
					-0.06317632236674857,
					-0.08926792236501993,
					-0.016483066753602064,
					0,
					-0.005064403171481973,
					0,
					-0.0050346852354787,
					-0.0050346852354787,
					0,
					-0.07020261769666776,
					0.17211075426553782,
					0,
					0,
					0.07961773825055596,
					-0.06600291731279166,
					-0.013338498363393462,
					0,
					-3.0357660829594124e-18,
					0,
					-0.0050346852354787,
					-4.336808689942018e-19,
					-0.012457597105815578,
					0,
					-3.0357660829594124e-18,
					0.062115577374471376,
					-0.016483066753602064,
					-0.05270045682058318,
					-0.06493518941873233,
					-0.052700456820583184,
					0.08159239340321639,
					0.09467632676917269,
					0.03150000440242411,
					-0.028951265300718988,
					-0.05270045682058318,
					0.0023527078036772453,
					0.09467632676917269,
					0.09467632676917269,
					-0.07908685067874796,
					1.0622136982372512,
					0.2971417425894717,
					0.39874167213389744,
					0.14720439894893378,
					0,
					0,
					0.295009045087401,
					-0.012234732598149153,
					0.09684832678096938,
					-0.060675813509924265,
					0,
					0,
					0,
					0,
					-2.3310346708438345e-18,
					0,
					0.1034882288555065,
					0.12099038973159108,
					0.14737678358975587,
					0.08441898834925947,
					0.08441898834925947,
					-0.04987386187454009,
					0,
					3.469446951953614e-18,
					0,
					0,
					0,
					-0.0046139657926049325,
					0,
					-3.0357660829594124e-18,
					0,
					-0.017952464155998396,
					0,
					-3.0357660829594124e-18,
					-3.0357660829594124e-18,
					-3.0357660829594124e-18,
					-3.0357660829594124e-18,
					-3.0357660829594124e-18,
					-3.0357660829594124e-18,
					0.17211075426553782,
					-3.0357660829594124e-18,
					-3.0357660829594124e-18,
					-0.030784855009572655,
					-0.0050346852354787,
					-0.0050346852354787,
					-0.0050346852354787,
					0.17211075426553782,
					0,
					0,
					-0.012451204871409294,
					-0.010384632995014433,
					0,
					0,
					0,
					0,
					0,
					0,
					0,
					0,
					0,
					-0.017230588530413433,
					-0.025750169774093955,
					-0.017502160876084583,
					-0.017502160876084583,
					0,
					0,
					0,
					-2.3310346708438345e-18,
					-2.3310346708438345e-18,
					-2.3310346708438345e-18,
					0,
					0,
					0,
					1.734723475976807e-18,
					1.734723475976807e-18,
					-0.017952464155998396,
					-0.0046139657926049325,
					-0.0046139657926049325,
					-0.013338498363393462,
					-0.013338498363393462,
					-0.013338498363393462,
					-0.013338498363393462,
					-0.04946245816996918,
					-0.04946245816996918
				]
			},
			"{\"Offer\": {\"Promotion Possibilities\": \"Slow promotion track\"}}": {
				"N": 100,
				"D": 183,
				"b": -1.2874018932990476,
				"kernelType": "linear",
				"w": [
					0,
					0,
					0,
					0,
					-0.024041545100935438,
					0,
					0,
					-0.1827619362973591,
					0,
					-0.06736707568492109,
					0.030130315267735377,
					-0.04184624782341941,
					0.05167281853286308,
					-0.9254569369683336,
					0.22982741296022458,
					0.05148738272270323,
					0.07124337534163697,
					0,
					-0.003573329981878575,
					-4.336808689942018e-19,
					0,
					-0.0594884829753535,
					-0.03223055623108708,
					-0.02368459676238785,
					0.13553420625254328,
					-0.008377763424473385,
					-0.1294637657824935,
					-0.05591515299347494,
					0,
					0,
					-0.015289262537562614,
					-4.336808689942018e-19,
					0.19646073897894373,
					-0.012325612545251398,
					-0.01015065927977224,
					-0.038964968588297455,
					0.12509313237996367,
					0.0265569852858568,
					0.030130315267735377,
					-0.01758359225851418,
					0.12450025244892315,
					-0.07889414511643328,
					0.06526683472156943,
					0.06526683472156943,
					0.09762242899972087,
					0,
					1.0191500421363742e-17,
					0,
					0,
					-0.023684596762387853,
					0,
					0,
					0,
					0,
					-0.012325612545251398,
					0,
					-0.03775350193244338,
					-4.336808689942018e-19,
					-4.336808689942018e-19,
					0.015318280851234642,
					-0.047581970160752024,
					-0.07206435612042485,
					-0.024276705951603358,
					-4.336808689942018e-19,
					0,
					0.07933573989162494,
					0,
					0.06073432886346235,
					0,
					0,
					-0.6453668857959178,
					-0.0186014110281626,
					0,
					0.06290025101198667,
					-0.03870984943571261,
					-0.1651900597592729,
					1.0191500421363742e-17,
					0,
					0,
					0,
					0,
					0,
					-0.012325612545251387,
					-1.734723475976807e-18,
					-1.734723475976807e-18,
					0.07801409712598247,
					0,
					-0.0564401999570681,
					0.07837442976590026,
					-0.038312682018081724,
					0.141004165185979,
					0.22249360897098314,
					0.15042925285055828,
					0.22177431669104938,
					-0.11760808959852087,
					0.10575690788191189,
					-0.1758014214439203,
					-0.1758014214439203,
					0.11202360605338954,
					0.07356102802824585,
					-2.7755575615628914e-17,
					-2.6020852139652106e-17,
					-0.011951093406351988,
					0.12095404171459057,
					0.7280485778036124,
					1.0726026579208634,
					0.0024599423422044455,
					-0.03513651945383403,
					1.0191500421363742e-17,
					0,
					0.07933573989162493,
					0,
					0,
					0,
					0,
					-0.11047000291759357,
					-0.11047000291759357,
					-0.07932954070248432,
					-0.08737041871651437,
					-0.08737041871651437,
					-0.034633045239445034,
					0,
					-0.11921999780666394,
					0,
					0,
					1.0191500421363742e-17,
					1.0191500421363742e-17,
					1.0191500421363742e-17,
					1.0191500421363742e-17,
					1.0191500421363742e-17,
					0,
					0,
					0,
					0,
					0,
					0,
					0,
					0,
					0,
					0,
					0,
					1.734723475976807e-18,
					0,
					0,
					0,
					0,
					-4.336808689942018e-19,
					-4.336808689942018e-19,
					0,
					0,
					0,
					-0.0186014110281626,
					0,
					0,
					0,
					0,
					0,
					0,
					0,
					-0.003573329981878575,
					1.734723475976807e-18,
					0,
					0,
					0,
					0,
					0,
					0,
					0,
					0,
					-6.938893903907228e-18,
					-6.938893903907228e-18,
					-6.938893903907228e-18,
					0,
					0,
					0,
					0,
					0,
					0,
					0,
					0,
					0,
					0,
					0
				]
			},
			"{\"Offer\": {\"Leased Car\": \"No agreement\"}}": {
				"N": 100,
				"D": 183,
				"b": -1.1938393247897015,
				"kernelType": "linear",
				"w": [
					0,
					0,
					0,
					0,
					-0.002658735258064625,
					0,
					0,
					0,
					0,
					0,
					-0.010994287405043855,
					-2.6020852139652106e-18,
					-0.08645157285695318,
					0,
					-0.10010266180948536,
					-0.10010266180948536,
					0.1005650697506095,
					0,
					-1.734723475976807e-18,
					-2.6020852139652106e-18,
					0,
					-0.010329958915733219,
					-0.0076712236576685945,
					0,
					0.13698340949946736,
					-1.734723475976807e-18,
					0,
					-0.0026587352580646224,
					0,
					0,
					-0.013653022663108475,
					-0.010994287405043851,
					-0.07662695124096339,
					-2.6020852139652106e-18,
					0.056855915290234135,
					0,
					0.13353021031840737,
					-1.734723475976807e-18,
					0,
					-1.734723475976807e-18,
					-0.15358909409864066,
					0,
					0,
					0,
					0.05685737835353699,
					0,
					0,
					0,
					0,
					0,
					0,
					0,
					0,
					0,
					0,
					0,
					-0.0026587352580646224,
					0,
					0,
					-0.053486432289155304,
					-0.053486432289155304,
					-0.1301133835301187,
					-1.734723475976807e-18,
					-0.010994287405043851,
					0,
					-2.6020852139652106e-18,
					0,
					-0.03296514056779788,
					0,
					0,
					-0.05983538826644924,
					-0.03296514056779788,
					0,
					0,
					-1.734723475976807e-18,
					-0.11332182055560455,
					-0.0076712236576685945,
					-0.0076712236576685945,
					0,
					0,
					0,
					0,
					-2.6020852139652106e-18,
					-0.020127977639657683,
					-0.020127977639657683,
					-1.734723475976807e-18,
					-0.010994287405043851,
					0,
					-0.05983538826644924,
					0,
					0.27833742382848925,
					0.05488297937067209,
					-0.0752304041594466,
					-0.11689422478399951,
					-0.05983538826644924,
					-0.15358909409864066,
					0.05488297937067209,
					0.05488297937067209,
					0.10283049092697436,
					0.1503810363871737,
					-0.0046046047929837585,
					-0.0046046047929837585,
					-0.00460460479298376,
					-0.04026727354303612,
					-0.04026727354303612,
					0,
					0,
					0,
					0,
					0,
					-2.6020852139652106e-18,
					0,
					-0.0076712236576685945,
					-0.0076712236576685945,
					-0.0076712236576685945,
					0.3579187939166172,
					0.3579187939166172,
					0.09515025291370821,
					0.33477827496480905,
					0.33477827496480905,
					-0.07662695124096339,
					0,
					0,
					0,
					0,
					0,
					0,
					0,
					0,
					0,
					0,
					0,
					0,
					0,
					0,
					0,
					0,
					0,
					-1.734723475976807e-18,
					0,
					0,
					0,
					0,
					0,
					0,
					-1.734723475976807e-18,
					0,
					0,
					0,
					0,
					0,
					-0.03296514056779788,
					0,
					-1.0408340855860843e-17,
					-1.0408340855860843e-17,
					-1.0408340855860843e-17,
					-1.0408340855860843e-17,
					-1.0408340855860843e-17,
					-1.0408340855860843e-17,
					-1.734723475976807e-18,
					0,
					0,
					0,
					0,
					0,
					0,
					0,
					0,
					0,
					-0.0026587352580646224,
					-0.0026587352580646224,
					-0.0026587352580646224,
					0,
					0,
					0,
					0,
					0,
					0,
					0,
					0,
					0,
					0,
					0
				]
			},
			"{\"Offer\": {\"Job Description\": \"QA\"}}": {
				"N": 100,
				"D": 183,
				"b": -1.3939128784403152,
				"kernelType": "linear",
				"w": [
					0,
					0,
					0,
					0,
					-0.018083696884201493,
					0,
					0,
					1.713039432527097e-17,
					0,
					1.713039432527097e-17,
					-0.018083696884201476,
					-0.019095137538649838,
					-0.03438101384964738,
					-0.01909513753864982,
					0.01584167970516382,
					0.01584167970516382,
					0.15422716843771614,
					0,
					0,
					8.673617379884035e-19,
					0,
					8.673617379884035e-19,
					1.713039432527097e-17,
					1.713039432527097e-17,
					0.2664270852835167,
					0,
					1.7997756063259374e-17,
					-0.018083696884201493,
					0,
					0,
					1.7997756063259374e-17,
					0,
					-0.019095137538649817,
					0,
					0.1274857931567982,
					1.734723475976807e-18,
					-0.09310477930715082,
					1.8865117801247777e-17,
					1.8865117801247777e-17,
					1.734723475976807e-18,
					0.0005558033941662661,
					1.8865117801247777e-17,
					1.8865117801247777e-17,
					1.8865117801247777e-17,
					-0.12748579315679823,
					0,
					0,
					0,
					0,
					0,
					0,
					0,
					0,
					0,
					8.673617379884035e-19,
					0,
					0,
					0,
					0,
					-0.015285876310997544,
					-0.015285876310997544,
					-0.015285876310997561,
					0,
					-8.673617379884035e-19,
					0,
					0,
					0,
					8.673617379884035e-19,
					0,
					0,
					0.1793688309762418,
					0,
					0,
					0,
					0,
					0.14599925778104275,
					-0.018083696884201493,
					-0.018083696884201493,
					-0.018083696884201493,
					-0.018083696884201493,
					-0.018083696884201493,
					0,
					0,
					0,
					0,
					0,
					-8.673617379884035e-19,
					-0.2664270852835168,
					0.16027369343759199,
					-0.2664270852835168,
					0.09477551132860523,
					0.2228171078795697,
					0.20753123156857214,
					-0.4108590990159449,
					0.1793688309762418,
					0.0005558033941662488,
					0.2228171078795697,
					0.2228171078795697,
					-0.1083906556181484,
					0.18788029063575612,
					0,
					0,
					0,
					-0.14443201373242814,
					-0.14443201373242814,
					0,
					0,
					0,
					0,
					0,
					0,
					1.713039432527097e-17,
					0,
					0,
					0,
					0.04455281777379408,
					0.04455281777379408,
					0.6336762068955146,
					0.059838694084791644,
					0.059838694084791644,
					0,
					0,
					0,
					0,
					0,
					0,
					8.673617379884035e-19,
					0,
					0,
					0,
					0,
					0,
					0,
					0,
					0,
					0,
					0,
					0,
					0,
					0,
					0,
					0,
					0,
					0,
					0,
					0,
					0,
					0,
					0,
					0,
					0,
					0,
					0,
					0,
					0,
					0,
					0,
					0,
					0,
					0,
					0,
					0,
					0,
					8.673617379884035e-19,
					8.673617379884035e-19,
					8.673617379884035e-19,
					0,
					0,
					0,
					0,
					0,
					0,
					0,
					0,
					0,
					0,
					0,
					0,
					0,
					0,
					0,
					0,
					0
				]
			},
			"{\"Offer\": {\"Pension Fund\": \"No agreement\"}}": {
				"N": 100,
				"D": 183,
				"b": -0.9659597988179676,
				"kernelType": "linear",
				"w": [
					0,
					-0.01134673372734412,
					-0.01134673372734412,
					-0.01134673372734412,
					-0.09960350760887844,
					0,
					1.9949319973733282e-17,
					-0.07349955936995665,
					1.0842021724855044e-18,
					1.0842021724855044e-18,
					1.0842021724855044e-18,
					1.0842021724855044e-18,
					-0.02840619754231808,
					4.87890977618477e-19,
					-0.03328628183441389,
					-0.015385864177336304,
					-0.034639427922777036,
					0,
					0,
					2.168404344971009e-18,
					-0.026103948238921783,
					-0.07349955936995667,
					0,
					0,
					-0.23086656341384054,
					0,
					-0.011089055228470946,
					-0.07349955936995667,
					0,
					0,
					0,
					8.673617379884035e-19,
					0.13254409166247977,
					1.3010426069826053e-18,
					-0.185721355605823,
					-0.01790041765707759,
					-0.05002529210011334,
					0,
					0,
					0,
					-0.043792061719654385,
					-5.963111948670274e-19,
					0,
					0,
					-0.06053107198535383,
					-0.008469934145127044,
					-0.008469934145127044,
					-0.008469934145127044,
					-0.008469934145127044,
					0,
					0,
					1.734723475976807e-18,
					0,
					0,
					-0.07349955936995667,
					1.734723475976807e-18,
					0,
					0,
					0,
					-0.010505779885240494,
					-0.010505779885240494,
					0.29936496738993673,
					2.0383000842727483e-17,
					0,
					0,
					0,
					0,
					8.673617379884035e-19,
					0,
					0,
					-0.015385864177336306,
					0,
					0,
					0,
					0,
					-0.0258916440625768,
					2.2985086056692694e-17,
					0,
					0,
					0,
					0,
					0,
					0,
					0,
					0,
					-0.07349955936995667,
					0,
					-0.015385864177336306,
					-0.04148981241625809,
					-0.015385864177336306,
					-0.08452394033216067,
					-0.06778493006646122,
					0.3050795966934322,
					0.35008402481072,
					-0.015385864177336306,
					-0.0258916440625768,
					-0.06778493006646122,
					-0.06778493006646122,
					-0.04263065432827624,
					-0.05239906588912491,
					0,
					0,
					-0.011089055228470946,
					0,
					0,
					-0.01790041765707759,
					0,
					0,
					-0.011089055228470927,
					0,
					0,
					0,
					0,
					-0.006608648344136475,
					0,
					-0.07964385604006485,
					-0.07964385604006485,
					-0.05239906588912491,
					0.3142322304903095,
					0.3142322304903095,
					0.25004801692843576,
					6.938893903907228e-18,
					-5.963111948670274e-19,
					0,
					0,
					0,
					8.673617379884035e-19,
					2.0383000842727483e-17,
					0,
					0,
					-0.006608648344136474,
					0,
					0,
					0,
					0,
					0,
					0,
					0,
					0,
					0,
					0,
					0,
					0,
					0,
					0,
					0,
					2.0383000842727483e-17,
					0,
					0,
					0,
					0,
					0,
					0,
					0,
					0,
					0,
					0,
					0,
					0,
					0,
					0,
					0,
					0,
					8.673617379884035e-19,
					8.673617379884035e-19,
					8.673617379884035e-19,
					-0.006608648344136475,
					-0.006608648344136475,
					-0.006608648344136475,
					0,
					0,
					0,
					0,
					0,
					1.734723475976807e-18,
					0,
					0,
					1.734723475976807e-18,
					1.734723475976807e-18,
					1.734723475976807e-18,
					1.734723475976807e-18,
					0,
					0
				]
			},
			"{\"Accept\": \"Leased Car\"}": {
				"N": 100,
				"D": 183,
				"b": -1.2968214419674937,
				"kernelType": "linear",
				"w": [
					0,
					0,
					0,
					0,
					0.12933778812289126,
					0,
					-0.022154959915836304,
					-0.07820730035207706,
					0,
					-0.000501593993461021,
					-0.0884899238364191,
					-0.08315332734797357,
					0.30001852126320505,
					-0.0342956930461135,
					-0.04940561005375394,
					-0.016882296866010685,
					-0.13643285092006122,
					0,
					0,
					-0.043806717009893525,
					-0.026165479727999052,
					-0.10437809502756606,
					0,
					-0.04382960570739896,
					-0.125704244079823,
					-0.06002073794566998,
					-4.662069341687669e-18,
					-0.11729534232374253,
					0,
					0,
					-0.036644044405667986,
					-0.010335322735896038,
					0.22251044759300417,
					0.27988974934704963,
					-0.11212526470017943,
					-0.03252331318774326,
					-0.07200857780419177,
					-0.000501593993461021,
					-0.000501593993461021,
					-0.007687155295191999,
					0.3104848071494901,
					-0.0028412202107805317,
					0,
					0,
					-0.05190365399711839,
					0,
					-0.0023495754366833414,
					0,
					0,
					-0.03614245041220696,
					0,
					0,
					0,
					0,
					0.3588039771821162,
					0,
					-0.03614245041220696,
					3.198396408832238e-18,
					0,
					-0.010185199238556444,
					-0.046304760953257966,
					-0.058048790386144175,
					0.3199909759279234,
					0,
					0,
					-0.04615629244657686,
					0,
					-0.01268489817257938,
					3.198396408832238e-18,
					0,
					0,
					-0.017914990173563836,
					0,
					3.198396408832238e-18,
					-0.01083691672935706,
					-0.002498043943364449,
					-0.008442272278525979,
					0,
					-0.007687155295191999,
					0,
					0,
					0,
					0.37588558647351106,
					0,
					-0.007687155295191999,
					-0.056052340436240744,
					0,
					-0.010335322735896038,
					-0.029369639653872147,
					-0.010335322735896038,
					0,
					0,
					-0.002498043943364449,
					-0.03586612739198481,
					0,
					-0.009045018073479096,
					0,
					0,
					-0.002498043943364449,
					-0.000501593993461021,
					-0.010335322735896038,
					0,
					-0.06002073794566998,
					0,
					0,
					-0.03302490718120428,
					0,
					-0.000501593993461021,
					-0.008442272278525979,
					-0.017914990173563836,
					-0.04380671700989352,
					0,
					0,
					0,
					0,
					-0.002498043943364449,
					-0.002498043943364449,
					0,
					0,
					0,
					-0.006092696841842638,
					1.734723475976807e-18,
					-0.0028412202107805317,
					0,
					0,
					-0.0023495754366833414,
					-0.0023495754366833414,
					-0.008442272278525979,
					-0.01003673073187534,
					-0.0023495754366833414,
					0,
					0,
					-0.007687155295191999,
					-0.007687155295191999,
					-0.007687155295191999,
					-0.007687155295191999,
					-0.007687155295191999,
					-0.007687155295191999,
					-0.007687155295191999,
					-0.007687155295191999,
					-0.007687155295191999,
					0,
					0,
					0,
					0,
					0,
					-0.006092696841842638,
					0,
					0,
					0,
					0,
					0,
					-0.010335322735896038,
					0,
					0,
					0,
					0,
					0,
					0,
					0,
					0,
					0,
					0,
					0,
					0,
					0,
					0,
					0,
					0,
					0,
					0,
					0,
					0,
					0,
					0,
					0,
					0,
					0,
					0,
					0,
					0,
					-0.016062263073993662,
					-0.016062263073993662
				]
			},
			"{\"Reject\": \"Pension Fund\"}": {
				"N": 100,
				"D": 183,
				"b": -1.29661709774342,
				"kernelType": "linear",
				"w": [
					0,
					0,
					0,
					0,
					0.12927470485104225,
					0,
					-0.022267805773528604,
					-0.07830146125784668,
					0,
					-0.0006295893852566238,
					-0.08778180568591755,
					-0.08348154020714649,
					0.29953641579407597,
					-0.03427050118474384,
					-0.04955166023961191,
					-0.017031053352388255,
					-0.13645709486650498,
					0,
					0,
