{
	"createNewClassifierString": "function () {\n\tvar FeatureExtractor = require('/home/erelsgl/git/machine-learning/demos/../FeatureExtractor');\n\tvar BinaryClassifierSet = require('/home/erelsgl/git/machine-learning/demos/../BinaryClassifierSet');\n\tvar ClassifierWithFeatureExtractor = require('/home/erelsgl/git/machine-learning/demos/../ClassifierWithFeatureExtractor');\n\t\n\tvar baseBinaryClassifierType = require('/home/erelsgl/git/machine-learning/demos/../svmjs').SVM;\n\t//var baseBinaryClassifierType = require('/home/erelsgl/git/machine-learning/demos/../brain').NeuralNetwork;\n\t//var baseBinaryClassifierType = require('/home/erelsgl/git/machine-learning/demos/../classifier/lib/bayesian').Bayesian;\n\t\n\treturn new ClassifierWithFeatureExtractor({\n\t\tclassifierType: BinaryClassifierSet,\n\t\tclassifierOptions: {\n\t\t\t\tbinaryClassifierType: baseBinaryClassifierType,\n\t\t//binaryClassifierType: ClassifierWithFeatureExtractor,\n\t\t//binaryClassifierOptions: {\n\t\t\t\t//classifierType:   baseBinaryClassifierType,\n\t\t\t\tbinaryClassifierOptions: {\n\t\t\t\t\tC: 1.0,\n\t\t\t\t\t//iterations: 10,\n\t\t\t\t\t//log: true\n\t\t\t\t},\n\t\t},\n\t\tfeatureExtractor: FeatureExtractor.CollectionOfExtractors([\n\t\t\t\t\tFeatureExtractor.WordsFromText(1),\n\t\t\t\t\t//FeatureExtractor.WordsFromText(2),\n\t\t\t\t\t//FeatureExtractor.LettersFromText(2), \n\t\t\t\t\t//FeatureExtractor.LettersFromText(4),\n\t\t]),\n\t\tfeatureLookupTable: new FeatureExtractor.FeatureLookupTable(),\n\t});\n}",
	"trainedClassifier": {
		"classifier": {
			"{\"Quit\": true}": {
				"N": 20,
				"D": 103,
				"b": -0.584140976762284,
				"kernelType": "linear",
				"w": [
					0,
					0.5279280156171875,
					0.5279280156171875,
					0.5279280156171875,
					-0.18029982481479992,
					-0.07141531493516119,
					-0.07141531493516119,
					-0.09277013301763143,
					-0.04182851471109073,
					-0.04647324457449372,
					-0.08298919983789027,
					-0.05650516352314993,
					-0.041828514711090725,
					-0.041828514711090725,
					-0.05249997303600112,
					-0.05249997303600112,
					-0.10129689122820142,
					5.204170427930421e-18,
					0,
					-0.004644729863402992,
					0,
					-0.025999547945873218,
					-0.004644729863402992,
					0,
					-0.02648403631474034,
					0,
					5.204170427930421e-18,
					-0.031386737031126384,
					0,
					0,
					-0.02648403631474039,
					-0.026484036314740396,
					-0.021354818082470233,
					-0.07285304298510936,
					-0.16270615543780678,
					0,
					-0.1119683495531118,
					5.204170427930421e-18,
					0,
					5.204170427930421e-18,
					-0.010671458324910387,
					0,
					0,
					0,
					-0.03715549463965078,
					-0.10397821408548752,
					-0.10397821408548752,
					-0.10397821408548752,
					-0.10397821408548752,
					0,
					0,
					0,
					0,
					0,
					-0.021354818082470233,
					0,
					5.204170427930421e-18,
					-0.010031918948656201,
					0,
					-0.010031918948656201,
					-0.010031918948656201,
					-0.021354818082470233,
					0,
					-0.026484036314740396,
					0,
					-0.014676648812059193,
					0,
					0,
					-0.010031918948656201,
					0,
					-0.010671458324910392,
					5.204170427930421e-18,
					5.204170427930421e-18,
					5.204170427930421e-18,
					5.204170427930421e-18,
					-0.01067145832491034,
					5.204170427930421e-17,
					5.204170427930421e-17,
					5.204170427930421e-17,
					5.204170427930421e-17,
					5.204170427930421e-17,
					0,
					-0.010031918948656201,
					-0.10129689122820142,
					-0.10129689122820142,
					-0.021354818082470233,
					-0.026484036314740396,
					-0.010671458324910392,
					-0.010671458324910392,
					-0.010671458324910392,
					-0.010671458324910392,
					-0.010671458324910392,
					-0.010671458324910392,
					-0.010671458324910392,
					-0.010671458324910392,
					-0.010671458324910392,
					-0.010671458324910392,
					-0.010671458324910392,
					-0.010671458324910392,
					-0.06336907613795709,
					-0.06336907613795709,
					-0.06336907613795709,
					-0.06336907613795709
				]
			},
			"{\"Reject\": \"previous\"}": {
				"N": 20,
				"D": 103,
				"b": -0.8909852847965584,
				"kernelType": "linear",
				"w": [
					0,
					-0.03641838835727982,
					-0.03641838835727982,
					-0.03641838835727982,
					0.13628917230281423,
					0.5998561775532398,
					0.5998561775532398,
					0.5549837573872647,
					0,
					-0.02498780421132309,
					-0.06362055786398833,
					-0.05607322938754286,
					-0.04030741618487984,
					-0.04030741618487984,
					-0.04030741618487984,
					-0.04030741618487984,
					-0.03399444431463887,
					-0.005852407370876076,
					0,
					-0.011768029120878955,
					0,
					-0.055125488938162215,
					-0.011768029120878955,
					0,
					-0.04785474466132531,
					-0.027087641094435705,
					0.17177790654010486,
					-0.05490257237551277,
					-0.027087641094435705,
					-0.027087641094435705,
					-0.04030741618487984,
					-0.027087641094435705,
					-0.24959037517139188,
					-0.21189872212348487,
					-0.0335854195162993,
					0,
					-0.03399444431463887,
					-0.013219775090444134,
					-0.007367367719568058,
					-0.013219775090444134,
					-0.013219775090444136,
					-0.007367367719568058,
					-0.007367367719568058,
					-0.007367367719568058,
					-0.013219775090444136,
					-0.027298742334242482,
					-0.027298742334242482,
					-0.027298742334242482,
					-0.027298742334242482,
					0.20471795500541665,
					0.20471795500541665,
					0.20471795500541665,
					0.20471795500541665,
					0.20471795500541665,
					-0.010417411351971467,
					0.20471795500541665,
					0.19886554763454056,
					-0.009850191452660143,
					0,
					-0.009850191452660143,
					-0.009850191452660143,
					-0.2151353663573881,
					0,
					0,
					0,
					-0.0216182205735391,
					0,
					0,
					-0.009850191452660143,
					0,
					-1.3010426069826053e-18,
					-0.005852407370876076,
					-0.005852407370876076,
					-0.005852407370876076,
					-0.005852407370876076,
					-0.007547328476445474,
					-0.007547328476445472,
					-0.007547328476445472,
					-0.007547328476445472,
					-0.007547328476445472,
					-0.007547328476445472,
					-0.007367367719568058,
					-0.009850191452660143,
					-0.020774669224194738,
					-0.020774669224194738,
					-0.2151353663573881,
					0,
					-1.3010426069826053e-18,
					-1.3010426069826053e-18,
					-1.3010426069826053e-18,
					-1.3010426069826053e-18,
					-1.3010426069826053e-18,
					-1.3010426069826053e-18,
					-1.3010426069826053e-18,
					-1.3010426069826053e-18,
					-1.3010426069826053e-18,
					-1.3010426069826053e-18,
					-1.3010426069826053e-18,
					-1.3010426069826053e-18,
					-0.018857323921785605,
					-0.018857323921785605,
					-0.018857323921785605,
					-0.018857323921785605
				]
			},
			"{\"Offer\": {\"Promotion Possibilities\": \"Fast promotion track\"}}": {
				"N": 20,
				"D": 103,
				"b": -0.9212134730278184,
				"kernelType": "linear",
				"w": [
					0,
					-0.02626380553121457,
					-0.02626380553121457,
					-0.02626380553121457,
					-0.21720946705461303,
					0,
					0,
					0.0033450942592674615,
					0.19270920214870543,
					0.09694938413736581,
					0.08531756609142042,
					0.11755001339624417,
					0.25427211974260727,
					0.29210863230940964,
					0.4411532776010329,
					0.4411532776010329,
					-0.022712376318034584,
					-0.011414274562076972,
					-0.011414274562076972,
					-0.00030491261209202036,
					-0.011414274562076972,
					0.003040181647175441,
					-0.09575981801133962,
					-0.011414274562076972,
					0.06716698285588048,
					0.06156291759390183,
					0.041789612417752156,
					0.015794868773726378,
					0.06156291759390183,
					0.06156291759390183,
					-0.024081592560404277,
					-0.06191810512720663,
					0.06095491200221949,
					2.6020852139652106e-18,
					-0.057273535132074005,
					0.03783651256680235,
					0.04229163813641805,
					0.03783651256680235,
					0.03783651256680235,
					0.03783651256680235,
					0.09142625245917801,
					0.03783651256680235,
					0.03783651256680235,
					0.03783651256680235,
					0.06340013513731717,
					-0.019796585320236218,
					-0.019796585320236218,
					-0.019796585320236218,
					-0.019796585320236218,
					-0.019773305176149673,
					-0.019773305176149673,
					-0.019773305176149673,
					-0.019773305176149673,
					-0.019773305176149673,
					0.037237082064613236,
					-0.019773305176149673,
					0.07568160022309793,
					0.016656104497421775,
					0.0954549053992476,
					0.016656104497421775,
					0.016656104497421775,
					0.057010387240762905,
					0.0954549053992476,
					-0.02802611732186086,
					0.0954549053992476,
					-0.06768943895184087,
					0.0954549053992476,
					0.0954549053992476,
					0.016656104497421775,
					0.0954549053992476,
					0.14904464529162326,
					0,
					0,
					0,
					0,
					0.04938340990941279,
					-0.004206329982962867,
					-0.004206329982962867,
					-0.004206329982962867,
					-0.004206329982962867,
					-0.004206329982962867,
					0,
					-0.07879880090182582,
					-0.049134614322759965,
					-0.049134614322759965,
					-0.038444518158484695,
					-0.12348102272110846,
					0.05358973989237566,
					0.05358973989237566,
					0.05358973989237566,
					0.05358973989237566,
					0.05358973989237566,
					0.05358973989237566,
					0.05358973989237566,
					0.05358973989237566,
					0.05358973989237566,
					0.05358973989237566,
					0.05358973989237566,
					0.05358973989237566,
					-0.005267782651100601,
					-0.005267782651100601,
					-0.005267782651100601,
					-0.005267782651100601
				]
			},
			"{\"Offer\": {\"Job Description\": \"Programmer\"}}": {
				"N": 20,
				"D": 103,
				"b": -0.8006417407418023,
				"kernelType": "linear",
				"w": [
					0,
					-0.06631979994947038,
					-0.06631979994947038,
					-0.06631979994947038,
					0.08505191930281006,
					-0.10387749905143136,
					-0.10387749905143136,
					-0.07675614621865359,
					0.0792034165797169,
					0.1646032575873721,
					0.40488026811844013,
					0.6177786080541261,
					0.05850430521018764,
					0.140497572109073,
					0.16761387216913298,
					0.16761387216913298,
					-0.031126782200465497,
					-0.029808580051510672,
					0.08424258832593068,
					0.11214154033264129,
					0.08424258832593068,
					0.025211724787977716,
					0.19945100938509652,
					0.08424258832593068,
					-0.15160418440633,
					0.09335205700791209,
					-0.02069911136952926,
					0.031276916237262614,
					0.09335205700791209,
					0.09335205700791209,
					0.008019110371700486,
					0.040077011850256514,
					0.10911461973166309,
					-0.03575591931266088,
					-0.24865425924834694,
					0.08199326689888532,
					-0.0009436014138809456,
					-0.03205790147855603,
					0.08199326689888532,
					-0.03205790147855603,
					0.08236786763395919,
					0.08199326689888532,
					0.08199326689888532,
					0.08199326689888532,
					-0.05821664657615162,
					-0.0497594773169768,
					-0.0497594773169768,
					-0.0497594773169768,
					-0.0497594773169768,
					0,
					0,
					0,
					0,
					0,
					-0.15354017322758956,
					0,
					-0.20136063742989657,
					0.07646938913006007,
					-0.08730946905245524,
					0.07646938913006007,
					0.07646938913006007,
					-0.15354017322758956,
					-0.08730946905245524,
					-0.1405845142101108,
					-0.08730946905245524,
					0.19167781018922592,
					-0.08730946905245524,
					-0.08730946905245524,
					0.07646938913006007,
					-0.08730946905245524,
					0.02711630006005998,
					-0.11405116837744135,
					-0.11405116837744135,
					-0.11405116837744135,
					-0.11405116837744135,
					0.04211194338693998,
					-0.07231382572557524,
					-0.07231382572557524,
					-0.07231382572557524,
					-0.07231382572557524,
					-0.07231382572557524,
					0,
					0.1637788581825153,
					-0.08331146904784013,
					-0.08331146904784013,
					-0.06623070417513433,
					-0.053275045157655576,
					0.11442576911251522,
					0.11442576911251522,
					0.11442576911251522,
					0.11442576911251522,
					0.11442576911251522,
					0.11442576911251522,
					0.11442576911251522,
					0.11442576911251522,
					0.11442576911251522,
					0.11442576911251522,
					0.11442576911251522,
					0.11442576911251522,
					0,
					0,
					0,
					0
				]
			},
			"{\"Offer\": {\"Salary\": \"12,000 NIS\"}}": {
				"N": 20,
				"D": 103,
				"b": -0.801960129304629,
				"kernelType": "linear",
				"w": [
					0,
					-0.06625541896587087,
					-0.06625541896587087,
					-0.06625541896587087,
					-0.03728812156146685,
					-0.06163371795233689,
					-0.06163371795233689,
					-0.0376311098570058,
					-0.09516884621041294,
					0.03027734009900379,
					-0.036075873464394864,
					0.011238234953846793,
					-0.016455603862475646,
					-0.0021799558036655065,
					-0.04498303604939251,
					-0.04498303604939251,
					0.7104415628537595,
					0.2789469101988289,
					0.26061948404325436,
					0.031745616913086805,
					0.26061948404325436,
					-0.0012974920767629683,
					0.031745616913086805,
					0.26061948404325436,
					0.045674781988505775,
					-0.014987327048392618,
					0.003340099107181905,
					-0.051370535145424306,
					-0.014987327048392618,
					-0.014987327048392618,
					0.045674781988505775,
					-0.062301435466634275,
					0.038278256154141224,
					-0.04638995566594045,
					-0.11475261584420549,
					0.014275648058810137,
					0.4070189985647782,
					0.10797621745514005,
					0.08964879129956553,
					0.10797621745514005,
					0.06517313720941305,
					0.08964879129956553,
					0.08964879129956553,
					0.08964879129956553,
					0.01785902879117139,
					-0.04958348135961437,
					-0.04958348135961437,
					-0.04958348135961437,
					-0.04958348135961437,
					0,
					0,
					0,
					0,
					0,
					-0.03638320809703169,
					0,
					0.018327426155574523,
					0,
					0,
					0,
					0,
					-0.03638320809703169,
					0,
					-0.04731410841824166,
					0,
					-0.22887386713016755,
					0,
					0,
					0,
					0,
					-0.042803080245727,
					0.018327426155574523,
					0.018327426155574523,
					0.018327426155574523,
					0.018327426155574523,
					-0.042803080245727,
					9.75781955236954e-19,
					9.75781955236954e-19,
					9.75781955236954e-19,
					9.75781955236954e-19,
					9.75781955236954e-19,
					0.07537314324075539,
					0,
					0.3418458613553651,
					0.3418458613553651,
					-0.03638320809703169,
					-0.04731410841824166,
					-0.042803080245727,
					-0.042803080245727,
					-0.042803080245727,
					-0.042803080245727,
					-0.042803080245727,
					-0.042803080245727,
					-0.042803080245727,
					-0.042803080245727,
					-0.042803080245727,
					-0.042803080245727,
					-0.042803080245727,
					-0.042803080245727,
					-0.02104855176002338,
					-0.02104855176002338,
					-0.02104855176002338,
					-0.02104855176002338
				]
			},
			"{\"Offer\": {\"Pension Fund\": \"10%\"}}": {
				"N": 20,
				"D": 103,
				"b": -1.454258932451798,
				"kernelType": "linear",
				"w": [
					0,
					0,
					0,
					0,
					0.0009759031873591076,
					0,
					0,
					0.18350594015384947,
					-0.12421690527305346,
					-0.16015723283414354,
					0.15000821864899425,
					0.21111379855997597,
					0.018005748864515864,
					0.11983510149516968,
					0.11983510149516968,
					0.11983510149516968,
					0.06588902506956376,
					-0.09564575233263722,
					0,
					0,
					0,
					0.028154763049665098,
					0,
					0,
					0.1829464268572414,
					0.1781629816986594,
					0.08251722936602218,
					0.1194334601144714,
					0.1781629816986594,
					0.1781629816986594,
					0.1829464268572414,
					0.11705740178767768,
					0.28533529278450326,
					0,
					-0.06110557991098172,
					0.10182935263065385,
					0.06588902506956376,
					0.06588902506956376,
					0.16153477740220099,
					0.06588902506956376,
					0.06588902506956376,
					0.16153477740220099,
					0.16153477740220099,
					0.16153477740220099,
					0.004783445158582034,
					0,
					0,
					0,
					0,
					0,
					0,
					0,
					0,
					0,
					-0.054362466316357085,
					0,
					-0.09564575233263722,
					-0.004367055267830939,
					0,
					-0.004367055267830939,
					-0.004367055267830939,
					-0.054362466316357085,
					0,
					-0.06110557991098172,
					0,
					-0.004367055267830939,
					0,
					0,
					-0.004367055267830939,
					0,
					-6.938893903907228e-18,
					-0.09564575233263722,
					-0.09564575233263722,
					-0.09564575233263722,
					-0.09564575233263722,
					-6.938893903907228e-18,
					0,
					0,
					0,
					0,
					0,
					0.05970542477154713,
					-0.004367055267830939,
					-1.734723475976807e-18,
					-1.734723475976807e-18,
					-0.054362466316357085,
					-0.06110557991098172,
					-6.938893903907228e-18,
					-6.938893903907228e-18,
					-6.938893903907228e-18,
					-6.938893903907228e-18,
					-6.938893903907228e-18,
					-6.938893903907228e-18,
					-6.938893903907228e-18,
					-6.938893903907228e-18,
					-6.938893903907228e-18,
					-6.938893903907228e-18,
					-6.938893903907228e-18,
					-6.938893903907228e-18,
					0,
					0,
					0,
					0
				]
			},
			"{\"Accept\": \"previous\"}": {
				"N": 20,
				"D": 103,
				"b": -0.7788173569571114,
				"kernelType": "linear",
				"w": [
					0,
					-0.07383108912706762,
					-0.07383108912706762,
					-0.07383108912706762,
					0.42901572618196965,
					-0.20386592386153524,
					-0.20386592386153524,
					-0.24269620714129908,
					1.734723475976807e-18,
					-0.0557209440251089,
					-0.23940731058625636,
					-0.07640626646750294,
					1.734723475976807e-18,
					1.734723475976807e-18,
					-0.00024618424297510075,
					-0.00024618424297510075,
					-0.05792643459851809,
					-0.0035897598647196597,
					-0.0035897598647196597,
					-0.05572094402510891,
					-0.0035897598647196597,
					-0.09455122730487275,
					-0.05572094402510891,
					-0.0035897598647196597,
					-0.16300104411875344,
					0,
					0,
					-0.15828744716822946,
					0,
					0,
					-0.06422920267268183,
					-0.06422920267268183,
					-0.038830283279763844,
					0.8468900412368432,
					0.5029115895382986,
					0,
					-0.05458285897677353,
					0,
					0,
					0,
					-0.0002461842429751025,
					0,
					0,
					0,
					-0.06447538691565693,
					-0.0553951678256553,
					-0.0553951678256553,
					-0.0553951678256553,
					-0.0553951678256553,
					0,
					0,
					0,
					0,
					0,
					-0.038830283279763844,
					0,
					0,
					-0.020685322442394034,
					0,
					-0.020685322442394034,
					-0.020685322442394034,
					-0.038830283279763844,
					0,
					-0.06422920267268183,
					0,
					-0.07281650660278328,
					0,
					0,
					-0.020685322442394034,
					0,
					-0.0002461842429751025,
					0,
					0,
					0,
					0,
					-0.0990180256890467,
					-0.0987718414460716,
					-0.0987718414460716,
					-0.0987718414460716,
					-0.0987718414460716,
					-0.0987718414460716,
					0,
					-0.020685322442394034,
					-0.054336674733798426,
					-0.054336674733798426,
					-0.038830283279763844,
					-0.06422920267268183,
					-0.0002461842429751025,
					-0.0002461842429751025,
					-0.0002461842429751025,
					-0.0002461842429751025,
					-0.0002461842429751025,
					-0.0002461842429751025,
					-0.0002461842429751025,
					-0.0002461842429751025,
					-0.0002461842429751025,
					-0.0002461842429751025,
					-0.0002461842429751025,
					-0.0002461842429751025,
					-0.18097740757979108,
					-0.18097740757979108,
					-0.18097740757979108,
					-0.18097740757979108
				]
			},
			"{\"Offer\": {\"Working Hours\": \"9 hours\"}}": {
				"N": 20,
				"D": 103,
				"b": -1.0453135763126824,
				"kernelType": "linear",
				"w": [
					0,
					0,
					0,
					0,
					-0.30838530067201675,
					6.938893903907228e-18,
					6.938893903907228e-18,
					-0.30838530067201675,
					0,
					-0.3235328525522461,
					0.07098330905795655,
					0.11982882179543519,
					-0.3235328525522461,
					0.10468126991520582,
					0.0781058632350845,
					0.0781058632350845,
					0.06841129584577613,
					-0.015147551880229357,
					0,
					-0.007009623571823772,
					0,
					-0.02215717545205313,
					0,
					0,
					0.05583575717772718,
					0,
					-0.015147551880229357,
					-0.007009623571823772,
					0,
					0,
					0.06284538074955096,
					-0.041835889165654866,
					0.11982882179543519,
					0,
					-0.04884551273747864,
					0.42821412246745194,
					0.04884551273747859,
					0.10468126991520582,
					0.11982882179543519,
					0.10468126991520582,
					0.08511548680690828,
					0.11982882179543519,
					0.11982882179543519,
					0.11982882179543519,
					0.036269974069429646,
					0,
					0,
					0,
					0,
					0,
					0,
					0,
					0,
					0,
					-0.007009623571823772,
					0,
					-0.02215717545205313,
					-0.007009623571823772,
					-0.007009623571823772,
					-0.007009623571823772,
					-0.007009623571823772,
					-0.007009623571823772,
					-0.007009623571823772,
					-0.04884551273747864,
					-0.007009623571823772,
					-0.007009623571823772,
					-0.007009623571823772,
					-0.007009623571823772,
					-0.007009623571823772,
					-0.007009623571823772,
					-0.026575406680121306,
					-0.015147551880229357,
					-0.015147551880229357,
					-0.015147551880229357,
					-0.015147551880229357,
					-0.019565783108297534,
					0,
					0,
					0,
					0,
					0,
					-0.30838530067201675,
					0,
					-0.0362699740694297,
					-0.0362699740694297,
					0,
					-0.041835889165654866,
					-0.019565783108297534,
					-0.019565783108297534,
					-0.019565783108297534,
					-0.019565783108297534,
					-0.019565783108297534,
					-0.019565783108297534,
					-0.019565783108297534,
					-0.019565783108297534,
					-0.019565783108297534,
					-0.019565783108297534,
					-0.019565783108297534,
					-0.019565783108297534,
					0,
					0,
					0,
					0
				]
			},
			"{\"Offer\": {\"Leased Car\": \"With leased car\"}}": {
				"N": 20,
				"D": 103,
				"b": -1.2427700540061448,
				"kernelType": "linear",
				"w": [
					0,
					-1.734723475976807e-18,
					-1.734723475976807e-18,
					-1.734723475976807e-18,
					0.019460644541281644,
					0,
					0,
					-0.028745904602913368,
					-0.05054912011881563,
					0.059528134323131865,
					-0.0253435221785797,
					0.0017300792599896087,
					0.01132158517893686,
					0.10480858678149552,
					0.0703576955934088,
					0.0703576955934088,
					0.16634172047470488,
					0.07815471227982577,
					-0.01246189762084007,
					-0.01886223665664192,
					-0.01246189762084007,
					0.01108592647898885,
					-0.01246189762084007,
					-0.01246189762084007,
					0.12828410546174185,
					-0.06066844676503508,
					0.02994816313563077,
					-0.06706878580083693,
					-0.06066844676503508,
					-0.06066844676503508,
					0.1346844444975437,
					-0.08134170916780253,
					0.06474109699964531,
					0,
					-0.02707360143856931,
					0.09348700160255867,
					0.1507530659432601,
					0.21602615366534622,
					0.1254095437646804,
					0.21602615366534622,
					0.18797560151306136,
					0.1254095437646804,
					0.1254095437646804,
					0.1254095437646804,
					0.16090200007449207,
					0,
					0,
					0,
					0,
					0,
					0,
					0,
					0,
					0,
					-0.006400339035801847,
					0,
					0.084216270864864,
					-0.006400339035801847,
					-0.006400339035801847,
					-0.006400339035801847,
					-0.006400339035801847,
					-0.006400339035801847,
					-0.006400339035801847,
					-0.02707360143856931,
					-0.006400339035801847,
					-0.006400339035801847,
					-0.006400339035801847,
					-0.006400339035801847,
					-0.006400339035801847,
					-0.006400339035801847,
					-0.03445089118808671,
					0.09061660990066585,
					0.09061660990066585,
					0.09061660990066585,
					0.09061660990066585,
					-0.028050552152284858,
					1.734723475976807e-18,
					1.734723475976807e-18,
					1.734723475976807e-18,
					1.734723475976807e-18,
					1.734723475976807e-18,
					0.03192254216212171,
					0,
					-0.03722253556980127,
					-0.03722253556980127,
					-4.336808689942018e-19,
					-0.020673262402767463,
					-0.02805055215228486,
					-0.02805055215228486,
					-0.02805055215228486,
					-0.02805055215228486,
					-0.02805055215228486,
					-0.02805055215228486,
					-0.02805055215228486,
					-0.02805055215228486,
					-0.02805055215228486,
					-0.02805055215228486,
					-0.02805055215228486,
					-0.02805055215228486,
					0,
					0,
					0,
					0
				]
			},
			"{\"Insist\": \"previous\"}": {
				"N": 20,
				"D": 103,
				"b": -0.69959786417168,
				"kernelType": "linear",
				"w": [
					0,
					-0.10024494920763462,
					-0.10024494920763462,
					-0.10024494920763462,
					-0.14268067906294657,
					-0.051209445089933,
					-0.051209445089933,
					-0.05530256658550729,
					-0.030144288587547308,
					-0.03301748320100001,
					-0.061531987995970205,
					-0.04003409980018116,
					-0.030144288587547308,
					-0.030144288587547308,
					-0.03784818112675464,
					-0.03784818112675464,
					-0.07318927332587671,
					0,
					0,
					-0.0028731946134527005,
					0,
					-0.006966316109026996,
					-0.0028731946134527005,
					0,
					-0.021497888195789037,
					0,
					0.022656783331262198,
					-0.011109738094755444,
					0,
					0,
					-0.02149788819578904,
					-0.02149788819578904,
					-0.026749904826836493,
					-0.054831517933543246,
					-0.1030279399733425,
					0,
					-0.08089316586508405,
					0,
					0,
					0,
					-0.007703892539207337,
					0,
					0,
					0,
					-0.02920178073499638,
					0.424816288094274,
					0.424816288094274,
					0.424816288094274,
					0.424816288094274,
					0.022656783331262198,
					0.022656783331262198,
					0.022656783331262198,
					0.022656783331262198,
					0.022656783331262198,
					-0.004093121495574295,
					0.022656783331262198,
					0.022656783331262198,
					-0.007016616599181152,
					0,
					-0.007016616599181152,
					-0.007016616599181152,
					-0.026749904826836493,
					0,
					-0.02149788819578904,
					0,
					-0.009889811212633852,
					0,
					0,
					-0.007016616599181152,
					0,
					-0.007703892539207337,
					0,
					0,
					0,
					0,
					-0.007703892539207334,
					3.469446951953614e-18,
					3.469446951953614e-18,
					3.469446951953614e-18,
					3.469446951953614e-18,
					3.469446951953614e-18,
					0,
					-0.007016616599181152,
					-0.07318927332587671,
					-0.07318927332587671,
					-0.026749904826836493,
					-0.02149788819578904,
					-0.007703892539207337,
					-0.007703892539207337,
					-0.007703892539207337,
					-0.007703892539207337,
					-0.007703892539207337,
					-0.007703892539207337,
					-0.007703892539207337,
					-0.007703892539207337,
					-0.007703892539207337,
					-0.007703892539207337,
					-0.007703892539207337,
					-0.007703892539207337,
					-0.04935531717527242,
					-0.04935531717527242,
					-0.04935531717527242,
					-0.04935531717527242
				]
			},
			"{\"Offer\": {\"Working Hours\": \"10 hours\"}}": {
				"N": 20,
				"D": 103,
				"b": -1.3199750391737402,
				"kernelType": "linear",
				"w": [
					0,
					0,
					0,
					0,
					0.23200355845587634,
					-0.05352642556624585,
					-0.05352642556624585,
					0.19468856975770432,
					-0.0482374116837503,
					0.3867152646906786,
					0.2062482925883901,
					-0.3143867708730105,
					0.33136184596840523,
					-0.10860882316585468,
					-0.06715639867011607,
					-0.06715639867011607,
					0.04054771231804449,
					0.0652733403722116,
					-0.03670825718741966,
					-0.01948958817719277,
					-0.03670825718741966,
					-0.08453803637370413,
					-0.08227396226529518,
					-0.03670825718741966,
					0.46026365197929625,
					-0.13762738098756852,
					-0.06070742782244966,
					0.05662310413418394,
					-0.13762738098756852,
					-0.13762738098756852,
					0.2150881142067403,
					0.13783214470127617,
					-0.1666940294157973,
					-0.2039688502208378,
					0.29160456884605046,
					-0.4399706691342599,
					0.055924019913100434,
					0.07725596950546415,
					-0.024725628054167115,
					0.07725596950546415,
					0.055924019913100434,
					-0.024725628054167115,
					-0.024725628054167115,
					-0.024725628054167115,
					0.39416791969004744,
					-0.025061644394512392,
					-0.025061644394512392,
					-0.025061644394512392,
					-0.025061644394512392,
					-0.025061644394512392,
					-0.025061644394512392,
					-0.025061644394512392,
					-0.025061644394512392,
					-0.025061644394512392,
					0.03338170931952832,
					-0.025061644394512392,
					0.13970432725322127,
					0.04126198620587304,
					0.06278437408810242,
					0.04126198620587304,
					0.04126198620587304,
					0.05844335371404071,
					0.06278437408810242,
					0.33824389977694713,
					0.06278437408810242,
					-0.004303718872002486,
					0.06278437408810242,
					0.06278437408810242,
					0.04126198620587304,
					0.06278437408810242,
					0.0414524244957387,
					0.10198159755963125,
					0.10198159755963125,
					0.10198159755963125,
					0.10198159755963125,
					0.16105921409208981,
					0.18239116368445352,
					0.18239116368445352,
					0.18239116368445352,
					0.18239116368445352,
					0.18239116368445352,
					0.4152450410800928,
					-0.021522387882229373,
					0,
					0,
					-0.004341020374061704,
					0.2754595256888447,
					-0.021331949592363713,
					-0.021331949592363713,
					-0.021331949592363713,
					-0.021331949592363713,
					-0.021331949592363713,
					-0.021331949592363713,
					-0.021331949592363713,
					-0.021331949592363713,
					-0.021331949592363713,
					-0.021331949592363713,
					-0.021331949592363713,
					-0.021331949592363713,
					6.288372600415926e-18,
					6.288372600415926e-18,
					6.288372600415926e-18,
					6.288372600415926e-18
				]
			},
			"{\"Offer\": {\"Job Description\": \"Team Manager\"}}": {
				"N": 20,
				"D": 103,
				"b": -1.1346170871810775,
				"kernelType": "linear",
				"w": [
					0,
					-1.111307226797642e-17,
					-1.111307226797642e-17,
					-1.111307226797642e-17,
					-0.06363424972245299,
					0,
					0,
					-0.09441256814069524,
					-0.01802792443080883,
					0.0797223443049967,
					-0.08768494075156233,
					-0.14793684692746545,
					0.07147409222609932,
					0.03276263239630364,
					0.102200905302978,
					0.102200905302978,
					0.05903880890600985,
					0.13010996709303463,
					-0.019314960865510575,
					0.07737364240908844,
					-0.019314960865510575,
					0.16474570058416751,
					-0.019314960865510575,
					-0.019314960865510575,
					0.11104246300301561,
					-0.027563212944407937,
					0.08737205817507906,
					0.02267614299141956,
					-0.027563212944407937,
					-0.027563212944407937,
					0.014353859728416588,
					-0.06399991004310382,
					-0.09863437113143272,
					0,
					0.02576224933684492,
					-0.03871145982979569,
					0.051103439403595755,
					0.07835376977152042,
					-0.07107115818702478,
					0.07835376977152042,
					0.051103439403595755,
					-0.07107115818702478,
					-0.07107115818702478,
					-0.07107115818702478,
					0.1113553455794989,
					-0.0344896568390582,
					-0.0344896568390582,
					-0.0344896568390582,
					-0.0344896568390582,
					-0.0344896568390582,
					-0.0344896568390582,
					-0.0344896568390582,
					-0.0344896568390582,
					-0.0344896568390582,
					0.06219894643554081,
					-0.0344896568390582,
					0.21162387439408603,
					0.08472901277488569,
					0.09668860327459901,
					0.08472901277488569,
					0.08472901277488569,
					0.09668860327459901,
					0.09668860327459901,
					0.06025190617590312,
					0.09668860327459901,
					0.08472901277488569,
					0.09668860327459901,
					0.09668860327459901,
					0.08472901277488569,
					0.09668860327459901,
					0.06943827290667434,
					0.1494249279585452,
					0.1494249279585452,
					0.1494249279585452,
					0.1494249279585452,
					-0.027250330367924663,
					0,
					0,
					0,
					0,
					0,
					-0.0323596983572291,
					-0.01195959049971332,
					1.734723475976807e-18,
					1.734723475976807e-18,
					0,
					-0.03643669709869589,
					-0.027250330367924663,
					-0.027250330367924663,
					-0.027250330367924663,
					-0.027250330367924663,
					-0.027250330367924663,
					-0.027250330367924663,
					-0.027250330367924663,
					-0.027250330367924663,
					-0.027250330367924663,
					-0.027250330367924663,
					-0.027250330367924663,
					-0.027250330367924663,
					0,
					0,
					0,
					0
				]
			},
			"{\"Insist\": \"Working Hours\"}": {
				"N": 20,
				"D": 103,
				"b": -1.0684016053913301,
				"kernelType": "linear",
				"w": [
					0,
					0,
					0,
					0,
					0.08142257471321626,
					-8.673617379884035e-19,
					-8.673617379884035e-19,
					-0.03558635416481391,
					0,
					-0.005180858364540357,
					0.12719578561297223,
					-0.05574305333959035,
					-0.010115685942721934,
					-0.010115685942721934,
					-0.016030269019089893,
					-0.016030269019089893,
					-0.005180858364540357,
					-0.005174303563281258,
					-0.005174303563281258,
					-0.006328886078797077,
					-0.005174303563281258,
					-0.041908685442351885,
					-0.005174303563281258,
					-0.005174303563281258,
					0.17282315300984064,
					-0.010109131141462835,
					-0.015267539582144957,
					0.16401759398383406,
					-0.010109131141462835,
					-0.010109131141462835,
					-0.0672273041711354,
					-0.06722074936987629,
					-0.030427945724131787,
					-0.09383628300373821,
					0.08081531368185228,
					0,
					-0.004766555362111237,
					-0.0000065548012590990875,
					-0.0000065548012590990875,
					-0.0000065548012590990875,
					-0.004766555362111237,
					-0.0000065548012590990875,
					-0.0000065548012590990875,
					-0.0000065548012590990875,
					-0.06303275610604052,
					-0.005158408440682122,
					-0.005158408440682122,
					-0.005158408440682122,
					-0.005158408440682122,
					-0.005158408440682122,
					-0.005158408440682122,
					-0.005158408440682122,
					-0.005158408440682122,
					-0.005158408440682122,
					-0.026625250737607794,
					-0.005158408440682122,
					-0.00631299095619794,
					-0.041607646349102974,
					-0.0011545825155158188,
					-0.041607646349102974,
					-0.041607646349102974,
					-0.02146684229692567,
					-0.0011545825155158188,
					-0.05826620074392928,
					-0.0011545825155158188,
					-0.041607646349102974,
					-0.0011545825155158188,
					-0.0011545825155158188,
					-0.041607646349102974,
					-0.0011545825155158188,
					-0.005914583076367957,
					0,
					0,
					0,
					0,
					0.23644503913563972,
					0.24120503969649185,
					0.24120503969649185,
					0.24120503969649185,
					0.24120503969649185,
					0.24120503969649185,
					-0.0000065548012590990875,
					-0.040453063833587155,
					0,
					0,
					-0.020312259781409853,
					-0.057111618228413465,
					-0.0047600005608521385,
					-0.0047600005608521385,
					-0.0047600005608521385,
					-0.0047600005608521385,
					-0.0047600005608521385,
					-0.0047600005608521385,
					-0.0047600005608521385,
					-0.0047600005608521385,
					-0.0047600005608521385,
					-0.0047600005608521385,
					-0.0047600005608521385,
					-0.0047600005608521385,
					-0.0031288338262899316,
					-0.0031288338262899316,
					-0.0031288338262899316,
					-0.0031288338262899316
				]
			},
			"{\"Reject\": \"Job Description\"}": {
				"N": 20,
				"D": 103,
				"b": -0.968453521173603,
				"kernelType": "linear",
				"w": [
					0,
					-0.010467027673798052,
					-0.010467027673798052,
					-0.010467027673798052,
					0.10106919315278756,
					-0.043374769719357234,
					-0.043374769719357234,
					-0.04586613254047006,
					-0.011799911126377885,
					-0.11348484621122652,
					0.08813663250531625,
					0.18384589729821196,
					-0.014254274387628219,
					-0.014254274387628219,
					-0.0747975335198354,
					-0.0747975335198354,
					-0.00795436120380557,
					0,
					0,
					-0.1622281942170558,
					0,
					-0.16471955703816862,
					-0.10168493508484863,
					0,
					-0.09816362805414602,
					-0.002454363261250334,
					-0.002454363261250334,
					0.2015844791566803,
					-0.002454363261250334,
					-0.002454363261250334,
					-0.002454363261250334,
					-0.002454363261250334,
					-0.002491362821112829,
					-0.01845320359314437,
					-0.11416246838604008,
					0,
					-0.00795436120380557,
					0,
					0,
					0,
					0,
					0,
					0,
					0,
					-0.06054325913220718,
					-0.007850270755348523,
					-0.007850270755348523,
					-0.007850270755348523,
					-0.007850270755348523,
					0,
					0,
					0,
					0,
					0,
					-0.06058025869206967,
					0,
					-0.06054325913220718,
					0.23924184763848164,
					-0.06054325913220718,
					0.23924184763848164,
					0.23924184763848164,
					-0.06058025869206967,
					-0.06054325913220718,
					-0.06054325913220718,
					-0.06054325913220718,
					0.137556912553633,
					-0.06054325913220718,
					-0.06054325913220718,
					0.23924184763848164,
					-0.06054325913220718,
					-0.06054325913220718,
					0,
					0,
					0,
					0,
					-0.035166005660688525,
					-0.035166005660688525,
					-0.035166005660688525,
					-0.035166005660688525,
					-0.035166005660688525,
					-0.035166005660688525,
					0,
					0.2997851067706888,
					-0.00795436120380557,
					-0.00795436120380557,
					-0.000036999559862494976,
					0,
					0,
					0,
					0,
					0,
					0,
					0,
					0,
					0,
					0,
					0,
					0,
					0,
					0,
					0,
					0,
					0
				]
			},
			"{\"Offer\": {\"Pension Fund\": \"0%\"}}": {
				"N": 20,
				"D": 103,
				"b": -0.976677408903825,
				"kernelType": "linear",
				"w": [
					0,
					-0.007888291205452987,
					-0.007888291205452987,
					-0.007888291205452987,
					0.14167220845737774,
					-0.14194217167146272,
					-0.14194217167146272,
					0.11888954378937286,
					0,
					-0.029291492036809055,
					-0.11862853605510265,
					-0.08151639232725288,
					-0.04834024543493982,
					-0.04834024543493982,
					-0.07671319307812102,
					-0.07671319307812102,
					-0.013156257438537267,
					-0.009618260013332339,
					-0.009618260013332339,
					-0.05766443967999024,
					-0.009618260013332339,
					0.20316727578084534,
					-0.029291492036809055,
					-0.009618260013332339,
					-0.08545238916278958,
					-0.04834024543493982,
					-0.10187297218353857,
					0.21983491687748177,
					-0.04834024543493982,
					-0.04834024543493982,
					-0.04834024543493982,
					-0.04834024543493982,
					0.3143644422094343,
					-0.03717496453855204,
					-0.12781983501500055,
					0,
					-0.0035379974252049496,
					0,
					0,
					0,
					-2.0816681711721685e-17,
					0,
					0,
					0,
					-0.028372947643181202,
					-0.05353272674859877,
					-0.05353272674859877,
					-0.05353272674859877,
					-0.05353272674859877,
					-0.05353272674859875,
					-0.05353272674859875,
					-0.05353272674859875,
					-0.05353272674859875,
					-0.05353272674859875,
					0.2807990132525942,
					-0.05353272674859875,
					-0.08190567439177993,
					-0.0322576024986852,
					-0.02837294764318118,
					-0.0322576024986852,
					-0.0322576024986852,
					0.334331740001193,
					-0.02837294764318118,
					-0.02837294764318118,
					-0.02837294764318118,
					-0.05193083452216192,
					-0.02837294764318118,
					-0.02837294764318118,
					-0.0322576024986852,
					-0.02837294764318118,
					-0.028372947643181202,
					0,
					0,
					0,
					0,
					-0.008739196084668603,
					-0.008739196084668582,
					-0.008739196084668582,
					-0.008739196084668582,
					-0.008739196084668582,
					-0.008739196084668582,
					0,
					-0.0038846548555040218,
					-0.0035379974252049287,
					-0.0035379974252049287,
					0.36270468764437414,
					8.673617379884035e-19,
					-2.0816681711721685e-17,
					-2.0816681711721685e-17,
					-2.0816681711721685e-17,
					-2.0816681711721685e-17,
					-2.0816681711721685e-17,
					-2.0816681711721685e-17,
					-2.0816681711721685e-17,
					-2.0816681711721685e-17,
					-2.0816681711721685e-17,
					-2.0816681711721685e-17,
					-2.0816681711721685e-17,
					-2.0816681711721685e-17,
					-3.469446951953614e-18,
					-3.469446951953614e-18,
					-3.469446951953614e-18,
					-3.469446951953614e-18
				]
			},
			"{\"Offer\": {\"Pension Fund\": \"20%\"}}": {
				"N": 20,
				"D": 103,
				"b": -0.9615305934437843,
				"kernelType": "linear",
				"w": [
					0,
					-0.012588111789785314,
					-0.012588111789785314,
					-0.012588111789785314,
					-0.013904692490564365,
					-0.008155278544195102,
					-0.008155278544195102,
					-0.008155278544195102,
					-0.010838033301941406,
					-0.023281279717640487,
					-0.042016053498565645,
					-0.027390338655776277,
					-0.023281279717640487,
					-0.03983358507147536,
					0.06436885456882387,
					0.06436885456882387,
					-0.05307746417080572,
					-0.012443246415699081,
					0,
					-0.011646906947640213,
					0,
					-0.024090153363339292,
					0,
					0,
					-0.04362126661232331,
					0,
					-0.012443246415699081,
					-0.014625714842789366,
					0,
					0,
					-0.028995551769533952,
					0,
					-0.01655230535383487,
					-0.00277060605122011,
					-0.021573107142157957,
					-0.01655230535383487,
					0.06277188241713372,
					-0.028995551769533952,
					-0.01655230535383487,
					-0.028995551769533952,
					0.08685379481840548,
					-0.01655230535383487,
					-0.01655230535383487,
					-0.01655230535383487,
					0.07520688787076527,
					-0.009617351639053926,
					-0.009617351639053926,
					-0.009617351639053926,
					-0.009617351639053926,
					0,
					0,
					0,
					0,
					0,
					-0.011646906947640213,
					0,
					-0.024090153363339292,
					-0.011646906947640213,
					-0.011646906947640213,
					-0.011646906947640213,
					-0.011646906947640213,
					-0.011646906947640213,
					-0.011646906947640213,
					-0.011646906947640213,
					-0.011646906947640213,
					-0.011646906947640213,
					-0.011646906947640213,
					-0.011646906947640213,
					-0.011646906947640213,
					-0.011646906947640213,
					0.10420243964029921,
					-0.012443246415699081,
					-0.012443246415699081,
					-0.012443246415699081,
					-0.012443246415699081,
					0.11287053869279028,
					-0.0029788078951491527,
					-0.0029788078951491527,
					-0.0029788078951491527,
					-0.0029788078951491527,
					-0.0029788078951491527,
					0,
					0,
					-0.02408191240127177,
					-0.02408191240127177,
					0,
					0,
					0.11584934658793943,
					0.11584934658793943,
					0.11584934658793943,
					0.11584934658793943,
					0.11584934658793943,
					0.11584934658793943,
					0.11584934658793943,
					0.11584934658793943,
					0.11584934658793943,
					0.11584934658793943,
					0.11584934658793943,
					0.11584934658793943,
					-0.00417678624814848,
					-0.00417678624814848,
					-0.00417678624814848,
					-0.00417678624814848
				]
			},
			"{\"Offer\": {\"Leased Car\": \"Without leased car\"}}": {
				"N": 20,
				"D": 103,
				"b": -0.9615880086593531,
				"kernelType": "linear",
				"w": [
					0,
					-0.012691296639356817,
					-0.012691296639356817,
					-0.012691296639356817,
					-0.013854627127881432,
					-0.008044554793850184,
					-0.008044554793850184,
					-0.008044554793850184,
					-0.01090839490658209,
					-0.023165375170138787,
					-0.04229216708902956,
					-0.027493333229011298,
					-0.023165375170138787,
					-0.039750313492567996,
					0.06436833694156109,
					0.06436833694156109,
					-0.05299167328799881,
					-0.012256980263556694,
					0,
					-0.011786483112998946,
					0,
					-0.024043463376555642,
					0,
					0,
					-0.04364075244600417,
					0,
					-0.012256980263556694,
					-0.014798833860018262,
					0,
					0,
					-0.0288419185859859,
					0,
					-0.016584938322429205,
					-0.002797721587011932,
					-0.02175964262575355,
					-0.016584938322429205,
					0.06291346025912922,
					-0.0288419185859859,
					-0.016584938322429205,
					-0.0288419185859859,
					0.08706321496114212,
					-0.016584938322429205,
					-0.016584938322429205,
					-0.016584938322429205,
					0.07527673184814318,
					-0.00950957129358658,
					-0.00950957129358658,
					-0.00950957129358658,
					-0.00950957129358658,
					0,
					0,
					0,
					0,
					0,
					-0.011786483112998946,
					0,
					-0.024043463376555642,
					-0.011786483112998946,
					-0.011786483112998946,
					-0.011786483112998946,
					-0.011786483112998946,
					-0.011786483112998946,
					-0.011786483112998946,
					-0.011786483112998946,
					-0.011786483112998946,
					-0.011786483112998946,
					-0.011786483112998946,
					-0.011786483112998946,
					-0.011786483112998946,
					-0.011786483112998946,
					0.10411865043412907,
					-0.012256980263556694,
					-0.012256980263556694,
					-0.012256980263556694,
					-0.012256980263556694,
					0.1128927828001087,
					-0.0030123507470193166,
					-0.0030123507470193166,
					-0.0030123507470193166,
					-0.0030123507470193166,
					-0.0030123507470193166,
					0,
					0,
					-0.02414975470201291,
					-0.02414975470201291,
					0,
					0,
					0.11590513354712802,
					0.11590513354712802,
					0.11590513354712802,
					0.11590513354712802,
					0.11590513354712802,
					0.11590513354712802,
					0.11590513354712802,
					0.11590513354712802,
					0.11590513354712802,
					0.11590513354712802,
					0.11590513354712802,
					0.11590513354712802,
					-0.004163087178723355,
					-0.004163087178723355,
					-0.004163087178723355,
					-0.004163087178723355
				]
			},
			"{\"Offer\": {\"Working Hours\": \"8 hours\"}}": {
				"N": 20,
				"D": 103,
				"b": -0.9614595252424206,
				"kernelType": "linear",
				"w": [
					0,
					-0.012620664495909954,
					-0.012620664495909954,
					-0.012620664495909954,
					-0.013696054308297942,
					-0.008055313059810583,
					-0.008055313059810583,
					-0.008055313059810583,
					-0.010999820794830004,
					-0.02336248327205484,
					-0.042187546121827166,
					-0.027501646019702976,
					-0.02336248327205484,
					-0.03986430849692781,
					0.06436890660990915,
					0.06436890660990915,
					-0.053045241696951996,
					-0.012362662477224834,
					0,
					-0.011678301519196028,
					0,
					-0.02404096399642086,
					0,
					0,
					-0.043550387804222,
					0,
					-0.012362662477224834,
					-0.014685900102124191,
					0,
					0,
					-0.028864487702097805,
					0,
					-0.016501825224872972,
					-0.0026331426655591965,
					-0.021511122918830408,
					-0.016501825224872972,
					0.06286627492908098,
					-0.028864487702097805,
					-0.016501825224872972,
					-0.028864487702097805,
					0.08704702892393518,
					-0.016501825224872972,
					-0.016501825224872972,
					-0.016501825224872972,
					0.07536872740473916,
					-0.009679353659700058,
					-0.009679353659700058,
					-0.009679353659700058,
					-0.009679353659700058,
					0,
					0,
					0,
					0,
					0,
					-0.011678301519196028,
					0,
					-0.02404096399642086,
					-0.011678301519196028,
					-0.011678301519196028,
					-0.011678301519196028,
					-0.011678301519196028,
					-0.011678301519196028,
					-0.011678301519196028,
					-0.011678301519196028,
					-0.011678301519196028,
					-0.011678301519196028,
					-0.011678301519196028,
					-0.011678301519196028,
					-0.011678301519196028,
					-0.011678301519196028,
					0.10423321510683697,
					-0.012362662477224834,
					-0.012362662477224834,
					-0.012362662477224834,
					-0.012362662477224834,
					0.11290391804310483,
					-0.003007598582928163,
					-0.003007598582928163,
					-0.003007598582928163,
					-0.003007598582928163,
					-0.003007598582928163,
					7.589415207398531e-19,
					0,
					-0.02418075399485419,
					-0.02418075399485419,
					0,
					0,
					0.115911516626033,
					0.115911516626033,
					0.115911516626033,
					0.115911516626033,
					0.115911516626033,
					0.115911516626033,
					0.115911516626033,
					0.115911516626033,
					0.115911516626033,
					0.115911516626033,
					0.115911516626033,
					0.115911516626033,
					-0.004192080151147019,
					-0.004192080151147019,
					-0.004192080151147019,
					-0.004192080151147019
				]
			},
			"{\"Offer\": {\"Salary\": \"20,000 NIS\"}}": {
				"N": 20,
				"D": 103,
				"b": -0.9617211716316401,
				"kernelType": "linear",
				"w": [
					0,
					-0.012759609456120017,
					-0.012759609456120017,
					-0.012759609456120017,
					-0.013853216080025058,
					-0.008110296766592223,
					-0.008110296766592223,
					-0.008110296766592223,
					-0.01085331006917158,
					-0.02331532494046888,
					-0.042038401798546704,
					-0.027314235280128926,
					-0.02331532494046888,
					-0.03977625015142623,
					0.0644733717081616,
					0.0644733717081616,
					-0.05310609736164257,
					-0.012462014871297302,
					0,
					-0.011685787421692581,
					0,
					-0.024147802292989885,
					0,
					0,
					-0.043647106600672426,
					0,
					-0.012462014871297302,
					-0.014724166518417781,
					0,
					0,
					-0.02892294008225465,
					0,
					-0.016460925210957347,
					-0.002704540216707635,
					-0.02153638853566406,
					-0.016460925210957347,
					0.06282931191963785,
					-0.02892294008225465,
					-0.016460925210957347,
					-0.02892294008225465,
					0.08701246919902576,
					-0.016460925210957347,
					-0.016460925210957347,
					-0.016460925210957347,
					0.07532668177733318,
					-0.009569707092089997,
					-0.009569707092089997,
					-0.009569707092089997,
					-0.009569707092089997,
					0,
					0,
					0,
					0,
					0,
					-0.011685787421692581,
					0,
					-0.024147802292989885,
					-0.011685787421692581,
					-0.011685787421692581,
					-0.011685787421692581,
					-0.011685787421692581,
					-0.011685787421692581,
					-0.011685787421692581,
					-0.011685787421692581,
					-0.011685787421692581,
					-0.011685787421692581,
					-0.011685787421692581,
					-0.011685787421692581,
					-0.011685787421692581,
					-0.011685787421692581,
					0.10424962185958783,
					-0.012462014871297302,
					-0.012462014871297302,
					-0.012462014871297302,
					-0.012462014871297302,
					0.11289703018455521,
					-0.003038379096725199,
					-0.003038379096725199,
					-0.003038379096725199,
					-0.003038379096725199,
					-0.003038379096725199,
					0,
					0,
					-0.024183157279387916,
					-0.024183157279387916,
					0,
					0,
					0.11593540928128042,
					0.11593540928128042,
					0.11593540928128042,
					0.11593540928128042,
					0.11593540928128042,
					0.11593540928128042,
					0.11593540928128042,
					0.11593540928128042,
					0.11593540928128042,
					0.11593540928128042,
					0.11593540928128042,
					0.11593540928128042,
					-0.004107681800538644,
					-0.004107681800538644,
					-0.004107681800538644,
					-0.004107681800538644
				]
			},
			"{\"Offer\": {\"Salary\": \"7,000 NIS\"}}": {
				"N": 20,
				"D": 103,
				"b": -0.8067190966076483,
				"kernelType": "linear",
				"w": [
					0,
					-0.06447904993188594,
					-0.06447904993188594,
					-0.06447904993188594,
					-0.1826547641535838,
					-0.00004962070211224389,
					-0.00004962070211224389,
					-0.012821836725199267,
					-0.01628692538220915,
					-0.01628692538220915,
					-0.06960552923950902,
					-0.01628692538220915,
					-0.01628692538220915,
					-0.01628692538220915,
					-0.021037326261826354,
					-0.021037326261826354,
					-0.04758517052927986,
					0,
					0,
					-0.0020012657093143285,
					0,
					-0.014773481732401351,
					0,
					0,
					-0.05331860385729987,
					0,
					-0.012772216023087023,
					-0.02010234593054617,
					0,
					0,
					-0.04598847394984072,
					-0.04598847394984072,
					0,
					-0.17727627925332673,
					0.16665014001455875,
					0,
					-0.050334305699582735,
					0,
					0,
					0,
					-0.0027491351703028757,
					0,
					0,
					0,
					-0.05073887482945793,
					-0.048272454321855555,
					-0.048272454321855555,
					-0.048272454321855555,
					-0.048272454321855555,
					-0.012772216023087023,
					-0.012772216023087023,
					-0.012772216023087023,
					-0.012772216023087023,
					-0.012772216023087023,
					-0.014773481732401351,
					-0.012772216023087023,
					-0.014773481732401351,
					-0.0020012657093143285,
					-0.0020012657093143285,
					-0.0020012657093143285,
					-0.0020012657093143285,
					-0.0020012657093143285,
					-0.0020012657093143285,
					-0.04798973965915505,
					-0.0020012657093143285,
					-0.0020012657093143285,
					-0.0020012657093143285,
					-0.0020012657093143285,
					-0.0020012657093143285,
					-0.0020012657093143285,
					-0.004750400879617204,
					0,
					0,
					0,
					0,
					-0.008077999368447695,
					-0.005328864198144818,
					-0.005328864198144818,
					-0.005328864198144818,
					-0.005328864198144818,
					-0.005328864198144818,
					0,
					0,
					-0.04758517052927986,
					-0.04758517052927986,
					0,
					-0.04598847394984072,
					-0.0027491351703028757,
					-0.0027491351703028757,
					-0.0027491351703028757,
					-0.0027491351703028757,
					-0.0027491351703028757,
					-0.0027491351703028757,
					-0.0027491351703028757,
					-0.0027491351703028757,
					-0.0027491351703028757,
					-0.0027491351703028757,
					-0.0027491351703028757,
					-0.0027491351703028757,
					0.41001723914827237,
					0.41001723914827237,
					0.41001723914827237,
					0.41001723914827237
				]
			}
		},
		"featureLookupTable": {
			"featureIndexToFeatureName": [
				null,
				"Then",
				"go",
				"home",
				"I",
				"reject",
				"your",
				"offer",
				"Start",
				"as",
				"a",
				"programmer",
				"with",
				"fast",
				"promotion",
				"track",
				"12000",
				"would",
				"like",
				"to",
				"suggest",
				"you",
				"work",
				"for",
				"10",
				"hi",
				"i",
				"can",
				"being",
				"first",
				"and",
				"have",
				"pension",
				"agree",
				"",
				"9",
				"NIS",
				"per",
				"month",
				"company",
				"car",
				"daily",
				"schedule",
				"of",
				"hours",
				"take",
				"it",
				"or",
				"leave",
				"no",
				"chance",
				"my",
				"last",
				"was",
				"the",
				"best",
				"give",
				"You",
				"get",
				"Team",
				"Manager",
				"job",
				"but",
				"we",
				"still",
				"need",
				"We",
				"will",
				"be",
				"happy",
				"Fast",
				"start",
				"team",
				"manager",
				"day",
				"Hours",
				"is",
				"must",
				"t",
				"change",
				"that",
				"forwork",
				"not",
				"how",
				"about",
				"without",
				"deal",
				"8",
				"20",
				"20000",
				"Salary",
				"Job",
				"Description",
				"Programmer",
				"Without",
				"leased",
				"Pension",
				"Fund",
				"Working",
				"7000",
				"nis",
				"its",
				"ok"
			],
			"featureNameToFeatureIndex": {
				"8": 87,
				"9": 35,
				"10": 24,
				"20": 88,
				"7000": 99,
				"12000": 16,
				"20000": 89,
				"undefined": 0,
				"Then": 1,
				"go": 2,
				"home": 3,
				"I": 4,
				"reject": 5,
				"your": 6,
				"offer": 7,
				"Start": 8,
				"as": 9,
				"a": 10,
				"programmer": 11,
				"with": 12,
				"fast": 13,
				"promotion": 14,
				"track": 15,
				"would": 17,
				"like": 18,
				"to": 19,
				"suggest": 20,
				"you": 21,
				"work": 22,
				"for": 23,
				"hi": 25,
				"i": 26,
				"can": 27,
				"being": 28,
				"first": 29,
				"and": 30,
				"have": 31,
				"pension": 32,
				"agree": 33,
				"": 34,
				"NIS": 36,
				"per": 37,
				"month": 38,
				"company": 39,
				"car": 40,
				"daily": 41,
				"schedule": 42,
				"of": 43,
				"hours": 44,
				"take": 45,
				"it": 46,
				"or": 47,
				"leave": 48,
				"no": 49,
				"chance": 50,
				"my": 51,
				"last": 52,
				"was": 53,
				"the": 54,
				"best": 55,
				"give": 56,
				"You": 57,
				"get": 58,
				"Team": 59,
				"Manager": 60,
				"job": 61,
				"but": 62,
				"we": 63,
				"still": 64,
				"need": 65,
				"We": 66,
				"will": 67,
				"be": 68,
				"happy": 69,
				"Fast": 70,
				"start": 71,
				"team": 72,
				"manager": 73,
				"day": 74,
				"Hours": 75,
				"is": 76,
				"must": 77,
				"t": 78,
				"change": 79,
				"that": 80,
				"forwork": 81,
				"not": 82,
				"how": 83,
				"about": 84,
				"without": 85,
				"deal": 86,
				"Salary": 90,
				"Job": 91,
				"Description": 92,
				"Programmer": 93,
				"Without": 94,
				"leased": 95,
				"Pension": 96,
				"Fund": 97,
				"Working": 98,
				"nis": 100,
				"its": 101,
				"ok": 102
			}
		}
	}
}