{
	"createNewClassifierString": "function () {\n\tvar FeatureExtractor = require('/home/erelsgl/Dropbox/machine-learning/demos/../FeatureExtractor');\n\tvar BinaryClassifierSet = require('/home/erelsgl/Dropbox/machine-learning/demos/../BinaryClassifierSet');\n\tvar ClassifierWithFeatureExtractor = require('/home/erelsgl/Dropbox/machine-learning/demos/../ClassifierWithFeatureExtractor');\n\t\n\tvar baseBinaryClassifierType = require('/home/erelsgl/Dropbox/machine-learning/demos/../svmjs').SVM;\n\t//var baseBinaryClassifierType = require('/home/erelsgl/Dropbox/machine-learning/demos/../brain').NeuralNetwork;\n\t//var baseBinaryClassifierType = require('/home/erelsgl/Dropbox/machine-learning/demos/../classifier/lib/bayesian').Bayesian;\n\t\n\treturn new ClassifierWithFeatureExtractor({\n\t\tclassifierType: BinaryClassifierSet,\n\t\tclassifierOptions: {\n\t\t\t\tbinaryClassifierType: baseBinaryClassifierType,\n\t\t//binaryClassifierType: ClassifierWithFeatureExtractor,\n\t\t//binaryClassifierOptions: {\n\t\t\t\t//classifierType:   baseBinaryClassifierType,\n\t\t\t\tbinaryClassifierOptions: {\n\t\t\t\t\tC: 1.0,\n\t\t\t\t\t//iterations: 10,\n\t\t\t\t\t//log: true\n\t\t\t\t},\n\t\t},\n\t\tfeatureExtractor: FeatureExtractor.CollectionOfExtractors([\n\t\t\t\t\tFeatureExtractor.WordsFromText(1),\n\t\t\t\t\t//FeatureExtractor.WordsFromText(2),\n\t\t\t\t\t//FeatureExtractor.LettersFromText(2), \n\t\t\t\t\t//FeatureExtractor.LettersFromText(4),\n\t\t]),\n\t\tfeatureLookupTable: new FeatureExtractor.FeatureLookupTable(),\n\t});\n}",
	"trainedClassifier": {
		"classifier": {
			"{\"Quit\": true}": {
				"N": 100,
				"D": 183,
				"b": -0.8129033432188246,
				"kernelType": "linear",
				"w": [
					0,
					0.6041848255142307,
					0.6041848255142307,
					0.6041848255142307,
					-0.11794911740497666,
					0,
					-0.023710911965785522,
					-0.048506203430305504,
					1.734723475976807e-18,
					1.734723475976807e-18,
					-0.004753515976902361,
					-0.0047535159769023635,
					-0.05850442211384062,
					-0.03425573915900138,
					-0.047410598705262416,
					-0.047410598705262416,
					-0.06138123860597429,
					0,
					-0.024675678281943895,
					-0.02633233118704448,
					-0.01502183047161928,
					-0.05603975107573152,
					-0.0026214192212589797,
					-0.009447746176257061,
					-0.11157908853493732,
					-0.010812356120820963,
					-0.06480319611447725,
					-0.030017158497425523,
					0,
					0,
					0,
					-0.0026214192212589797,
					-0.03966992715549499,
					-0.0237109119657855,
					-0.07610600297895494,
					-0.0026214192212589797,
					-0.04930952171651991,
					0,
					0,
					4.336808689942018e-19,
					-0.013154859546261034,
					0,
					0,
					0,
					-0.07600610904387421,
					-0.03985759319460693,
					-0.06465288465912691,
					-0.04333660424661242,
					-0.03985759319460693,
					0,
					0,
					-0.024795291464519982,
					-0.024795291464519982,
					0,
					1.3010426069826053e-18,
					0,
					0,
					-0.004753515976902363,
					0,
					-0.004753515976902365,
					-0.0023767579884512195,
					-0.024648096683875714,
					4.336808689942018e-18,
					0,
					0,
					-0.004753515976902365,
					0,
					-0.01605774605527726,
					-0.004753515976902363,
					0,
					-0.013154859546261034,
					-0.024248682954839243,
					3.0357660829594124e-18,
					-0.0023767579884511427,
					0,
					0,
					-0.024795291464519982,
					0,
					4.336808689942018e-19,
					0,
					0,
					0,
					-0.008232527028907852,
					-0.03849716559569895,
					-0.03849716559569895,
					-0.013154859546261034,
					0,
					0,
					-0.01502183047161928,
					0,
					-0.01343632683401828,
					-8.673617379884035e-19,
					-0.024648096683875714,
					-0.024648096683875714,
					0,
					-0.013154859546261034,
					-8.673617379884035e-19,
					-8.673617379884035e-19,
					0,
					-0.023162801655765723,
					-0.012350445534944762,
					-0.02179819171120182,
					-0.053442729683636496,
					0,
					0,
					0,
					0,
					0,
					-0.06961136751210749,
					0,
					3.469446951953614e-18,
					0,
					0,
					-0.03255805207410305,
					0,
					-0.013154859546261034,
					-8.673617379884035e-19,
					-8.673617379884035e-19,
					-0.024648096683875714,
					-0.024648096683875714,
					-0.024648096683875714,
					-0.06965468759303928,
					0,
					-0.0026214192212589797,
					-0.0026214192212589797,
					0,
					0,
					0,
					4.336808689942018e-19,
					0,
					-0.05723373035604694,
					0,
					4.336808689942018e-19,
					4.336808689942018e-19,
					4.336808689942018e-19,
					4.336808689942018e-19,
					4.336808689942018e-19,
					4.336808689942018e-19,
					-0.010812356120820963,
					4.336808689942018e-19,
					4.336808689942018e-19,
					-0.009447746176257061,
					0,
					0,
					0,
					-0.010812356120820963,
					0,
					0,
					-0.0034790110520054865,
					-0.025263642520523162,
					0,
					-0.01343632683401828,
					0,
					-0.012629241017097633,
					-0.012629241017097633,
					-0.012629241017097633,
					-0.012629241017097633,
					-0.012629241017097633,
					-0.012629241017097633,
					0,
					-0.009447746176257061,
					-0.013154859546261034,
					-0.013154859546261034,
					0,
					0,
					0,
					-0.03255805207410305,
					-0.03255805207410305,
					-0.03255805207410305,
					0,
					0,
					0,
					-0.024675678281943895,
					-0.024675678281943895,
					0,
					0,
					0,
					0,
					0,
					0,
					0,
					0,
					0
				]
			},
			"{\"Reject\": \"previous\"}": {
				"N": 100,
				"D": 183,
				"b": -1.1599281694129018,
				"kernelType": "linear",
				"w": [
					0,
					0,
					0,
					0,
					0.2731178082750394,
					1,
					0.3600796558326417,
					0.2169066176286073,
					0,
					-0.0662023913300067,
					-0.13490224175213245,
					-0.0662023913300067,
					-0.23003910244366393,
					-0.0034550715678096098,
					-0.0034550715678096115,
					-0.0034550715678096115,
					-0.144349938479863,
					-0.0662023913300067,
					0.4631098911357401,
					-0.17096441997480688,
					-0.0662023913300067,
					0.27158195350516756,
					-0.06620239133000669,
					-0.06643451562650321,
					-0.06675037916927241,
					8.673617379884035e-19,
					-0.11164080361516916,
					-0.05954148775542062,
					0,
					0,
					-0.13529018594823458,
					1.3010426069826053e-17,
					-0.20348089756469495,
					-0.13417875129934614,
					0.02097352390148116,
					5.724587470723463e-17,
					-0.06877193107545866,
					-0.01002955713961973,
					0,
					-0.01026168143611623,
					-0.06935379148734788,
					0,
					0,
					0,
					-0.013484628707429282,
					0.09455063757115673,
					-0.04766457848954059,
					0.018820761132664565,
					0.09455063757115673,
					0.30169550967633474,
					0.30169550967633474,
					0.0665984675430421,
					0.15948029361563743,
					0.30169550967633474,
					0.09169187963276171,
					0.20881368360373942,
					0.22946850703306648,
					-0.009375616074397613,
					0,
					-0.00023212429649649706,
					1.734723475976807e-18,
					-0.20977150574707654,
					-0.01963729751051384,
					0,
					0,
					5.204170427930421e-18,
					0,
					-0.0034550715678095933,
					-0.009375616074397613,
					0,
					0,
					0,
					-0.009375616074397615,
					-0.009375616074397615,
					-0.01002955713961973,
					1.734723475976807e-18,
					-0.23509704213329263,
					1.734723475976807e-18,
					-0.00023212429649649706,
					1.734723475976807e-18,
					1.734723475976807e-18,
					0,
					-0.07572987643849216,
					0,
					-0.0002321242964964988,
					-0.21980106288669626,
					0,
					0,
					0,
					0,
					0,
					0,
					0,
					0,
					0,
					0,
					0,
					0,
					0,
					0,
					0,
					0,
					-0.01002955713961973,
					0,
					0,
					0,
					0,
					0,
					-0.3051192130788941,
					0,
					-0.009375616074397615,
					0,
					0,
					-0.046698050044981905,
					0,
					0,
					0,
					0,
					0,
					0,
					1.0842021724855044e-18,
					-0.1130727981033147,
					0,
					1.3010426069826053e-17,
					1.3010426069826053e-17,
					3.469446951953614e-18,
					4.85722573273506e-17,
					4.553649124439119e-18,
					-0.00023212429649649533,
					3.469446951953614e-18,
					0.3467283373224428,
					-0.05303362616534658,
					-0.0002321242964964988,
					-0.0002321242964964988,
					-0.0002321242964964988,
					-0.0002321242964964988,
					-0.0002321242964964988,
					-0.0002321242964964988,
					-0.0002321242964964988,
					-0.0002321242964964988,
					-0.0002321242964964988,
					-1.734723475976807e-18,
					0,
					0,
					0,
					0,
					1.0842021724855044e-18,
					0,
					-0.07572987643849216,
					-0.0730858202383261,
					-1.734723475976807e-18,
					0,
					0,
					6.938893903907228e-18,
					6.938893903907228e-18,
					6.938893903907228e-18,
					6.938893903907228e-18,
					6.938893903907228e-18,
					6.938893903907228e-18,
					-0.01002955713961973,
					0,
					0,
					0,
					0,
					0,
					0,
					-0.046698050044981905,
					-0.046698050044981905,
					-0.046698050044981905,
					-0.06877193107545866,
					-0.06877193107545866,
					-0.06877193107545866,
					0.5393418396053665,
					0.5393418396053665,
					-0.09288182607259528,
					4.5102810375396984e-17,
					4.5102810375396984e-17,
					-0.09288182607259532,
					-0.09288182607259532,
					-0.09288182607259532,
					-0.09288182607259532,
					-0.230039102443664,
					-0.230039102443664
				]
			},
			"{\"Offer\": {\"Promotion Possibilities\": \"Fast promotion track\"}}": {
				"N": 100,
				"D": 183,
				"b": -1.1372979213954575,
				"kernelType": "linear",
				"w": [
					0,
					0,
					0,
					0,
					0.03311466038396204,
					-4.119968255444917e-18,
					-0.029251345136055814,
					0.06951599798303015,
					0,
					0.008394340919604098,
					0.0731750393010655,
					0.024138750304023345,
					-0.03439312554076998,
					1.0087775101509202,
					0.581456768392653,
					0.581456768392653,
					-0.12327754456015169,
					-0.03881135483370825,
					-0.03881135483370825,
					-0.03537591783046712,
					0.24087401334854372,
					-0.0027611851346120396,
					0.018793651076983702,
					-0.02205924578925341,
					0.058188084308295945,
					-0.02658829651504034,
					0.12628461368453905,
					-0.0023025582965427553,
					-1.734723475976807e-18,
					-1.734723475976807e-18,
					0.11309095322144128,
					-0.0432000720647722,
					-0.09406607503982811,
					5.204170427930421e-18,
					-0.040941934965834294,
					0.18034103545023267,
					-0.023655555134351552,
					-0.05551116411140372,
					-0.05551116411140372,
					0.04085289686623714,
					0.08384052605035788,
					0.03549616866741487,
					-0.04511185395402411,
					-0.04511185395402411,
					0.046007143338272466,
					-0.010019538036203179,
					-0.010019538036203176,
					-0.010019538036203179,
					-0.010019538036203179,
					-0.01001953803620318,
					-0.01001953803620318,
					-0.010019538036203177,
					-0.010019538036203177,
					-0.01001953803620318,
					-0.009613001017596115,
					-0.01001953803620318,
					0.09734170076745466,
					0.05040986680946204,
					0.06650834193742071,
					0.02639282808266194,
					0.037448214518432235,
					-0.012555115272422736,
					-0.17639033845977672,
					-0.001234503352491076,
					0.06650834193742071,
					-0.0956473986147492,
					0.06650834193742071,
					-0.055006150261650955,
					0.007069461249966866,
					0.06650834193742071,
					0.7446751660379235,
					-0.267441453622337,
					0,
					-0.0110553864357703,
					0.014143463067759987,
					0.10962327095238726,
					-0.009955394202455654,
					-0.009955394202455657,
					-0.00995539420245565,
					-0.009955394202455657,
					-0.05329579976195083,
					0,
					-0.016098475127958672,
					0,
					6.7220534694101275e-18,
					-0.09456516116942275,
					-0.06774284528991179,
					0.06547934298683997,
					-0.056277243283154366,
					0.06547934298683997,
					-0.1250597770014291,
					-0.1250597770014291,
					-0.1380214292924589,
					-0.1042039163827537,
					0.13254031744587272,
					0.0607996774205897,
					0.1878602898968058,
					0.1878602898968058,
					-0.1380214292924589,
					-0.1251784029667601,
					0.024542773225139584,
					4.336808689942018e-19,
					2.5478751053409354e-18,
					-0.14495569282694376,
					-0.7291285067769224,
					-0.989994222823857,
					-0.002992911119600961,
					-0.010399310157379604,
					-0.029251345136055786,
					-0.267441453622337,
					-0.10271685986471607,
					0.01675210904445483,
					2.168404344971009e-19,
					2.168404344971009e-19,
					2.168404344971009e-19,
					0.05120890027833766,
					-0.0129616522910298,
					0.09160374768417234,
					8.61940727125976e-18,
					8.61940727125976e-18,
					8.61940727125976e-18,
					1.0408340855860843e-17,
					0.06012576141931997,
					0,
					0,
					0,
					-0.019732499374684406,
					0,
					6.7220534694101275e-18,
					0,
					-0.01973249937468441,
					-3.469446951953614e-18,
					6.7220534694101275e-18,
					6.7220534694101275e-18,
					6.7220534694101275e-18,
					6.7220534694101275e-18,
					6.7220534694101275e-18,
					6.7220534694101275e-18,
					6.7220534694101275e-18,
					6.7220534694101275e-18,
					6.7220534694101275e-18,
					0.2363449626227568,
					-0.04334040555949517,
					-0.04334040555949517,
					-0.04334040555949517,
					0,
					0,
					0,
					0,
					1.8431436932253575e-17,
					0.279685368182252,
					0,
					0.024542773225139584,
					8.673617379884035e-19,
					8.673617379884035e-19,
					8.673617379884035e-19,
					8.673617379884035e-19,
					8.673617379884035e-19,
					8.673617379884035e-19,
					0,
					4.336808689942018e-19,
					0.06417055256936746,
					0.06417055256936746,
					0,
					0,
					0,
					0,
					0,
					0,
					0,
					0,
					0,
					0,
					0,
					-0.019732499374684406,
					-0.019732499374684406,
					-0.019732499374684406,
					0,
					0,
					0,
					0,
					-2.6020852139652106e-18,
					-2.6020852139652106e-18
				]
			},
			"{\"Offer\": {\"Job Description\": \"Programmer\"}}": {
				"N": 100,
				"D": 183,
				"b": -1.0286723678565353,
				"kernelType": "linear",
				"w": [
					0,
					7.589415207398531e-19,
					7.589415207398531e-19,
					7.589415207398531e-19,
					-0.018907505416336592,
					-2.6020852139652106e-18,
					8.239936510889834e-18,
					-0.03579022211564338,
					0.25429723157186124,
					0.24840443906445514,
					0.1916978159617275,
					1.3047078953100382,
					-0.01615279759663538,
					0.029641754357519146,
					0.008061622206147423,
					0.008061622206147423,
					0.1558943317133713,
					0.11636731769086751,
					0.09207242872896843,
					0.13018423694949738,
					-0.09397529194688832,
					-0.20666329777586467,
					0.03694699734771528,
					0.07226816608005643,
					-0.04816326155826728,
					0.13474540671066448,
					-0.08227231140065873,
					0.15013979913486664,
					0.1880313869303276,
					0.1880313869303276,
					0.007136016332683161,
					0.05746371567916904,
					0.15004448873929702,
					-0.08129974731382966,
					-0.19279462968134792,
					0.23074531107553808,
					0.08584678047334382,
					-0.07276815817507719,
					-0.05291657636423153,
					0.013925454476528775,
					0.19741311959610514,
					-0.08256711536492756,
					-0.06582363903520026,
					-0.06582363903520026,
					0.07728003864088595,
					2.8189256484623115e-18,
					-0.0054800699599397975,
					2.8189256484623115e-18,
					2.8189256484623115e-18,
					0.11444978049845152,
					0,
					0,
					0,
					0,
					-0.1870899566859088,
					0,
					0.03277379385731433,
					0.3055329217050916,
					0.122741931838712,
					-0.3419035047503276,
					-0.1880514761883938,
					0.08110187157949686,
					-0.19113557894641559,
					0.02955628829886514,
					-0.023590352700617757,
					0.34238073280521153,
					-0.023590352700617757,
					-0.1308158353769999,
					0.1592006371657619,
					-0.023590352700617757,
					-0.05228842730122707,
					-0.078050911571916,
					-0.09997809174354678,
					-0.23989072987314836,
					-0.10736908346713382,
					-0.04736796524520159,
					-0.022695027418342895,
					-0.017214957458403093,
					3.2526065174565133e-19,
					3.2526065174565133e-19,
					3.2526065174565133e-19,
					0.00993230844229776,
					0.1761376825253113,
					-0.10611300435515114,
					-0.10611300435515114,
					-0.14266261283577458,
					-0.09318564353984686,
					0.19352829616597883,
					-0.00832635000438603,
					0.21414731563756373,
					-0.11933844972364738,
					-0.03880433156051055,
					0.13414835895873323,
					1.3590762886071477,
					-0.04736796524520159,
					0.1711836254668983,
					0.006686926488422784,
					0.006686926488422784,
					-0.11933844972364738,
					-0.023791942929894165,
					-0.10042456432725687,
					0,
					-0.01658697461880026,
					0.05405489173362436,
					0.0905325332188901,
					0.03017099810138929,
					0.00005664743682626863,
					0.012907062670968703,
					-0.0054800699599398,
					-0.021500324160207477,
					0.015781780033830156,
					-0.17840051392010822,
					-0.017214957458403093,
					0.43631023386427004,
					-0.017214957458403093,
					-0.10735548556747783,
					-0.08053411816313681,
					-0.3413208257384373,
					0.09241857235610697,
					0.09241857235610697,
					0.11999484253016737,
					0,
					-5.204170427930421e-18,
					-0.08328974792338455,
					-0.08328974792338455,
					-0.0054800699599398,
					-0.07753167255997225,
					-0.0054800699599398,
					-0.0054800699599398,
					-0.0054800699599398,
					0.23200876339811072,
					-0.10531835455178516,
					0,
					0,
					0,
					0,
					0,
					0,
					-0.036699005600862866,
					0,
					0,
					-0.11149556033063152,
					0,
					0,
					0,
					-0.036699005600862866,
					0.14633228453932975,
					0.14633228453932975,
					0,
					2.6020852139652106e-18,
					-0.11149556033063152,
					0,
					-0.10042456432725687,
					2.6020852139652106e-18,
					2.6020852139652106e-18,
					2.6020852139652106e-18,
					2.6020852139652106e-18,
					2.6020852139652106e-18,
					2.6020852139652106e-18,
					0,
					0,
					-0.02682136740434102,
					-0.02682136740434102,
					0,
					0,
					0,
					0.4535251913226731,
					0.4535251913226731,
					0.4535251913226731,
					-0.058909719038084916,
					-0.058909719038084916,
					-0.058909719038084916,
					-0.04414647077274475,
					-0.04414647077274475,
					-0.07205160260003245,
					-0.07205160260003245,
					-0.07205160260003245,
					0,
					0,
					0,
					0,
					1.0842021724855044e-17,
					1.0842021724855044e-17
				]
			},
			"{\"Offer\": {\"Salary\": \"12,000 NIS\"}}": {
				"N": 100,
				"D": 183,
				"b": -1.0085372662634933,
				"kernelType": "linear",
				"w": [
					0,
					0,
					0,
					0,
					-0.043927679511609384,
					0,
					-0.008881033787376279,
					0.016246970133082864,
					-0.07684761417616467,
					-0.028514982299122804,
					0.018324302358511783,
					0.08681648680669085,
					-0.02927538032271715,
					0.08300079018766807,
					-0.022727241756265486,
					-0.022727241756265486,
					1.6759044032346861,
					0.0948755069586247,
					0.03980890664939641,
					0.05270783369123324,
					-0.005122671764970029,
					-0.03525895825349989,
					0.0011994962759369677,
					0.15137361639435262,
					-0.04569369051607585,
					-0.039692293968534784,
					-0.049559904024176336,
					0.042110883914060766,
					0,
					0,
					0.002352813409709656,
					-0.054645660928274095,
					0.029966018802385072,
					-0.0019567190153516826,
					0.05392668043590159,
					0.09805633242973091,
					0.1713288815979845,
					-0.0476037677497115,
					0.007462832559516796,
					0.0058024685263300116,
					0.0799868587324317,
					0.028391256896626776,
					-0.005620907885318633,
					-0.005620907885318633,
					0.0535583193858196,
					-0.032021122745217595,
					0.10421987302316421,
					-0.032021122745217595,
					-0.032021122745217595,
					0,
					0,
					-0.037405444241821344,
					-0.037405444241821344,
					0,
					-0.04317882870521139,
					0,
					0.04050153712822399,
					0.00391313931238434,
					0.022688317390785414,
					-0.08200098002398051,
					0.06303085861309099,
					-0.025501685691948196,
					0.012708933265192492,
					0.0014078846536136544,
					9.215718466126788e-19,
					-0.04311408993416964,
					9.215718466126788e-19,
					0.00455075366110188,
					-0.04021494159320721,
					9.215718466126788e-19,
					-0.03278272934786809,
					0.15516237774912167,
					0.060123475007464955,
					0.06314990765826273,
					-0.04198285986439287,
					-0.03855952177425697,
					-0.037405444241821344,
					0,
					-0.0107510136187746,
					0,
					-0.02143976351480613,
					0.0006841669651671422,
					0.0032924721060064513,
					0.08590281773169875,
					0.07515180411292414,
					-0.011451574368520182,
					-0.02128043273717176,
					-0.030065136421642543,
					0.02764926115293989,
					-0.35285792484002176,
					0.11519004095128724,
					-0.012196043672971689,
					-0.06038604675570529,
					0.05701588553850448,
					-0.012196043672971689,
					0.09247228570305695,
					-0.003300540988359024,
					-0.003300540988359024,
					0.0018096042960153783,
					-0.23792171544170543,
					0.12365199556681662,
					0.01725467861111596,
					0.05080186406924007,
					0.008895502684612644,
					-1.734723475976807e-18,
					-0.0014355088159611618,
					0.055388313501691676,
					0.013083740444835429,
					7.047314121155779e-18,
					0.06861441846051548,
					0.19743073267655964,
					0,
					0,
					0,
					0,
					-0.015476540390522004,
					0.01400564796898706,
					0.043946316110163364,
					0.01854260108882402,
					0.01854260108882402,
					-0.0299660188023853,
					0,
					0,
					-0.05605354558188775,
					-0.05605354558188775,
					-3.469446951953614e-18,
					-0.03570597444060922,
					5.7462715141731735e-18,
					-0.010751013618774603,
					-3.469446951953614e-18,
					-0.03570597444060921,
					0,
					-0.0107510136187746,
					-0.0107510136187746,
					-0.0107510136187746,
					-0.0107510136187746,
					-0.0107510136187746,
					-0.0107510136187746,
					-0.011220012884154999,
					-0.0107510136187746,
					-0.0107510136187746,
					0.04291398422010778,
					-0.02143976351480613,
					-0.02143976351480613,
					-0.02143976351480613,
					-0.00046899926538039995,
					0.022688317390785424,
					0.022688317390785414,
					0,
					-0.052615966765774014,
					-0.0028953753195885847,
					0.0870169585539866,
					0,
					3.469446951953614e-18,
					3.469446951953614e-18,
					3.469446951953614e-18,
					3.469446951953614e-18,
					3.469446951953614e-18,
					3.469446951953614e-18,
					-0.055066600309228296,
					0.0672491230545025,
					-0.029482188359509064,
					-0.029482188359509064,
					0,
					0,
					0,
					0,
					0,
					0,
					0.05177950777490059,
					0.05177950777490059,
					0.05177950777490059,
					0,
					0,
					-0.03570597444060921,
					-0.03570597444060921,
					-0.03570597444060921,
					0,
					0,
					0,
					0,
					0,
					0
				]
			},
			"{\"Offer\": {\"Pension Fund\": \"10%\"}}": {
				"N": 100,
				"D": 183,
				"b": -1.2560900725040756,
				"kernelType": "linear",
				"w": [
					0,
					0,
					0,
					0,
					-0.12825684353997796,
					0,
					0.0018315054519583516,
					0.12554547950135087,
					-0.04434607465330826,
					0.29049296369829347,
					0.19175310796301165,
					-0.01967137043976951,
					-0.40631945343764264,
					-0.06422960770665109,
					0.33431245656863756,
					-0.025504876326241883,
					0.13279465154312176,
					-0.24049589518347267,
					-0.10565114310883801,
					-0.025039499319709023,
					0,
					0.014860154136533237,
					0.1414905295493819,
					-0.2510702781892627,
					0.967316530076471,
					0.22675688249657736,
					-0.04543928464592594,
					-0.10836686984929803,
					0.04810262415725828,
					0.04810262415725828,
					-0.14667250564967194,
					0.07269271674497055,
					1.0438342544063008,
					-0.03212763302646774,
					0.36296677643009667,
					0.6716286932417972,
					0.11798231827534887,
					-0.0013260276551991471,
					0.3448210106371117,
					0.08372896567088353,
					0.012507799606088707,
					-0.11985174571129761,
					0.10586923257240204,
					0.10586923257240204,
					-0.711392183103644,
					0,
					-0.16402354063913271,
					-0.02993816045315156,
					0,
					-0.04623329237748082,
					0,
					-0.03734695771364071,
					0,
					0,
					-0.30784659896463407,
					-0.03734695771364071,
					0.0410646195501623,
					-0.037178511428015745,
					-0.013929023727425422,
					0.32478083404033575,
					-0.12872148348033188,
					-0.4523434599368705,
					0.13677590886315688,
					-0.24721338757103506,
					-0.013929023727425409,
					-0.2444429466253882,
					-0.013929023727425409,
					-0.10758835954443416,
					-0.03717851142801573,
					-0.013929023727425409,
					0.37106847135934445,
					-0.2404958951834727,
					-0.263745382884063,
					0.24542900329608086,
					0.16178967179600423,
					-0.1553465089300299,
					-0.14118391401456254,
					-0.21099587428892408,
					-0.21101857758950615,
					-0.1553465089300299,
					-0.1553465089300299,
					0.022805372433761295,
					-0.06206579347961929,
					0,
					-0.05567206865947625,
					0.06823351250801574,
					-0.23328436384360962,
					0.26898493202360546,
					-1.9325179224710458,
					0.0668995704161095,
					0.11773994298453426,
					0.22633684399346138,
					0.09936769387132477,
					-0.03084804213790594,
					0,
					-0.25918472506289586,
					0.3758156222761948,
					0.3758156222761948,
					0.024965018302246886,
					0.030767147635069624,
					0.042953614337255,
					-0.06200777704721775,
					-0.11865574505647024,
					0.5948520579408254,
					-0.09695200358678879,
					0.124425596502733,
					-0.184105106228403,
					0.23895177806470952,
					0.001831505451958344,
					-4.163336342344337e-17,
					-0.2537634105985531,
					-0.14916491715230568,
					-0.05564936535889416,
					-0.05564936535889413,
					-0.05564936535889416,
					-0.09211461986952138,
					-0.01582197632663976,
					0.09277492468228736,
					-0.14279112644877637,
					-0.14279112644877637,
					-0.11832093012404861,
					0,
					-0.7348953644638435,
					-0.11643788812832746,
					-0.11643788812832746,
					0,
					0.10532741253604387,
					0.0018315054519583579,
					-0.05567206865947625,
					0,
					0.16974146570608636,
					0.20708842341972705,
					-0.05567206865947625,
					-0.05567206865947625,
					-0.05567206865947625,
					-0.05567206865947625,
					-0.05567206865947625,
					-0.05567206865947625,
					-0.05567206865947625,
					-0.05567206865947625,
					-0.05567206865947625,
					2.6020852139652106e-18,
					0,
					0,
					0,
					0,
					0.001831505451958344,
					-1.3877787807814457e-17,
					-0.02993816045315156,
					-0.013336526713154117,
					0,
					0,
					0.26898493202360546,
					0.21475897023749863,
					0.21475897023749863,
					0.21475897023749863,
					0.21475897023749863,
					0.21475897023749863,
					0.21475897023749863,
					-0.10565114310883801,
					2.6020852139652106e-18,
					-0.07629264354288162,
					-0.07629264354288162,
					0.10532741253604387,
					0.10532741253604387,
					0.10532741253604387,
					2.5153490401663703e-17,
					2.5153490401663703e-17,
					2.5153490401663703e-17,
					0,
					0,
					0,
					0,
					0,
					-0.03734695771364071,
					0,
					0,
					-0.03734695771364071,
					-0.03734695771364071,
					-0.03734695771364071,
					-0.03734695771364071,
					0,
					0
				]
			},
			"{\"Accept\": \"previous\"}": {
				"N": 100,
				"D": 183,
				"b": -0.5089516504391159,
				"kernelType": "linear",
				"w": [
					0,
					-0.16379151308584522,
					-0.16379151308584522,
					-0.16379151308584522,
					0.6668548258694281,
					-1,
					0.17516854044293062,
					-0.044560387046689055,
					-6.938893903907228e-18,
					-0.37761095671184713,
					0.0028739944571541517,
					-0.578738871018108,
					-0.49008863528377994,
					0.17960141888642395,
					-0.1310664870395199,
					-0.1310664870395199,
					-0.27523990979300117,
					-0.13153124776907926,
					-0.3091708408890904,
					-0.04173184837775346,
					-0.47825637797140313,
					0.3405684507825409,
					0.014797866989080623,
					-0.0914799495261206,
					0.000719413652368657,
					0.722999418845448,
					0.6380960548497425,
					-0.5375521266841229,
					-0.15560777485646635,
					-0.15560777485646635,
					0.6277623171098979,
					-0.3653261352750606,
					-0.4143195963420647,
					0.7819792905708858,
					-0.240457558890037,
					4.640385298237959e-17,
					-0.1558018341864985,
					-0.03519920782004828,
					-0.016313989529079316,
					-0.018885218290968914,
					0.11499972448956518,
					-0.016313989529079302,
					-0.016313989529079302,
					-0.016313989529079302,
					-0.4342956507820267,
					-0.04811297950820173,
					-0.3469774353067915,
					-0.04811297950820173,
					-0.04811297950820173,
					-0.09147994952612062,
					6.938893903907228e-18,
					-0.1309146136233593,
					-0.05118443324762348,
					6.938893903907228e-18,
					-0.6097218844022269,
					-0.07973018037573582,
					0.3932181423351317,
					-0.07789382477942525,
					0,
					1.0408340855860843e-17,
					3.469446951953614e-18,
					0.02610234045233726,
					0.3054683752146618,
					-0.04114302271304324,
					0,
					-0.518279539283157,
					0,
					0.02596527346602953,
					-0.16346526247217846,
					0,
					-0.08180577277183305,
					-0.16735261637441162,
					-0.20942507254850454,
					-0.20942507254850454,
					-0.01888521829096898,
					-0.1619681034042792,
					0.08206264710516492,
					0.26748481023312026,
					-0.1619681034042792,
					-0.1619681034042792,
					-0.2475395410970324,
					-4.336808689942018e-19,
					-0.8468297485109894,
					-0.030144176875249024,
					-0.030144176875249014,
					0.08131972816740399,
					-0.04114302271304324,
					5.204170427930421e-18,
					-0.26570823434637175,
					-2.0057740190981832e-18,
					2.42861286636753e-17,
					2.42861286636753e-17,
					-0.04069112053786872,
					-0.057005110066948105,
					1.0408340855860843e-17,
					-0.09811976230091242,
					2.42861286636753e-17,
					2.42861286636753e-17,
					1.0408340855860843e-17,
					-0.3291012544404682,
					-0.37064550526754564,
					-0.29327988583513587,
					0.7420005242105647,
					1.0842021724855044e-19,
					-0.01631398952907935,
					-1.5612511283791264e-17,
					0,
					-1.3877787807814457e-17,
					0.8416873285637808,
					0,
					-0.0942078143085046,
					3.469446951953614e-18,
					0.42945291363739946,
					0.6189894090766908,
					0.42945291363739946,
					-0.08180577277183305,
					1.3877787807814457e-17,
					2.42861286636753e-17,
					-0.040691120537868726,
					-0.040691120537868726,
					0.07511573307609169,
					0.8420968245696889,
					0,
					-0.168575337705551,
					-0.168575337705551,
					-0.1703144031185565,
					-0.1703144031185565,
					-0.05450754950459605,
					-0.1703144031185565,
					-0.1703144031185565,
					0.3210719584093839,
					0.6330825137130291,
					1.0408340855860843e-17,
					1.0408340855860843e-17,
					1.0408340855860843e-17,
					1.0408340855860843e-17,
					1.0408340855860843e-17,
					1.0408340855860843e-17,
					-0.03582136860533233,
					1.0408340855860843e-17,
					1.0408340855860843e-17,
					-0.2981195813177846,
					-0.0855714376927532,
					-0.0855714376927532,
					-0.0855714376927532,
					-0.03582136860533234,
					0.11580685361396045,
					0,
					-1.734723475976807e-18,
					-0.05433668960136815,
					-0.21254814362503138,
					0,
					0,
					-0.08186986232460221,
					-0.08186986232460221,
					-0.08186986232460221,
					-0.08186986232460221,
					-0.08186986232460221,
					-0.08186986232460221,
					0.11264602947811032,
					0,
					-0.08180577277183307,
					-0.08180577277183307,
					0,
					0,
					0,
					0.18953649543929124,
					0.18953649543929124,
					0.18953649543929124,
					0.14948889811836208,
					0.14948889811836208,
					0.14948889811836208,
					-0.4218168703672007,
					-0.4218168703672007,
					-0.07973018037573582,
					0,
					0,
					-0.07973018037573582,
					-0.07973018037573582,
					-0.07973018037573582,
					-0.07973018037573582,
					0.6008670508656516,
					0.6008670508656516
				]
			},
			"{\"Offer\": {\"Working Hours\": \"9 hours\"}}": {
				"N": 100,
				"D": 183,
				"b": -1.0218879920364734,
				"kernelType": "linear",
				"w": [
					0,
					0,
					0,
					0,
					-0.13499122459466187,
					0,
					-0.059913851020277124,
					0.021406474154070362,
					0,
					-0.17939687469722776,
					0.0379461523448195,
					0.09081711747213156,
					-0.011842380005279787,
					0.050024192108919514,
					0.15714923207840029,
					-0.17327032829898287,
					0.08291043282416027,
					0,
					-0.0016368548674149687,
					0.01984641394278916,
					0,
					0.015328887941841438,
					-0.09114800559650243,
					-0.09553666533939617,
					-0.3438803824100317,
					-0.10127200244257696,
					0.09542870094199456,
					-0.056694730765265794,
					0,
					0,
					-0.021049314935676747,
					0.06380045595630181,
					0.011838381236918792,
					-0.05444858842048973,
					0.0007802079391421271,
					1.6707342543073946,
					0.0005235464456202947,
					0.04410252796456082,
					0.04410252796456082,
					-0.15350128056765236,
					0.10784828070420799,
					0.11244633433538945,
					0.04410252796456082,
					0.04410252796456082,
					0.21513595905981844,
					-0.003190532729767472,
					-0.012757021067961513,
					-0.003190532729767471,
					-0.003190532729767472,
					-0.003190532729767473,
					-0.003190532729767473,
					-0.005841958035354483,
					-0.003190532729767472,
					-0.003190532729767473,
					-0.0036528004437952183,
					-0.005841958035354483,
					-0.0032270523435859403,
					0,
					0,
					-0.04966472114348178,
					2.710505431213761e-19,
					-0.013485590800640278,
					-0.009860017618220385,
					0,
					0,
					-0.050709976720269764,
					0,
					0.0010539325570713607,
					-0.005735337103180791,
					0,
					0.12829979611939152,
					-0.02189656429718108,
					0,
					-0.04966472114348178,
					1.734723475976807e-18,
					-0.004197598155096662,
					-0.0026926545030542233,
					0,
					0,
					0,
					-0.005735337103180791,
					-0.024407183946956318,
					1.1926223897340549e-18,
					-0.030623840194633323,
					-0.030623840194633323,
					0.04898161395831035,
					0,
					-0.06361410395215346,
					-0.01441417005591739,
					-0.004197598155096662,
					-0.016234144834057357,
					-0.004197598155096662,
					-0.01726215043917641,
					0.08084744178316211,
					-0.004197598155096662,
					-0.1496847167633116,
					-0.10611347241197655,
					-0.10611347241197655,
					-0.004197598155096662,
					0,
					-0.009566488338194044,
					0,
					-0.03862906942912114,
					0.12834444238964646,
					-0.08165799978023433,
					0.05062322601210306,
					5.421010862427522e-19,
					0,
					-0.034527843690714495,
					-0.009860017618220387,
					-0.044974639617088974,
					-0.09553666533939617,
					0,
					2.47198095326695e-17,
					0,
					-0.03253040827830362,
					0,
					0,
					-0.013064552284079748,
					-0.013064552284079748,
					-0.013064552284079751,
					2.168404344971009e-19,
					-0.11798039979649168,
					0.06384168515376902,
					0.06384168515376902,
					0,
					0.01618865431269066,
					0,
					0,
					0,
					0.011941603337155916,
					0,
					0,
					0,
					0,
					0,
					0,
					0,
					0,
					0,
					0,
					-0.005735337103180791,
					-0.005735337103180791,
					-0.005735337103180791,
					-0.005735337103180791,
					0,
					0,
					0,
					9.215718466126788e-19,
					0,
					0,
					-0.012036546678960694,
					0,
					0,
					0,
					0,
					0,
					0,
					0,
					1.734723475976807e-18,
					0,
					-0.03253040827830362,
					-0.03253040827830362,
					-0.000041229197467214124,
					-0.000041229197467214124,
					-0.000041229197467214124,
					2.47198095326695e-17,
					2.47198095326695e-17,
					2.47198095326695e-17,
					0,
					0,
					0,
					-0.0016368548674149705,
					-0.0016368548674149705,
					0.013578458204570862,
					0.01622988351015787,
					0.01622988351015787,
					-0.0026514253055870103,
					-0.0026514253055870103,
					-0.0026514253055870103,
					-0.0026514253055870103,
					0,
					0
				]
			},
			"{\"Offer\": {\"Leased Car\": \"With leased car\"}}": {
				"N": 100,
				"D": 183,
				"b": -1.441447568563243,
				"kernelType": "linear",
				"w": [
					0,
					0,
					0,
					0,
					0.16009890579529856,
					0,
					0,
					-0.1597267267243322,
					-0.04039272379609838,
					-0.10427061741746657,
					-0.11418852143398855,
					0.39882363412290056,
					0.2618207233638063,
					-0.09262910950783947,
					0.06624447157095689,
					0.06624447157095689,
					0.1574687330602749,
					0.06605970940712565,
					1.3010426069826053e-17,
					-0.044088337372130915,
					0,
					0.11193485277867982,
					-0.28018275307553536,
					-0.09820289059790975,
					0.2656348598693654,
					-0.18145378779410593,
					-0.290414652823138,
					0.11183546212284123,
					-0.031235816787076834,
					-0.031235816787076834,
					0.01794982594276512,
					-0.05448916095378019,
					0.09613661207598448,
					-0.15491403626264685,
					-0.051626441932286965,
					0.26993817057878383,
					0.1286005131729118,
					0.04661582588638244,
					-0.019443883520743156,
					0.45399565210894194,
					0.6308960930669992,
					-0.03540753452224542,
					-0.03540753452224542,
					-0.03540753452224542,
					0.1758127086938788,
					-3.903127820947816e-18,
					-1.691355389077387e-17,
					-3.903127820947816e-18,
					-3.903127820947816e-18,
					0.2642253190783508,
					0,
					0,
					0,
					0,
					-0.18923635926010549,
					0,
					0.20024520428517656,
					-0.04464640170565788,
					-0.026784218437302568,
					0.07001105286535153,
					0.07754915742550761,
					0.2548781503312901,
					-0.19009787915566334,
					-0.026784218437302568,
					-0.004392394166157053,
					-0.022254577434512417,
					-0.004392394166157053,
					-0.07923592912806714,
					-0.022254577434512368,
					-0.004392394166157053,
					-0.13412185834497117,
					0.06605970940712565,
					0.06605970940712565,
					0.06605970940712565,
					0.08116184051306996,
					-0.12269268703667283,
					-1.6479873021779667e-17,
					-3.469446951953614e-18,
					-0.0075381045601560686,
					0,
					0,
					0.11188967477439409,
					-0.17277621953100217,
					0,
					-0.0075381045601560686,
					-1.9840363489984978,
					0,
					-0.18448142143310087,
					0.0002472123518292568,
					0.03330827669970603,
					-0.32870390840447433,
					-0.20464309771318615,
					0.07701927105540649,
					0.329975657084646,
					-0.4271685560057682,
					0.41494115869830106,
					-0.028141699560330274,
					-0.028141699560330274,
					-0.02422803943537899,
					-0.005521495536927329,
					-0.0008615198955578431,
					0,
					1.3010426069826053e-17,
					0.5199645501195361,
					0.22252545829258197,
					0.070469981131186,
					1.734723475976807e-18,
					0.01596365100150221,
					-1.3010426069826053e-17,
					0,
					-3.4531839193663316e-17,
					-0.35489010511610447,
					-3.469446951953614e-18,
					-3.469446951953614e-18,
					-3.469446951953614e-18,
					0.18041505827780716,
					0.18041505827780716,
					-0.24354865446822513,
					-0.14687431089179093,
					-0.14687431089179093,
					-0.0228135002005027,
					0,
					0,
					0,
					0,
					-1.3010426069826053e-17,
					-0.017304118934828368,
					-1.3010426069826053e-17,
					-0.007538104560156082,
					-1.3010426069826053e-17,
					-0.033821190552716617,
					-0.016517071617888263,
					-0.0075381045601560686,
					-0.0075381045601560686,
					-0.0075381045601560686,
					-0.0075381045601560686,
					-0.0075381045601560686,
					-0.0075381045601560686,
					-0.007538104560156073,
					-0.0075381045601560686,
					-0.0075381045601560686,
					0,
					0,
					0,
					0,
					-4.336808689942018e-18,
					-0.022391824271145513,
					-0.022391824271145513,
					0,
					0,
					0,
					0,
					-0.0008615198955578431,
					0,
					0,
					0,
					0,
					0,
					0,
					1.3010426069826053e-17,
					0,
					0,
					0,
					0,
					0,
					0,
					0,
					0,
					0,
					-0.14876459127950525,
					-0.14876459127950525,
					-0.14876459127950525,
					0,
					0,
					-0.017304118934828354,
					-0.017304118934828354,
					-0.017304118934828354,
					0,
					0,
					0,
					0,
					0,
					0
				]
			},
			"{\"Insist\": \"previous\"}": {
				"N": 100,
				"D": 183,
				"b": -0.6818455588950836,
				"kernelType": "linear",
				"w": [
					0,
					-0.1060765904318764,
					-0.1060765904318764,
					-0.1060765904318764,
					-0.3690340808324895,
					-7.806255641895632e-18,
					-0.13924797773761985,
					0.0972410753393847,
					1.734723475976807e-18,
					1.734723475976807e-18,
					-0.1519581856559119,
					-0.08111440690376874,
					-0.16272693483903714,
					-0.05297762860028655,
					-0.05125645344976435,
					-0.05125645344976435,
					-0.37603734219674534,
					0,
					-0.1940326647164066,
					-0.14732567112141232,
					0,
					0.42372315905018904,
					-0.14413319952475434,
					-0.025699777693264633,
					-0.4788221460044237,
					-0.01746533912062485,
					-0.24622027295499588,
					0.3174338529035812,
					0,
					0,
					-0.04947044464156193,
					-0.05504170400328658,
					-0.18169280419829878,
					-0.11012725494320587,
					0.1606677048995075,
					-0.13263734302216204,
					-0.06693578376218678,
					0,
					0,
					0,
					-0.029861804058391533,
					0,
					0,
					0,
					-0.2364171666428801,
					0.32726439206865526,
					0.45272587091470845,
					0.574474288335391,
					0.32726439206865526,
					0,
					0,
					0.4333553332344446,
					0.2936709080152132,
					0,
					-0.2115546082566903,
					0.1396844252192314,
					-0.04947044464156193,
					-0.1025246419387667,
					0,
					-0.08111440690376874,
					-0.051208817513234195,
					-0.19686628015744,
					-0.023131410185520132,
					0,
					0,
					0.02841187360346993,
					0,
					0.05448457650395209,
					-0.1025246419387667,
					0,
					2.4936649967166602e-18,
					-0.01918651427114704,
					-0.021410235034997956,
					-0.0513158244255325,
					0,
					-0.01957173965875366,
					0.4048417223629612,
					-0.12335156327947172,
					-0.019571739658753664,
					-0.019571739658753664,
					-0.019571739658753664,
					0,
					0.2756217698702057,
					-3.469446951953614e-18,
					-3.469446951953614e-18,
					-0.19686628015744,
					0,
					3.469446951953614e-18,
					3.469446951953614e-18,
					3.469446951953614e-18,
					3.469446951953614e-18,
					3.469446951953614e-18,
					3.469446951953614e-18,
					3.469446951953614e-18,
					3.469446951953614e-18,
					2.4936649967166602e-18,
					3.469446951953614e-18,
					3.469446951953614e-18,
					3.469446951953614e-18,
					-0.017484966805419687,
					-0.2777553373611935,
					-0.025719405378059466,
					-0.2777553373611935,
					0,
					0,
					0,
					0,
					0,
					-0.02972169723038117,
					-0.0017211751505221888,
					-0.021410235034997956,
					0,
					-0.10377982362071805,
					-0.11730440089771099,
					-0.10377982362071805,
					-9.75781955236954e-19,
					0,
					0,
					0,
					0,
					5.204170427930421e-18,
					0,
					0,
					-0.04035337590403629,
					-0.04035337590403629,
					0.10952628050723867,
					0.0025539852898626425,
					0.10952628050723867,
					0.10952628050723867,
					0.10952628050723867,
					-0.16015678389229387,
					0,
					0,
					0,
					0,
					0,
					0,
					0,
					-0.01746533912062485,
					0,
					0,
					-0.025699777693264633,
					0,
					0,
					0,
					-0.01746533912062485,
					5.204170427930421e-18,
					0,
					0.24720989626673578,
					0.7798721015687514,
					0,
					0,
					0,
					0,
					0,
					0,
					0,
					0,
					0,
					0,
					-0.025699777693264633,
					-9.75781955236954e-19,
					-9.75781955236954e-19,
					-0.014688328099250294,
					-0.014688328099250294,
					-0.014688328099250294,
					-0.01352457727699294,
					-0.01352457727699294,
					-0.01352457727699294,
					-0.04947044464156193,
					-0.04947044464156193,
					-0.04947044464156193,
					-0.1940326647164066,
					-0.1940326647164066,
					0.04740045810110567,
					-0.09228396711812574,
					-0.09228396711812574,
					0.1396844252192314,
					0.1396844252192314,
					0.1396844252192314,
					0.1396844252192314,
					0,
					0
				]
			},
			"{\"Offer\": {\"Working Hours\": \"10 hours\"}}": {
				"N": 100,
				"D": 183,
				"b": -1.2509662854504464,
				"kernelType": "linear",
				"w": [
					0,
					0,
					0,
					0,
					0.1994434672999107,
					0,
					0,
					-0.16273820224327384,
					0,
					0.15143506549391567,
					0.06932318274977288,
					-0.300745533381565,
					0.07102376607826594,
					0.09553262623845094,
					-0.09583600195653448,
					0.149371481245434,
					0.01743607223589891,
					-0.037715268425734264,
					0.11429002386351254,
					0.17986575961389775,
					-0.10783510582983091,
					-0.13428464647892785,
					0.0587955346299296,
					0.04156741307201832,
					0.8408498538994306,
					0.0264888572414958,
					-0.1618088396959569,
					0.027019042631089816,
					-3.469446951953614e-18,
					-3.469446951953614e-18,
					0.07308612473683426,
					0.06522840439908095,
					-0.4088886440549072,
					-2.2768245622195593e-18,
					-0.5489945433708119,
					-1.4885821901355718,
					-0.06274170877430758,
					0.07555722099959761,
					-0.0764480712896492,
					0.16581062167126376,
					-0.009732121924141635,
					0.015300675997429774,
					-0.07687739016519635,
					-0.07687739016519635,
					1.3458195471673464,
					0,
					-0.003950083881580871,
					0,
					0,
					-2.7647155398380363e-18,
					0,
					0,
					0,
					0,
					0.04799598590064322,
					0,
					0.15774304383128007,
					0.061270961548761084,
					0.10702935768148406,
					0.06387388909326645,
					0.008514088903778557,
					0.10702935768148406,
					-0.17077690414993435,
					0.25624742817018265,
					0.008514088903778562,
					0.02725870940203738,
					0.008514088903778562,
					-0.019184942071316324,
					0.03920174420645923,
					0.008514088903778562,
					-0.29499595865394385,
					-1.734723475976807e-18,
					-9.540979117872439e-18,
					0.11439317197032872,
					-0.07216889354811454,
					0.12267435472812366,
					0.3132455815860445,
					0.31719566546762534,
					0.23874962902900382,
					0.29778300080984466,
					0.3742290522452483,
					0.2522367152695104,
					-0.04970848001430384,
					0,
					-0.05903337178084084,
					-0.09364839116459824,
					0.1492180704886986,
					-0.7862060142632856,
					0.2671906656970353,
					-0.24880869429015157,
					-0.0571346550104615,
					-0.1607751783674996,
					-0.1607751783674996,
					-0.054341878540045574,
					-0.175108646081721,
					0.2785498849795729,
					0.0932582494694549,
					0.0932582494694549,
					0.006319453683361564,
					-0.06302478981827589,
					-0.22460350471290844,
					3.469446951953614e-17,
					-0.0362679551832544,
					-0.05061382506795689,
					0.07778757640804448,
					0.09595959145501035,
					0,
					0.0004293188755471321,
					-0.003950083881580866,
					-1.734723475976807e-18,
					-1.22514845490862e-17,
					0.13831605327859342,
					0.019412664657780694,
					0.0194126646577807,
					0.019412664657780694,
					0.04018641466321506,
					0.04018641466321504,
					0.05323902564315862,
					0.04018641466321504,
					0.04018641466321504,
					0,
					6.938893903907228e-18,
					0.06846033936034386,
					0.04209856984558532,
					0.04209856984558532,
					-0.003950083881580871,
					-0.00395008388158087,
					-0.003950083881580871,
					-0.06298345566242171,
					-0.003950083881580871,
					-0.0599969488057873,
					-0.059996948805787306,
					-0.05903337178084084,
					-0.05903337178084084,
					-0.05903337178084084,
					-0.05903337178084084,
					-0.05903337178084084,
					-0.05903337178084084,
					-0.05903337178084084,
					-0.05903337178084084,
					-0.05903337178084084,
					0.006326214031306988,
					0.07644605143540363,
					0.07644605143540363,
					0.07644605143540363,
					0,
					0.0985152687777055,
					0.0985152687777055,
					0,
					0,
					-0.07011983740409665,
					0,
					-0.22460350471290846,
					-0.09831526996188825,
					-0.09831526996188825,
					-0.09831526996188825,
					-0.09831526996188825,
					-0.09831526996188825,
					-0.09831526996188825,
					0.1520052922892468,
					6.938893903907228e-18,
					1.9081958235744878e-17,
					1.9081958235744878e-17,
					6.505213034913027e-19,
					6.505213034913027e-19,
					6.505213034913027e-19,
					6.938893903907228e-18,
					6.938893903907228e-18,
					6.938893903907228e-18,
					-0.009042907961418364,
					-0.009042907961418364,
					-0.009042907961418364,
					0,
					0,
					0,
					0,
					0,
					0,
					0,
					0,
					0,
					0,
					0
				]
			},
			"{\"Offer\": {\"Job Description\": \"Team Manager\"}}": {
				"N": 100,
				"D": 183,
				"b": -1.5260003095355594,
				"kernelType": "linear",
				"w": [
					0,
					0,
					0,
					0,
					-0.03571951910664296,
					0,
					-0.010532211402194725,
					-0.03675552153511539,
					0,
					0.12287746150334589,
					0.03060269887073118,
					-0.3566607641610361,
					0.05106770065262537,
					-0.02903009429675994,
					0.0567457386251297,
					0.0567457386251297,
					0.24639367325196015,
					0.1471475931618208,
					-0.09182729509422168,
					-0.030222535337221128,
					1.0842021724855044e-18,
					0.15525312957273615,
					-0.028444448758646507,
					0.14843367929853274,
					0.12827697963478274,
					-0.22287695847873118,
					0.17241233208588055,
					-0.036944071076562356,
					0,
					0,
					-0.0736941396776841,
					-0.10405844800807,
					0.051945595500434795,
					-2.439454888092385e-19,
					0.31110764550068293,
					-0.04822921076331385,
					0.0359952757866002,
					0.023201342600652014,
					-0.03211895546694712,
					0.006791034049790479,
					0.1623156469508043,
					0.14919992027159482,
					-0.0213709075066897,
					-0.0213709075066897,
					0.0575259638871929,
					-0.012682036187862353,
					-0.012682036187862353,
					-0.012682036187862353,
					-0.012682036187862353,
					-0.012682036187862348,
					-0.012682036187862353,
					-0.012682036187862353,
					-0.012682036187862353,
					-0.012682036187862353,
					0.03320905494043931,
					-0.012682036187862353,
					0.05505977541561718,
					0.07922045967272581,
					0.006228097275330205,
					0.6816354446168138,
					0.5481114854200867,
					0.17721695324849304,
					0.2549038627763124,
					0.006228097275330205,
					0.055932405851344645,
					-0.23214478091539076,
					0.055932405851344645,
					-0.0534617310915048,
					0.12892476824874025,
					0.055932405851344645,
					-0.056641228104409864,
					0.09353031829211288,
					0.5003683185174796,
					0.5473108766070027,
					0.009422670511585449,
					0.11306319008292522,
					-0.04525816603792933,
					-0.015521394799435298,
					0.0832417142098316,
					-0.003339686897372377,
					-0.003339686897372377,
					-0.04696365141764836,
					-0.2802283629582632,
					0,
					0.08658140110720398,
					0.07678679750700365,
					0,
					-0.035149579595756264,
					-0.07832700847649213,
					-0.035149579595756264,
					-0.13949688545012734,
					-0.08229982641079846,
					0.1164028769802976,
					-0.5453390777328773,
					-0.08229982641079846,
					0.17921441798641746,
					-0.08229982641079846,
					-0.08229982641079846,
					0.05920581794096873,
					5.204170427930421e-18,
					-0.035149579595756264,
					-0.05973630323546636,
					-0.09182729509422168,
					5.204170427930421e-18,
					-0.007848823808472198,
					0.09664860996506378,
					-0.08814701370736426,
					-0.010748047960257419,
					-0.010532211402194725,
					-0.05361727486970792,
					0.3453719015471866,
					0.12158858142679513,
					-0.01218170790206292,
					-0.01218170790206292,
					-0.01218170790206292,
					0.11123183680681112,
					0.14150564435176718,
					-0.08229982641079846,
					-0.05719705903932887,
					-0.05719705903932887,
					-0.010532211402194725,
					0,
					-0.07462779155455972,
					0,
					0,
					0,
					-0.03645063261255133,
					-0.010532211402194725,
					0.08658140110720398,
					0,
					-0.017246072776252026,
					0,
					0.08658140110720398,
					0.08658140110720398,
					0.08658140110720398,
					0.08658140110720398,
					0.08658140110720398,
					0.08658140110720398,
					0.08658140110720398,
					0.08658140110720398,
					0.08658140110720398,
					-0.05973630323546636,
					0,
					0,
					0,
					5.204170427930421e-18,
					-0.06023651997820917,
					-0.04970430857601444,
					0,
					1.734723475976807e-18,
					0,
					0,
					-0.035149579595756264,
					0,
					0,
					0,
					0,
					0,
					0,
					-0.09182729509422168,
					-0.05973630323546636,
					-0.03027380754495606,
					-0.03027380754495606,
					-0.019204559836299307,
					-0.019204559836299307,
					-0.019204559836299307,
					0,
					0,
					0,
					0,
					0,
					0,
					0,
					0,
					-0.017246072776252026,
					-0.017246072776252026,
					-0.017246072776252026,
					0,
					0,
					0,
					0,
					0,
					0
				]
			},
			"{\"Insist\": \"Working Hours\"}": {
				"N": 100,
				"D": 183,
				"b": -1.259370610767809,
				"kernelType": "linear",
				"w": [
					0,
					0,
					0,
					0,
					0.1581003227952808,
					0,
					-0.04325519508877278,
					-0.0732358183578112,
					0,
					-0.002256587751376822,
					0.12144726471704614,
					-0.03836029687383505,
					-0.006623303944364144,
					-0.002221511750107025,
					-0.03968837343968262,
					-0.03968837343968262,
					-0.02784782400107418,
					-0.00003507600126979697,
					-0.00003507600126979697,
					-0.005745334977167708,
					-0.037501937690845394,
					-0.11519992415117222,
					-0.05169629390643149,
					0.0891950478840707,
					0.14693952499099586,
					0,
					-0.005710258975897907,
					0.21470958904406579,
					0,
					0,
					-0.043685497880091954,
					-0.009707383416307249,
					-0.05118696581477772,
					-0.0133189951587424,
					0.11243108577681318,
					0,
					-0.002221511750107032,
					-0.002221511750107025,
					-0.002221511750107025,
					0.08700861213523348,
					-0.03660392721340258,
					-0.002221511750107025,
					-0.002221511750107025,
					-0.002221511750107025,
					-0.060060134539828156,
					8.673617379884035e-19,
					4.336808689942018e-19,
					8.673617379884035e-19,
					8.673617379884035e-19,
					8.673617379884035e-19,
					8.673617379884035e-19,
					8.673617379884035e-19,
					8.673617379884035e-19,
					8.673617379884035e-19,
					0.05353924164040415,
					8.673617379884035e-19,
					-0.002221511750107024,
					-0.06613796887236963,
					0,
					0.04650311081851814,
					-0.03526988053331326,
					-0.034382415463295554,
					0.018162180796763353,
					-0.003997124440409337,
					0,
					-0.03832522087256525,
					0,
					-0.005710258975897911,
					-0.06613796887236963,
					0,
					0,
					0,
					-0.027812747999804373,
					-0.03526988053331349,
					0,
					0.2568846385455588,
					0.16288127052009058,
					0.21184672458476128,
					0.35051655462515646,
					0.26128643073981594,
					0.26128643073981594,
					0,
					-0.03832522087256525,
					0,
					0.0892301238853405,
					-0.02998062326903844,
					-0.003997124440409337,
					0,
					-0.0015171586133174541,
					-0.002221511750107025,
					-6.938893903907228e-18,
					0,
					-0.004401792194257119,
					-0.002221511750107025,
					0,
					-0.004401792194257119,
					0,
					0,
					-0.004401792194257126,
					0,
					-4.336808689942018e-19,
					0,
					-4.336808689942018e-19,
					0,
					0,
					0,
					0,
					0,
					-0.04325519508877278,
					0,
					-0.027812747999804373,
					0,
					-0.049439706155054663,
					-0.049439706155054663,
					-0.049439706155054663,
					-0.004401792194257126,
					-0.004401792194257126,
					0,
					-6.938893903907228e-18,
					-6.938893903907228e-18,
					-0.04325519508877278,
					0,
					0,
					0,
					0,
					0,
					-0.005710258975897911,
					-0.04325519508877278,
					0.0892301238853405,
					0,
					0,
					0,
					0.0892301238853405,
					0.0892301238853405,
					0.0892301238853405,
					0.0892301238853405,
					0.0892301238853405,
					0.0892301238853405,
					0.0892301238853405,
					0.0892301238853405,
					0.0892301238853405,
					-0.037466861689575595,
					0,
					0,
					0,
					0,
					-0.04325519508877278,
					0,
					0,
					-1.734723475976807e-18,
					-0.037466861689575595,
					0,
					0,
					3.903127820947816e-18,
					3.903127820947816e-18,
					3.903127820947816e-18,
					3.903127820947816e-18,
					3.903127820947816e-18,
					3.903127820947816e-18,
					0,
					0,
					0,
					0,
					-0.005710258975897911,
					-0.005710258975897911,
					-0.005710258975897911,
					0,
					0,
					0,
					0,
					0,
					0,
					0,
					0,
					0,
					0,
					0,
					0,
					0,
					0,
					0,
					0,
					0
				]
			},
			"{\"Reject\": \"Job Description\"}": {
				"N": 100,
				"D": 183,
				"b": -1.1099981924648123,
				"kernelType": "linear",
				"w": [
					0,
					0,
					0,
					0,
					0.0629756518402435,
					0,
					-0.02950114324777149,
					-0.02950114324777149,
					-0.008851402312451321,
					-0.19273694774467787,
					0.16134815496356575,
					0.3314950693596612,
					-0.10519655788156423,
					-0.00885140231245132,
					-0.03384835509352608,
					-0.03384835509352608,
					0.14183093401941343,
					0,
					0,
					0.0070382375908479185,
					-0.004058093504855412,
					-0.36614806821699863,
					-0.18388554543222654,
					1.734723475976807e-18,
					-0.03193949282279916,
					-0.078267534738482,
					-0.02950114324777149,
					0.1393658579571061,
					0,
					0,
					-0.0956478986413013,
					0,
					-0.08534452202253309,
					0.19146338461727883,
					-0.15276655049327614,
					0,
					-0.01932815425314923,
					-0.013322270397963897,
					-0.013322270397963897,
					1.734723475976807e-18,
					-0.1096674259670768,
					-0.013322270397963897,
					-0.013322270397963897,
					-0.013322270397963897,
					-0.11020702756128116,
					0,
					-0.029495972291495975,
					-9.540979117872439e-18,
					0,
					0,
					0,
					0,
					0,
					0,
					-0.09296111090078854,
					0,
					-0.0076165888782554515,
					0.14342395146196152,
					-0.0076165888782554515,
					0.2775732795304024,
					0.28769182746274813,
					-0.018617222424835267,
					-0.23811107251580924,
					-0.0076165888782554515,
					-0.0076165888782554515,
					0.28991164010439724,
					-0.0076165888782554515,
					-0.12870236630619733,
					0.06515641672347952,
					-0.0076165888782554515,
					-0.0076165888782554515,
					8.673617379884035e-19,
					-0.1451499616150207,
					0.15104054034021697,
					0,
					-0.011000633546579819,
					-0.029495972291495975,
					0,
					1.734723475976807e-18,
					0,
					-0.078267534738482,
					0,
					0.487659057528792,
					-0.006005883855185332,
					-0.006005883855185331,
					-0.013322270397963895,
					0,
					0,
					0,
					0,
					0,
					0,
					-0.011000633546579819,
					-0.013322270397963897,
					0,
					-0.024322903944543714,
					0,
					0,
					-0.011000633546579819,
					0,
					0,
					0,
					-1.0842021724855044e-18,
					0,
					-0.013322270397963897,
					-1.6263032587282567e-19,
					0,
					0,
					-0.02949597229149598,
					8.673617379884035e-19,
					0.1478368178745988,
					0,
					0,
					0,
					0,
					-0.011000633546579819,
					-0.011000633546579819,
					0,
					0,
					0,
					0,
					0,
					0,
					0,
					0,
					-0.029495972291495975,
					-0.029495972291495975,
					-0.029495972291495975,
					-0.029495972291495975,
					-0.029495972291495975,
					0,
					0,
					1.734723475976807e-18,
					1.734723475976807e-18,
					1.734723475976807e-18,
					1.734723475976807e-18,
					1.734723475976807e-18,
					1.734723475976807e-18,
					1.734723475976807e-18,
					1.734723475976807e-18,
					1.734723475976807e-18,
					-0.0823256282433374,
					-0.078267534738482,
					-0.078267534738482,
					-0.078267534738482,
					0,
					0,
					0,
					-9.540979117872439e-18,
					0,
					-0.004058093504855412,
					0,
					0,
					0,
					0,
					0,
					0,
					0,
					0,
					0,
					0,
					0,
					0,
					0,
					0,
					0,
					0,
					0,
					0,
					0,
					0,
					0,
					0,
					0,
					0,
					0,
					0,
					0,
					0,
					0,
					0,
					0,
					0
				]
			},
			"{\"Offer\": {\"Pension Fund\": \"0%\"}}": {
				"N": 100,
				"D": 183,
				"b": -1.689733392162464,
				"kernelType": "linear",
				"w": [
					0,
					0,
					0,
					0,
					0.2714684134672847,
					0,
					-0.04497270372631134,
					0.15957469209812608,
					-1.734723475976807e-18,
					-0.2647135207546101,
					-0.589745366455594,
					-0.05391496122675002,
					0.3930855517499686,
					0.1117749731780984,
					-0.014213192565613597,
					-0.014213192565613597,
					0.10349757533100032,
					0,
					0,
					-0.046073536584096214,
					-9.540979117872439e-18,
					0.31339189811405166,
					-0.26529620831733186,
					0.3941577507375172,
					-0.10943851213539371,
					-0.06477231310875065,
					-0.1490402568595124,
					0.36310525666290216,
					-0.06477231310875065,
					-0.06477231310875065,
					-0.18718865883474073,
					-0.11084584969284686,
					0.7707947724907751,
					-0.1957255083283737,
					-0.10910603986669234,
					-0.30699841515045945,
					0.2670137268901146,
					-0.08556614549318856,
					-0.08556614549318856,
					-0.06131073693997976,
					-0.3695629201627956,
					0.2887007497145361,
					-0.06131073693997975,
					-0.06131073693997975,
					-0.15342635083421508,
					-0.0630325032825961,
					-0.0630325032825961,
					-0.0630325032825961,
					-0.0630325032825961,
					0.3311252474549211,
					-0.0630325032825961,
					-0.0630325032825961,
					-0.0630325032825961,
					-0.0630325032825961,
					0.25576154395127915,
					-0.0630325032825961,
					0.09194381390765857,
					-0.024838096115930578,
					-0.024838096115930578,
					-0.13692883362461586,
					0,
					0.3718653173929309,
					-0.2412374693493033,
					-0.024838096115930578,
					0,
					0,
					0,
					-0.02123544046816564,
					0,
					0,
					3.2526065174565133e-18,
					-0.020673864904998982,
					0,
					-0.13692883362461586,
					-0.024255408553208815,
					0,
					-0.021235440468165646,
					0,
					-9.324138683375338e-18,
					0,
					0,
					1.0408340855860843e-17,
					-0.1957255083283737,
					0,
					-9.324138683375338e-18,
					-0.08673694044336044,
					0,
					-0.1791473752614215,
					-0.39303359587961173,
					-0.06131073693997977,
					-2.710505431213761e-20,
					-2.710505431213761e-20,
					-0.1638896786374837,
					0.20291320300843366,
					0,
					0.4188682726335763,
					-2.439454888092385e-19,
					-2.439454888092385e-19,
					-2.710505431213761e-20,
					0,
					0,
					-2.6020852139652106e-18,
					6.938893903907228e-18,
					-0.009733197024095192,
					-0.009733197024095195,
					-0.13692883362461586,
					1.214306433183765e-17,
					-0.024255408553208815,
					-6.938893903907228e-18,
					-0.020673864904998982,
					0,
					0,
					0,
					0,
					0,
					0,
					0,
					0,
					-0.1638896786374837,
					-0.1638896786374837,
					-0.1638896786374837,
					8.673617379884035e-19,
					0.7939387354295911,
					0,
					0,
					0,
					-0.02123544046816564,
					-6.938893903907228e-18,
					-9.324138683375338e-18,
					0,
					-0.04915178298568387,
					-0.04915178298568387,
					-9.324138683375338e-18,
					-9.324138683375338e-18,
					-9.324138683375338e-18,
					-9.324138683375338e-18,
					-9.324138683375338e-18,
					-9.324138683375338e-18,
					-9.324138683375338e-18,
					-9.324138683375338e-18,
					-9.324138683375338e-18,
					-2.6020852139652106e-18,
					0,
					0,
					0,
					0,
					-0.024838096115930585,
					-0.024838096115930578,
					0,
					0,
					0,
					0,
					0,
					0,
					0,
					0,
					0,
					0,
					0,
					0,
					-2.6020852139652106e-18,
					0,
					0,
					-0.02123544046816564,
					-0.02123544046816564,
					-0.02123544046816564,
					0,
					0,
					0,
					-0.17787069660728275,
					-0.17787069660728275,
					-0.17787069660728275,
					0,
					0,
					0,
					0,
					0,
					0,
					0,
					0,
					0,
					-0.04497270372631133,
					-0.04497270372631133
				]
			},
			"{\"Offer\": {\"Pension Fund\": \"20%\"}}": {
				"N": 100,
				"D": 183,
				"b": -1.0005242886561803,
				"kernelType": "linear",
				"w": [
					0,
					0,
					0,
					0,
					0.0004953102121556972,
					0,
					2.425902360936316e-18,
					0.0000492626084591685,
					-0.000029176627657393975,
					0.0011626317647510653,
					-0.0009528922392247896,
					-0.00013854907390269664,
					-0.0007091584267951536,
					-0.00007358837032256371,
					0.00005206082900240561,
					0.0014835569601865013,
					-0.0004082615969882386,
					-0.00042400247082864315,
					-0.00042400247082864315,
					-0.0005588155179043845,
					0.0007980736309874474,
					-0.00030625144137625977,
					0.0013129070197530623,
					-0.00009090205739948915,
					-0.0025999583877244214,
					0.0004932057360439184,
					-0.000029090602024273323,
					0.00016783354672615918,
					0,
					0,
					-0.0004318457565814617,
					-0.0003307662313651277,
					0.0025648686603177316,
					-0.0004953690052292749,
					-0.00004915766638181418,
					0.00021739506505185513,
					-0.0005467154001918663,
					-0.000023076242358088805,
					-0.000023076242358088805,
					0.0009314871637009503,
					0.0006070995609617285,
					-0.0013114775734042183,
					-0.00001709230148450036,
					-0.00001709230148450036,
					0.0015821348324327467,
					0,
					-0.000049157666381815726,
					0,
					0,
					-0.000517485182815536,
					0,
					0,
					0,
					0,
					-0.0005505035030087846,
					0,
					0.00011425237591371467,
					0,
					0,
					0.0000025737370869848898,
					0.00035737986020078415,
					-0.00032339265526395956,
					-0.0006913221895186604,
					0,
					0,
					2.924635360279648e-17,
					0,
					-0.0003307662313650985,
					-4.607859233063394e-19,
					0,
					0.00001254079391107177,
					2.168404344971009e-19,
					0,
					-0.00035480612311379926,
					-0.00020193712516275244,
					0.0008959024219901246,
					1.5449880957918438e-18,
					2.168404344971009e-19,
					0,
					0,
					-4.607859233063394e-19,
					-0.0002499277335469669,
					-0.0004953690052292757,
					0,
					0,
					-0.00144784345488392,
					0,
					0.00019344619839390556,
					1.9972694672113998,
					0.001615505836156217,
					-0.00009099349492272275,
					-0.00009099349492272275,
					-0.00035925165240717336,
					-0.0000859484601627436,
					0.0008959024219901118,
					0.0008946164576185615,
					0.000198268390058709,
					0.000198268390058709,
					-0.0000909934949227099,
					-0.00048094167968569133,
					-0.00024511085067120176,
					0,
					-0.000049157666381815685,
					-0.00036473943801845765,
					0.0002256748752690644,
					0.00016811724423648918,
					0.000636196116789657,
					-0.0000059839408733664,
					1.599198204416119e-18,
					0,
					2.970713952610282e-17,
					0.00085058559624469,
					2.168404344971009e-19,
					2.168404344971009e-19,
					2.168404344971009e-19,
					-0.00029294731479148276,
					1.2847795743953228e-17,
					0.000895902421990112,
					-0.00026825815748446346,
					-0.00026825815748446346,
					-0.00026825815748446216,
					0,
					-0.0009249404287486508,
					-0.0001348130470757417,
					-0.0001348130470757417,
					0,
					0,
					1.328147661294743e-18,
					0,
					0,
					0,
					0,
					0,
					0,
					0,
					0,
					0,
					0,
					2.168404344971009e-19,
					0,
					0,
					-0.0002806837140913889,
					-4.607859233063394e-19,
					-4.607859233063394e-19,
					-4.607859233063394e-19,
					2.168404344971009e-19,
					1.328147661294743e-18,
					0,
					0,
					0,
					-0.00028068371409138845,
					0,
					-0.00019595318428938604,
					-4.662069341687669e-18,
					-4.662069341687669e-18,
					-4.662069341687669e-18,
					-4.662069341687669e-18,
					-4.662069341687669e-18,
					-4.662069341687669e-18,
					0,
					0,
					-0.0002929473147914956,
					-0.0002929473147914956,
					0,
					0,
					0,
					0,
					0,
					0,
					0,
					0,
					0,
					0,
					0,
					0,
					0,
					0,
					0,
					0,
					0,
					0,
					0,
					0
				]
			},
			"{\"Offer\": {\"Leased Car\": \"Without leased car\"}}": {
				"N": 100,
				"D": 183,
				"b": -1.8295192273065861,
				"kernelType": "linear",
				"w": [
					0,
					2.168404344971009e-18,
					2.168404344971009e-18,
					2.168404344971009e-18,
					-0.23769755786313546,
					3.469446951953614e-18,
					4.85722573273506e-17,
					0.09848380859467187,
					0,
					0.15837218665050395,
					0.6190388494763128,
					-0.19424915023693146,
					-0.04946355250269088,
					0.032983623496037624,
					0.04304062565918448,
					0.04304062565918448,
					0.03735981241373976,
					-0.05963957793071783,
					0.06078508354866886,
					-0.02405067140855946,
					-0.02405067140855944,
					-0.09325419813962821,
					0.2891576044610997,
					0.2981767820291329,
					-0.08275951523466785,
					0.19757202724995437,
					0.17149842014329653,
					-0.11845037516613871,
					6.938893903907228e-18,
					6.938893903907228e-18,
					0.05059339770434373,
					2.42861286636753e-17,
					-0.5098513093607321,
					0,
					1.8973538018496328e-19,
					-0.08053013559050198,
					0.139064816474944,
					-0.04543079311141557,
					-0.09467764154648545,
					-0.3220191895928545,
					0.8712490314380237,
					0.28696191680922484,
					-0.04903858459023208,
					-0.04903858459023208,
					0.1334818690066662,
					0,
					0,
					0,
					0,
					0,
					0,
					0,
					0,
					0,
					-0.1094311975981056,
					0,
					-0.14063227490595115,
					0,
					0,
					0.07990471832999912,
					0.03423672376223186,
					-0.19984990002361167,
					0.0848357549572283,
					0,
					0,
					-2.6454533008646308e-17,
					0,
					-9.107298248878237e-18,
					-2.2985086056692694e-17,
					0,
					0.229463309835685,
					-0.03558890652215839,
					-0.03558890652215839,
					0.010079088045608885,
					0.0036077914788165306,
					0.3259537229275574,
					1.8973538018496328e-19,
					1.8973538018496328e-19,
					0,
					0,
					-2.2985086056692694e-17,
					-0.04955745433218367,
					0,
					0,
					0,
					1.9996517756116394,
					0,
					0.25529868457934013,
					0.000488902669071787,
					0.037870835218361536,
					0.16568349598199789,
					0.16568349598199789,
					0.07526479355649182,
					-0.0825691505195141,
					0.4163724253530635,
					-0.253083092485621,
					0.09391450723685682,
					0.09391450723685682,
					0.07526479355649182,
					0.03978349743428302,
					1.734723475976807e-17,
					0,
					0.08483575495722828,
					-0.4375980448884441,
					-0.2506889293710656,
					0.031282621698527247,
					0,
					-0.045639056956253365,
					4.5102810375396984e-17,
					0,
					-3.469446951953614e-18,
					0.3222274534376923,
					1.8973538018496328e-19,
					-1.1953328951652686e-17,
					1.8973538018496328e-19,
					-0.0904187024255061,
					-0.09041870242550606,
					0.25709793158948296,
					0,
					0,
					0,
					0,
					3.469446951953614e-18,
					0,
					0,
					0,
					0,
					0,
					0,
					0,
					-1.214306433183765e-17,
					0,
					0,
					0,
					0,
					0,
					0,
					0,
					0,
					0,
					0,
					-2.3852447794681098e-17,
					-2.2985086056692694e-17,
					-2.2985086056692694e-17,
					-2.2985086056692694e-17,
					0,
					0,
					0,
					0,
					0,
					-8.673617379884035e-19,
					0,
					1.734723475976807e-17,
					0,
					0,
					0,
					0,
					0,
					0,
					0.0848357549572283,
					0,
					-4.206704429243757e-17,
					-4.206704429243757e-17,
					0,
					0,
					0,
					-1.214306433183765e-17,
					-1.214306433183765e-17,
					-1.214306433183765e-17,
					0,
					0,
					0,
					0,
					0,
					0,
					0,
					0,
					0,
					0,
					0,
					0,
					0,
					0
				]
			},
			"{\"Offer\": {\"Working Hours\": \"8 hours\"}}": {
				"N": 100,
				"D": 183,
				"b": -1.3066750364951918,
				"kernelType": "linear",
				"w": [
					0,
					0,
					0,
					0,
					-0.03796266373860464,
					0,
					-6.505213034913027e-19,
					0.14376898309799316,
					-0.031345706439156386,
					0.10221659039057793,
					-0.02690105764107005,
					0.1531539262138032,
					0.17017791298484616,
					-0.005574444745911765,
					-0.02726892272011122,
					-0.02726892272011122,
					-0.07734946676680327,
					6.938893903907228e-18,
					1.3877787807814457e-17,
					-0.09915311266447502,
					1.3877787807814457e-17,
					0.12580909383649,
					0.09954586780376203,
					-0.06949155876497685,
					-0.36808764056548104,
					-0.028579273448548954,
					-0.028612858222659632,
					0.01736050772611361,
					-0.02499665351565918,
					-0.02499665351565918,
					0.0372889426250099,
					0.08524941060351851,
					0.13568146571443074,
					-0.027131109123283398,
					-0.00833176307440823,
					-0.08434189798796832,
					0.0625468837933763,
					-0.15615035714470893,
					-0.1561503571447089,
					-0.10472553452230558,
					0.032989143929542886,
					-0.10472553452230557,
					-0.10472553452230557,
					-0.10472553452230557,
					0.23265905129709064,
					0,
					-1.734723475976807e-18,
					1.734723475976807e-18,
					0,
					-0.06949155876497687,
					0,
					-8.239936510889834e-18,
					-1.734723475976807e-18,
					0,
					-0.10316634023788013,
					-6.5052130349130266e-18,
					-0.17421709328728247,
					-0.004715558367407783,
					-0.004715558367407782,
					4.336808689942018e-19,
					0,
					-0.07603523111459673,
					0.16384064827686218,
					-0.004715558367407782,
					0,
					-0.010095656309098935,
					0,
					0.10951768822307897,
					-0.003582619932889775,
					0,
					-0.0033213322801824985,
					-0.001861314330616732,
					-8.673617379884035e-18,
					-8.239936510889834e-18,
					0.14426249314515002,
					0.11013600629900788,
					-8.890457814381136e-18,
					0,
					0,
					0,
					-0.0035826199328897737,
					0,
					-0.027131109123283394,
					0,
					0,
					0.10180733738714075,
					0,
					0.859361872035324,
					0.14798495751182034,
					0.3449533085831757,
					0.10827469196839118,
					0.11013600629900788,
					0.11013600629900788,
					0.09312561182581118,
					0.11013600629900788,
					-0.061888344010543606,
					-0.0033213322801824985,
					-0.0033213322801824985,
					0.11013600629900788,
					-0.018373145694017122,
					0.19568731576755335,
					4.87890977618477e-18,
					4.87890977618477e-18,
					-0.11345733857919037,
					0,
					-0.018373145694017125,
					0,
					-0.05142482262240333,
					-6.505213034913027e-19,
					2.168404344971009e-19,
					-1.734723475976807e-18,
					0,
					0,
					0,
					0,
					0,
					0,
					-0.25731285961811035,
					-8.673617379884035e-19,
					-8.673617379884035e-19,
					-1.5178830414797062e-18,
					0,
					0,
					-0.08072569328096788,
					-0.08072569328096788,
					0,
					-0.0036162047070004456,
					-6.505213034913027e-19,
					0,
					0,
					-0.003616204707000452,
					0,
					0,
					0,
					0,
					0,
					0,
					0,
					0,
					0,
					0,
					-0.0035826199328897737,
					-0.0035826199328897737,
					-0.0035826199328897737,
					-0.0035826199328897737,
					0,
					-0.004715558367407783,
					-0.004715558367407782,
					1.734723475976807e-18,
					0,
					0,
					-0.0018613143306167254,
					0.19568731576755335,
					0,
					0,
					0,
					0,
					0,
					0,
					0,
					0,
					0,
					0,
					0,
					0,
					0,
					0,
					0,
					0,
					-1.3010426069826053e-18,
					-1.3010426069826053e-18,
					-1.3010426069826053e-18,
					0,
					0,
					-0.003616204707000452,
					-0.0036162047070004456,
					-0.0036162047070004456,
					-6.5052130349130266e-18,
					-6.5052130349130266e-18,
					-6.5052130349130266e-18,
					-6.5052130349130266e-18,
					0,
					0
				]
			},
			"{\"Offer\": {\"Salary\": \"20,000 NIS\"}}": {
				"N": 100,
				"D": 183,
				"b": -1.305702799606562,
				"kernelType": "linear",
				"w": [
					0,
					0,
					0,
					0,
					0.11672174989110184,
					0,
					0,
					-0.1851669883035052,
					-0.033700225045640325,
					-0.0919744132380168,
					0.24272302274096513,
					-0.11752728130330631,
					-0.09700539673708763,
					-0.08652711346275055,
					0.24426556842428881,
					0.24426556842428881,
					-0.8302445596011397,
					0,
					0,
					-0.07066140791350875,
					0.27207347210752597,
					-0.01721904797116524,
					0.04815551797531448,
					-0.0007558980155777714,
					-0.006419104473541104,
					-0.08268692435034876,
					-0.14662376820200307,
					0.28959278117309795,
					-0.050672345308649204,
					-0.050672345308649204,
					0.13546474277733345,
					0.07384650849867103,
					-0.08473148579959233,
					0,
					-0.09794682926685233,
					-0.007393257271001274,
					0.08568452773186708,
					-0.05827418819237651,
					-0.05827418819237651,
					0.04739961995973674,
					-0.006289300453591426,
					0.04815551797531448,
					0.04815551797531448,
					0.04815551797531448,
					0.043590550732324325,
					0,
					0,
					0,
					0,
					-2.168404344971009e-19,
					0,
					0,
					0,
					0,
					-0.06746766371455191,
					0,
					-0.08644273378984857,
					-0.0397869607791264,
					-0.03864682887180918,
					-0.04054285879470418,
					-0.03864682887180918,
					-0.06671176569897413,
					0.1085582410671105,
					-0.0620889430189864,
					-0.03864682887180918,
					-0.07180153982082596,
					-0.03864682887180918,
					-0.018651862852365177,
					-0.07180153982082596,
					-0.03864682887180918,
					0.04140299569414076,
					0,
					0,
					-0.00114013190731722,
					0.041531261786806425,
					-0.032214728270236886,
					-0.035101988232288155,
					-0.035101988232288155,
					-0.035857886247865935,
					-0.035101988232288155,
					-0.06711656727398771,
					0,
					-0.001140131907317222,
					0,
					-0.0007558980155777781,
					-0.0007008770634847755,
					-0.023442114147177222,
					0.15084822791654873,
					0.0005886981307857697,
					1.170319761455195,
					0.002887259962051265,
					0.002887259962051265,
					0.002887259962051265,
					0.08568452773186708,
					0.002887259962051265,
					-0.026379881601741137,
					0.14395871592424353,
					0.14395871592424353,
					0.002887259962051265,
					-0.10642970616769103,
					0.14796096795449745,
					8.673617379884035e-19,
					8.673617379884035e-19,
					0.14107145596219225,
					-2.949029909160572e-17,
					-0.10642970616769103,
					0,
					-0.10642970616769103,
					-3.469446951953614e-18,
					0,
					-6.938893903907228e-18,
					6.938893903907228e-18,
					0,
					0,
					0,
					-0.06390889135829357,
					0,
					0,
					0,
					0,
					0,
					0,
					0,
					0,
					0,
					0,
					6.938893903907228e-18,
					0,
					-0.0007558980155777781,
					0,
					1.214306433183765e-17,
					5.204170427930421e-18,
					-0.0007558980155777781,
					-0.0007558980155777781,
					-0.0007558980155777781,
					-0.0007558980155777781,
					-0.0007558980155777781,
					-0.0007558980155777781,
					-0.0007558980155777781,
					-0.0007558980155777781,
					-0.0007558980155777781,
					0.36380481331889053,
					-0.03201457904169956,
					-0.03201457904169956,
					-0.03201457904169956,
					0,
					0,
					0,
					0,
					0,
					0.3958193923605901,
					0,
					0.14796096795449745,
					0,
					0,
					0,
					0,
					0,
					0,
					0,
					0,
					-0.06390889135829357,
					-0.06390889135829357,
					0,
					0,
					0,
					0,
					0,
					0,
					0,
					0,
					0,
					0,
					0,
					6.938893903907228e-18,
					6.938893903907228e-18,
					6.938893903907228e-18,
					0,
					0,
					0,
					0,
					0,
					0
				]
			},
			"{\"Offer\": {\"Salary\": \"7,000 NIS\"}}": {
				"N": 100,
				"D": 183,
				"b": -1.0214161461413196,
				"kernelType": "linear",
				"w": [
					0,
					-2.6020852139652106e-18,
					-2.6020852139652106e-18,
					-2.6020852139652106e-18,
					-0.0321424102870859,
					1.734723475976807e-18,
					-0.049534880844975364,
					0.03407537099741947,
					-0.010824082114564038,
					0.07388789066167262,
					0.052245925288139136,
					-0.015757312794779557,
					0.16765759663954047,
					-0.23178968093656804,
					-0.007220521409010252,
					-0.007220521409010252,
					-0.4108778855248566,
					0,
					-0.01727143854765114,
					-0.009496551182647372,
					0,
					-0.05690250351861332,
					-0.012159962468152727,
					-0.02592116365266474,
					-0.09431150121442805,
					0.09491222947806367,
					-0.0651901495490925,
					-0.027168719281824974,
					0,
					0,
					0.04579856885505209,
					-0.016708734693317934,
					-0.03723195852976906,
					-0.06238627153813165,
					0.11594482796653681,
					-0.004563320502431854,
					0.1800160513635792,
					0.06744053422858551,
					0.08471197277623665,
					-0.029431401015803868,
					-0.026971470222767573,
					-0.012159962468152728,
					-0.012159962468152728,
					-0.012159962468152728,
					-0.04881730859740262,
					0,
					-0.12778617022324212,
					-0.012462345689137205,
					0,
					0,
					0,
					-0.013261683401994536,
					1.3552527156068805e-19,
					0,
					-1.734723475976807e-18,
					-0.013261683401994536,
					-0.012159962468152728,
					0,
					0,
					-0.013303592380670191,
					-0.013303592380670191,
					-0.06303994068825988,
					-0.08947902154606713,
					-0.016708734693317934,
					0,
					-0.004933230680215518,
					0,
					-0.004933230680215518,
					-0.004933230680215518,
					0,
					-0.07022686861993298,
					0.17205304315669517,
					0,
					0,
					0.07960049669673822,
					-0.06600756659122978,
					-0.013261683401994535,
					1.734723475976807e-18,
					0,
					0,
					-0.004933230680215518,
					0,
					-0.012462345689137205,
					0,
					0,
					0.06207760228736482,
					-0.016708734693317934,
					-0.052703974210559584,
					-0.06486393667871232,
					-0.052703974210559584,
					0.08145277922125815,
					0.0946162261293013,
					0.031576285441041414,
					-0.028609893192662543,
					-0.052703974210559584,
					0.002459930793036271,
					0.0946162261293013,
					0.0946162261293013,
					-0.07917101349927291,
					1.062177866553463,
					0.29718091876727154,
					0.39904592533784894,
					0.14707506817454374,
					1.0408340855860843e-17,
					1.0408340855860843e-17,
					0.2947960281474908,
					-0.01215996246815273,
					0.09687193524438936,
					-0.06062682904666065,
					0,
					0,
					0,
					1.734723475976807e-18,
					1.734723475976807e-18,
					1.734723475976807e-18,
					0.10333026664177414,
					0.12085316105114753,
					0.14732020033986087,
					0.08442040512422803,
					0.08442040512422803,
					-0.049736348307589696,
					0,
					0,
					0,
					0,
					0,
					-0.004563320502431854,
					0,
					0,
					0,
					-0.017825003904426387,
					1.734723475976807e-18,
					0,
					0,
					0,
					0,
					0,
					0,
					0.17205304315669517,
					0,
					0,
					-0.03085439433288026,
					-0.004933230680215518,
					-0.004933230680215518,
					-0.004933230680215518,
					0.17205304315669517,
					0,
					0,
					-0.012462345689137205,
					-0.010445436311240387,
					0,
					0,
					-2.168404344971009e-19,
					0,
					0,
					0,
					0,
					0,
					0,
					-0.01727143854765114,
					-0.02592116365266474,
					-0.01752289440937339,
					-0.01752289440937339,
					0,
					0,
					0,
					0,
					0,
					0,
					0,
					0,
					0,
					0,
					0,
					-0.01782500390442639,
					-0.004563320502431854,
					-0.004563320502431854,
					-0.013261683401994536,
					-0.013261683401994536,
					-0.013261683401994536,
					-0.013261683401994536,
					-0.049534880844975364,
					-0.049534880844975364
				]
			},
			"{\"Offer\": {\"Promotion Possibilities\": \"Slow promotion track\"}}": {
				"N": 100,
				"D": 183,
				"b": -1.2861818969473457,
				"kernelType": "linear",
				"w": [
					0,
					0,
					0,
					0,
					-0.02403218109425883,
					0,
					0,
					-0.18286458761510765,
					0,
					-0.06748322363269944,
					0.03007795681989932,
					-0.041823292011741675,
					0.05133108344855727,
					-0.9258725934875887,
					0.2297263966605915,
					0.051900490934803895,
					0.07162443676882127,
					0,
					-0.0035855057462484603,
					4.336808689942018e-18,
					-3.2526065174565133e-18,
					-0.05962536836352574,
					-0.03241845806185974,
					-0.023621404555417558,
					0.13535117712460412,
					-0.00852545471696636,
					-0.12959793458794383,
					-0.056039862617277295,
					0,
					0,
					-0.015330840938090826,
					-1.951563910473908e-18,
					0.19643004169127262,
					-0.012286845902416466,
					-0.00994133506560549,
					-0.0390860241884704,
					0.12496212759057804,
					0.02649245107365086,
					0.03007795681989932,
					-0.017802076351784067,
					0.12440896459725614,
					-0.07866881180998184,
					0.06514272239073904,
					0.06514272239073904,
					0.09743426778888942,
					0,
					0,
					0,
					0,
					-0.02362140455541755,
					0,
					0,
					0,
					0,
					-0.012286845902416473,
					0,
					-0.03783797516095315,
					0,
					0,
					0.014988944467668526,
					-0.0476217884029287,
					-0.07218029129161344,
					-0.024339776573560262,
					-1.951563910473908e-18,
					0,
					0.07935929299627464,
					0,
					0.060858568336475655,
					4.336808689942018e-18,
					0,
					-0.645461342866934,
					-0.018558754451870024,
					0,
					0.06261073287059724,
					-0.03865027131708817,
					-0.16519345791769152,
					0,
					0,
					-6.938893903907228e-18,
					0,
					4.336808689942018e-18,
					0,
					-0.012286845902416466,
					-2.168404344971009e-19,
					-7.15573433840433e-18,
					0.07784869227428944,
					-1.951563910473908e-18,
					-0.05632566932621548,
					0.0787394590521586,
					-0.03812378186989135,
					0.14118019619276603,
					0.2225638681187658,
					0.15038357682715237,
					0.2220050485461813,
					-0.1175716695147628,
					0.10580926846372493,
					-0.1757278706454616,
					-0.1757278706454616,
					0.11205913244963636,
					0.07296074803184895,
					0,
					0,
					-0.012052930671143786,
					0.12102027141728244,
					0.7282692377657284,
					1.0727910952493858,
					0.003371100850609279,
					-0.03506476557083971,
					0,
					0,
					0.07935929299627464,
					-1.3010426069826053e-18,
					0,
					0,
					0,
					-0.11050473566912947,
					-0.11050473566912947,
					-0.07944788764487146,
					-0.0874414501548855,
					-0.0874414501548855,
					-0.03449983795429022,
					0,
					-0.11910827174500406,
					0,
					0,
					0,
					0,
					0,
					-6.938893903907228e-18,
					0,
					-1.0842021724855044e-19,
					-1.0842021724855044e-19,
					-6.938893903907228e-18,
					-6.938893903907228e-18,
					-6.938893903907228e-18,
					-6.938893903907228e-18,
					-6.938893903907228e-18,
					-6.938893903907228e-18,
					-0.00005802979207104246,
					-6.938893903907228e-18,
					-6.938893903907228e-18,
					8.673617379884035e-19,
					4.336808689942018e-18,
					4.336808689942018e-18,
					4.336808689942018e-18,
					-0.00005802979207103552,
					0,
					0,
					0,
					0,
					-3.469446951953614e-18,
					-0.01850072465979899,
					0,
					0,
					0,
					0,
					0,
					0,
					0,
					-0.0035855057462484603,
					0,
					0,
					0,
					0,
					0,
					0,
					0,
					0,
					0,
					0,
					0,
					0,
					0,
					0,
					0,
					0,
					0,
					0,
					0,
					0,
					0,
					0,
					0
				]
			},
			"{\"Offer\": {\"Leased Car\": \"No agreement\"}}": {
				"N": 100,
				"D": 183,
				"b": -1.1915459654742022,
				"kernelType": "linear",
				"w": [
					0,
					0,
					0,
					0,
					-0.0025458390025910635,
					0,
					0,
					0,
					0,
					0,
					-0.010997763086341353,
					0,
					-0.08657671469778372,
					-8.673617379884035e-19,
					-0.10039690102146734,
					-0.10039690102146734,
					0.09963023057953711,
					0,
					0,
					4.336808689942018e-19,
					0,
					-0.010579254219318828,
					-0.00803341521672777,
					0,
					0.13693480125605745,
					0,
					0,
					-0.0025458390025910617,
					0,
					0,
					-0.013543602088932412,
					-0.010997763086341353,
					-0.07691895590971809,
					0,
					0.055619239712143824,
					-8.673617379884035e-19,
					0.13282075258091075,
					0,
					0,
					0,
					-0.15378309371787746,
					-8.673617379884035e-19,
					0,
					0,
					0.05777167002568627,
					0,
					0,
					0,
					0,
					0,
					0,
					0,
					0,
					0,
					0,
					0,
					-0.0025458390025910617,
					0,
					0,
					-0.05338619269641011,
					-0.05338619269641011,
					-0.13030514860612818,
					4.336808689942018e-19,
					-0.010997763086341353,
					0,
					0,
					0,
					-0.03319052200137362,
					0,
					0,
					-0.060018346521214,
					-0.03319052200137362,
					0,
					0,
					0,
					-0.11340453921762411,
					-0.00803341521672777,
					-0.00803341521672777,
					0,
					0,
					0,
					0,
					0,
					-0.01976677112721652,
					-0.01976677112721652,
					-8.673617379884035e-19,
					-0.010997763086341353,
					0,
					-0.060018346521214,
					-3.469446951953614e-18,
					0.2777440130872492,
					0.05540427135643719,
					-0.07490087724969101,
					-0.11729751040997143,
					-0.060018346521214,
					-0.15378309371787746,
					0.05540427135643719,
					0.05540427135643719,
					0.10174717001430823,
					0.15128845916274625,
					-0.004512713215158294,
					-0.004512713215158294,
					-0.004512713215158294,
					-0.040378554500253336,
					-0.040378554500253336,
					0,
					0,
					0,
					0,
					0,
					0,
					0,
					-0.00803341521672777,
					-0.00803341521672777,
					-0.00803341521672777,
					0.3579452434136801,
					0.3579452434136801,
					0.09578282585669053,
					0.3344124802003721,
					0.3344124802003721,
					-0.07691895590971809,
					-1.734723475976807e-18,
					0,
					4.336808689942018e-19,
					4.336808689942018e-19,
					0,
					0,
					0,
					0,
					0,
					3.469446951953614e-18,
					3.469446951953614e-18,
					0,
					0,
					0,
					0,
					0,
					0,
					0,
					0,
					0,
					0,
					0,
					0,
					0,
					0,
					0,
					0,
					0,
					0,
					0,
					-0.03319052200137362,
					0,
					2.6020852139652106e-18,
					2.6020852139652106e-18,
					2.6020852139652106e-18,
					2.6020852139652106e-18,
					2.6020852139652106e-18,
					2.6020852139652106e-18,
					0,
					0,
					0,
					0,
					0,
					0,
					0,
					0,
					0,
					0,
					-0.0025458390025910617,
					-0.0025458390025910617,
					-0.0025458390025910617,
					0,
					0,
					0,
					0,
					0,
					0,
					0,
					0,
					0,
					0,
					0
				]
			},
			"{\"Offer\": {\"Job Description\": \"QA\"}}": {
				"N": 100,
				"D": 183,
				"b": -1.3937569632018878,
				"kernelType": "linear",
				"w": [
					0,
					0,
					0,
					0,
					-0.01826929848324279,
					0,
					4.553649124439119e-18,
					3.686287386450715e-18,
					0,
					2.8189256484623115e-18,
					-0.018337510957972963,
					-0.019319202464315417,
					-0.03438622000475257,
					-0.019319202464315413,
					0.015609728391842975,
					0.015609728391842975,
					0.15439924432409594,
					3.686287386450715e-18,
					2.168404344971009e-19,
					-0.00006821247473016728,
					2.168404344971009e-19,
					-0.0000682124747301637,
					-3.144186300207963e-18,
					6.7220534694101275e-18,
					0.26698992890753553,
					0,
					3.469446951953614e-18,
					-0.018337510957972956,
					0,
					0,
					1.734723475976807e-18,
					-4.336808689942018e-18,
					-0.019319202464315413,
					0,
					0.12765770212387673,
					0,
					-0.09327148211912428,
					2.6020852139652106e-18,
					-8.673617379884035e-19,
					9.540979117872439e-18,
					0.0006109233261359752,
					0,
					0,
					0,
					-0.12772591459860702,
					0,
					0,
					0,
					0,
					0,
					0,
					0,
					0,
					0,
					-0.00006821247473015795,
					0,
					-0.00006821247473016055,
					-0.00006821247473016402,
					-0.00006821247473016402,
					-0.015135230015167315,
					-0.01513523001516732,
					-0.01513523001516732,
					-0.00006821247473015687,
					-0.00006821247473016489,
					-0.00006821247473016402,
					-0.00006821247473016402,
					-0.00006821247473016402,
					-0.00006821247473016836,
					-0.00006821247473016402,
					-0.00006821247473016402,
					0.17960550224042454,
					2.6020852139652106e-18,
					3.469446951953614e-18,
					3.469446951953614e-18,
					2.6020852139652106e-18,
					0.14633739869147472,
					-0.018269298483242796,
					-0.0182692984832428,
					-0.018269298483242793,
					-0.0182692984832428,
					-0.0182692984832428,
					0,
					0,
					0,
					6.071532165918825e-18,
					0,
					-8.673617379884035e-19,
					-0.26698992890753565,
					0.16035451225083927,
					-0.26698992890753565,
					0.09436525895039555,
					0.22263388440040838,
					0.20756686685997122,
					-0.4116665002918018,
					0.1796737147151547,
					0.0006109233261359752,
					0.22263388440040838,
					0.22263388440040838,
					-0.10833849965956144,
					0.1876367410695198,
					0,
					4.336808689942018e-19,
					0,
					-0.14467657138426615,
					-0.14467657138426615,
					0,
					0,
					-8.673617379884035e-19,
					4.553649124439119e-18,
					0,
					0,
					0,
					1.0842021724855044e-19,
					5.421010862427522e-19,
					1.0842021724855044e-19,
					0.04430109807906982,
					0.04430109807906982,
					0.6343003846922102,
					0.05936811561950697,
					0.05936811561950697,
					4.553649124439119e-18,
					0,
					0,
					-3.469446951953614e-18,
					-3.469446951953614e-18,
					0,
					0,
					4.553649124439119e-18,
					6.071532165918825e-18,
					0,
					4.336808689942018e-19,
					0,
					6.071532165918825e-18,
					6.071532165918825e-18,
					6.071532165918825e-18,
					6.071532165918825e-18,
					6.071532165918825e-18,
					6.071532165918825e-18,
					6.071532165918825e-18,
					6.071532165918825e-18,
					6.071532165918825e-18,
					4.336808689942018e-19,
					0,
					0,
					0,
					0,
					4.553649124439119e-18,
					0,
					0,
					0,
					0,
					-8.673617379884035e-19,
					0,
					1.3010426069826053e-18,
					1.3010426069826053e-18,
					1.3010426069826053e-18,
					1.3010426069826053e-18,
					1.3010426069826053e-18,
					1.3010426069826053e-18,
					0,
					4.336808689942018e-19,
					0,
					0,
					0,
					0,
					0,
					4.336808689942018e-19,
					4.336808689942018e-19,
					4.336808689942018e-19,
					0,
					0,
					0,
					0,
					0,
					0,
					0,
					0,
					0,
					0,
					0,
					0,
					0,
					0
				]
			},
			"{\"Offer\": {\"Pension Fund\": \"No agreement\"}}": {
				"N": 100,
				"D": 183,
				"b": -0.9652690612288543,
				"kernelType": "linear",
				"w": [
					0,
					-0.011256152467444153,
					-0.011256152467444153,
					-0.011256152467444153,
					-0.09936027645810576,
					0,
					-1.734723475976807e-18,
					-0.07348357067835923,
					0,
					0,
					-0.00009017292299088101,
					0,
					-0.02816035431989137,
					3.0357660829594124e-18,
					-0.033212696930106714,
					-0.015556851464523028,
					-0.03451166895556779,
					0,
					0,
					-1.734723475976807e-18,
					-0.02587670577974653,
					-0.07348357067835923,
					0,
					0,
					-0.23102539135344133,
					6.505213034913027e-19,
					-0.011044686125605394,
					-0.07348357067835923,
					0,
					0,
					8.673617379884035e-19,
					0,
					0.13268580879822128,
					-1.734723475976807e-18,
					-0.1860092135435658,
					-0.017655845465583676,
					-0.05006242089137064,
					0,
					0,
					-0.000006099528720199265,
					-0.04380737870740529,
					3.0357660829594124e-18,
					0,
					0,
					-0.06056692974567833,
					-0.008485391797439061,
					-0.008485391797439061,
					-0.008485391797439061,
					-0.008485391797439061,
					0,
					0,
					0,
					0,
					0,
					-0.07348357067835923,
					0,
					0,
					0,
					0,
					-0.0105045088543077,
					-0.0105045088543077,
					0.29936138228053477,
					8.673617379884035e-19,
					0,
					0,
					0,
					0,
					1.214306433183765e-17,
					0,
					0,
					-0.015550751935802833,
					1.1926223897340549e-17,
					0,
					0,
					0,
					-0.026055260790110533,
					0,
					0,
					0,
					0,
					0,
					0,
					0,
					0,
					0,
					-0.07348357067835923,
					0,
					-0.015550751935802833,
					-0.041433557244269566,
					-0.015550751935802833,
					-0.0846780849550709,
					-0.06782836099380699,
					0.305016591965087,
					0.350136764883095,
					-0.015550751935802833,
					-0.026055260790110533,
					-0.06782836099380699,
					-0.06782836099380699,
					-0.042904984751374456,
					-0.05227760905800416,
					0,
					0,
					-0.011044686125605392,
					0,
					0,
					-0.017661944994303878,
					0,
					0,
					-0.01104468612560539,
					0,
					0,
					0,
					0,
					-0.006626811675363255,
					0,
					-0.07963184187357579,
					-0.07963184187357579,
					-0.05227760905800416,
					0.31422212879393363,
					0.31422212879393363,
					0.24961785732764008,
					0,
					-4.336808689942018e-19,
					0,
					0,
					0,
					0,
					0,
					0,
					0,
					-0.006626811675363254,
					8.673617379884035e-19,
					0,
					0,
					0,
					0,
					0,
					0,
					-2.168404344971009e-19,
					0,
					0,
					0,
					0,
					0,
					0,
					-2.168404344971009e-19,
					0,
					0,
					0,
					0,
					0,
					1.214306433183765e-17,
					0,
					0,
					0,
					0,
					0,
					0,
					0,
					0,
					0,
					0,
					0,
					0,
					0,
					0,
					-0.006626811675363255,
					-0.006626811675363255,
					-0.006626811675363255,
					0,
					0,
					0,
					0,
					0,
					0,
					0,
					0,
					0,
					0,
					0,
					0,
					0,
					0
				]
			},
			"{\"Accept\": \"Leased Car\"}": {
				"N": 100,
				"D": 183,
				"b": -1.2975145796682859,
				"kernelType": "linear",
				"w": [
					0,
					0,
					0,
					0,
					0.12891412582156933,
					0,
					-0.022491791357758948,
					-0.07812504948117181,
					0,
					-0.0004603016731300017,
					-0.08867474458523722,
					-0.08298797067214127,
					0.2997954684660083,
					-0.03407733621032679,
					-0.04927093587188473,
					-0.016834800106985192,
					-0.13602472162901705,
					0,
					0,
					-0.043722742762908495,
					-0.02669966221285924,
					-0.10416691541700517,
					0,
					-0.04399711427742428,
					-0.12553762977564745,
					-0.059940987696243266,
					0,
					-0.11687290850417875,
					0,
					0,
					-0.036656301989799515,
					-0.010407493425787291,
					0.22259051192103452,
					0.2801264170172902,
					-0.11186865411944892,
					-0.032436135764899544,
					-0.07199021517020371,
					-0.0004603016731300017,
					-0.0004603016731300017,
					-0.0078011139607547676,
					0.3102484582059497,
					-0.0028977774155046323,
					0,
					0,
					-0.05173060202198438,
					0,
					-0.002390465224265494,
					0,
					0,
					-0.036196000316669516,
					0,
					0,
					0,
					0,
					0.35887770343119013,
					0,
					-0.036196000316669516,
					8.673617379884035e-19,
					0,
					-0.01026078011085441,
					-0.046182408913008136,
					-0.0576326226003825,
					0.3199344148863058,
					0,
					0,
					-0.04611320798717399,
					0,
					-0.012797958650052784,
					8.673617379884035e-19,
					0,
					-6.5052130349130266e-18,
					-0.01770283777647161,
					0,
					8.673617379884035e-19,
					-0.010867795098917292,
					-0.002459666150099642,
					-0.008455391320930523,
					0,
					-0.0078011139607547676,
					0,
					0,
					0,
					0.3757385658550538,
					0,
					-0.0078011139607547676,
					-0.05563325812341286,
					0,
					-0.010407493425787291,
					-0.0297688898054225,
					-0.010407493425787291,
					0,
					0,
					-0.002459666150099642,
					-0.035794214853534186,
					0,
					-0.008886972831297541,
					-6.5052130349130266e-18,
					-6.5052130349130266e-18,
					-0.002459666150099642,
					-0.0004603016731300017,
					-0.010407493425787291,
					0,
					-0.059940987696243266,
					-6.5052130349130266e-18,
					0,
					-0.032896437438029544,
					0,
					-0.0004603016731300017,
					-0.008455391320930523,
					-0.01770283777647161,
					-0.043722742762908495,
					0,
					0,
					0,
					0,
					-0.002459666150099642,
					-0.002459666150099642,
					0,
					0,
					0,
					-0.006064926096665029,
					0,
					-0.0028977774155046323,
					0,
					0,
					-0.002390465224265494,
					-0.002390465224265494,
					-0.008455391320930523,
					-0.010191579185020262,
					-0.002390465224265494,
					0,
					0,
					-0.0078011139607547676,
					-0.0078011139607547676,
					-0.0078011139607547676,
					-0.0078011139607547676,
					-0.0078011139607547676,
					-0.0078011139607547676,
					-0.0078011139607547676,
					-0.0078011139607547676,
					-0.0078011139607547676,
					0,
					0,
					0,
					0,
					0,
					-0.006064926096665029,
					0,
					0,
