{
	"createNewClassifierString": "function () {\n\tvar FeatureExtractor = require('/home/erelsgl/git/machine-learning/demos/../FeatureExtractor');\n\tvar BinaryClassifierSet = require('/home/erelsgl/git/machine-learning/demos/../BinaryClassifierSet');\n\tvar ClassifierWithFeatureExtractor = require('/home/erelsgl/git/machine-learning/demos/../ClassifierWithFeatureExtractor');\n\t\n\tvar baseBinaryClassifierType = require('/home/erelsgl/git/machine-learning/demos/../svmjs').SVM;\n\t//var baseBinaryClassifierType = require('/home/erelsgl/git/machine-learning/demos/../brain').NeuralNetwork;\n\t//var baseBinaryClassifierType = require('/home/erelsgl/git/machine-learning/demos/../classifier/lib/bayesian').Bayesian;\n\t\n\treturn new ClassifierWithFeatureExtractor({\n\t\tclassifierType: BinaryClassifierSet,\n\t\tclassifierOptions: {\n\t\t\t\tbinaryClassifierType: baseBinaryClassifierType,\n\t\t//binaryClassifierType: ClassifierWithFeatureExtractor,\n\t\t//binaryClassifierOptions: {\n\t\t\t\t//classifierType:   baseBinaryClassifierType,\n\t\t\t\tbinaryClassifierOptions: {\n\t\t\t\t\tC: 1.0,\n\t\t\t\t\t//iterations: 10,\n\t\t\t\t\t//log: true\n\t\t\t\t},\n\t\t},\n\t\tfeatureExtractor: FeatureExtractor.CollectionOfExtractors([\n\t\t\t\t\tFeatureExtractor.WordsFromText(1),\n\t\t\t\t\t//FeatureExtractor.WordsFromText(2),\n\t\t\t\t\t//FeatureExtractor.LettersFromText(2), \n\t\t\t\t\t//FeatureExtractor.LettersFromText(4),\n\t\t]),\n\t\tfeatureLookupTable: new FeatureExtractor.FeatureLookupTable(),\n\t});\n}",
	"trainedClassifier": {
		"classifier": {
			"{\"Quit\": true}": {
				"N": 100,
				"D": 183,
				"b": -0.8123981244452992,
				"kernelType": "linear",
				"w": [
					0,
					0.6041327081484331,
					0.6041327081484331,
					0.6041327081484331,
					-0.11777980895534765,
					9.215718466126788e-19,
					-0.023753768391722635,
					-0.048481579296266036,
					0,
					0,
					-0.004798503117045284,
					-0.004798503117045286,
					-0.0586573523455102,
					-0.03420785774425832,
					-0.04736833273246622,
					-0.04736833273246622,
					-0.06131920086133539,
					0,
					-0.024785813871139498,
					-0.026401110451798552,
					-0.01502608143629009,
					-0.05608731540236986,
					-0.0026473420600759134,
					-0.009364855270035194,
					-0.11159890398150432,
					-0.010869148867382265,
					-0.0649579569180399,
					-0.03003051105494914,
					0,
					0,
					0,
					-0.0026473420600759134,
					-0.039639855462182697,
					-0.023753768391722635,
					-0.07621867180196248,
					-0.0026473420600759134,
					-0.04924314872481285,
					0,
					0,
					0,
					-0.013160474988207892,
					0,
					0,
					0,
					-0.07580267159828707,
					-0.039917526386569535,
					-0.06464533729111294,
					-0.04333967791982013,
					-0.039917526386569535,
					0,
					0,
					-0.0247278109045434,
					-0.0247278109045434,
					0,
					2.168404344971009e-18,
					4.336808689942018e-19,
					0,
					-0.004798503117045284,
					0,
					-0.004798503117045286,
					-0.0023532197708479915,
					-0.024613774025892605,
					2.168404344971009e-18,
					0,
					0,
					-0.004798503117045286,
					0,
					-0.016227687793945525,
					-0.004798503117045284,
					0,
					-0.013160474988207896,
					-0.024449494601251877,
					1.734723475976807e-18,
					-0.002445283346197292,
					0,
					4.336808689942018e-19,
					-0.0247278109045434,
					0,
					0,
					0,
					0,
					0,
					-0.008220654650295879,
					-0.038373999857430584,
					-0.038373999857430584,
					-0.013160474988207896,
					0,
					0,
					-0.01502608143629009,
					0,
					-0.013580345733869613,
					0,
					-0.024613774025892605,
					-0.024613774025892605,
					0,
					-0.013160474988207896,
					0,
					0,
					4.336808689942018e-19,
					-0.02321748136144421,
					-0.012348332494061946,
					-0.02171318776409714,
					-0.05355252102037921,
					0,
					0,
					0,
					0,
					0,
					-0.06931207393453569,
					0,
					1.734723475976807e-18,
					0,
					0,
					-0.032544596618919765,
					0,
					-0.013160474988207896,
					4.336808689942018e-19,
					0,
					-0.024613774025892605,
					-0.024613774025892605,
					-0.024613774025892605,
					-0.06984733899379383,
					0,
					-0.0026473420600759134,
					-0.0026473420600759134,
					0,
					0,
					0,
					0,
					0,
					-0.05733041049005926,
					0,
					0,
					0,
					0,
					0,
					0,
					0,
					-0.010869148867382264,
					0,
					0,
					-0.009364855270035194,
					0,
					0,
					0,
					-0.010869148867382264,
					0,
					0,
					-0.0034221515332505947,
					-0.025232007937903856,
					0,
					-0.013580345733869613,
					0,
					-0.012592249876582272,
					-0.012592249876582272,
					-0.012592249876582272,
					-0.012592249876582272,
					-0.012592249876582272,
					-0.012592249876582272,
					0,
					-0.009364855270035194,
					-0.013160474988207896,
					-0.013160474988207896,
					0,
					0,
					0,
					-0.032544596618919765,
					-0.032544596618919765,
					-0.032544596618919765,
					0,
					0,
					0,
					-0.024785813871139498,
					-0.024785813871139498,
					4.336808689942018e-19,
					0,
					0,
					4.336808689942018e-19,
					4.336808689942018e-19,
					4.336808689942018e-19,
					4.336808689942018e-19,
					0,
					0
				]
			},
			"{\"Reject\": \"previous\"}": {
				"N": 100,
				"D": 183,
				"b": -1.1599146342321218,
				"kernelType": "linear",
				"w": [
					0,
					0,
					0,
					0,
					0.27330093854281784,
					1,
					0.36017312857233247,
					0.21693909814436246,
					0,
					-0.06616985088743854,
					-0.13465331311935327,
					-0.06616985088743854,
					-0.22996197005268798,
					-0.003556850168447263,
					-0.003556850168447263,
					-0.003556850168447263,
					-0.14441887431026837,
					-0.06616985088743854,
					0.4630341774328509,
					-0.1710841759322369,
					-0.06616985088743856,
					0.2715570280296039,
					-0.06616985088743856,
					-0.06637297326778029,
					-0.06658516778800752,
					-1.734723475976807e-18,
					-0.11159038680796116,
					-0.05964360270003511,
					0,
					0,
					-0.13520863537663058,
					0,
					-0.20356328703417323,
					-0.13409834763035292,
					0.021147289158723256,
					0,
					-0.06882658996896479,
					-0.010077620803154781,
					0,
					-0.010280743183496522,
					-0.0691386495812045,
					0,
					0,
					0,
					-0.013634470971602048,
					0.09440705048092288,
					-0.04778543088458534,
					0.018674806001880123,
					0.09440705048092288,
					0.3018313647354657,
					0.3018313647354657,
					0.06664271094818915,
					0.15963888336995746,
					0.3018313647354657,
					0.09175150097896474,
					0.20883519231369735,
					0.22944792459805363,
					-0.009422433453865033,
					0,
					-0.00020312238034174068,
					0,
					-0.2098767413761592,
					-0.019703176637361555,
					0,
					0,
					0,
					0,
					-0.003556850168447263,
					-0.009422433453865033,
					0,
					0,
					-1.734723475976807e-18,
					-0.009422433453865033,
					-0.009422433453865033,
					-0.010077620803154781,
					1.734723475976807e-18,
					-0.23518865378727655,
					-1.734723475976807e-18,
					-0.00020312238034173895,
					1.734723475976807e-18,
					1.734723475976807e-18,
					0,
					-0.07573224447904275,
					0,
					-0.00020312238034174068,
					-0.21995436217931397,
					0,
					0,
					-3.469446951953614e-18,
					0,
					0,
					0,
					0,
					0,
					0,
					0,
					0,
					0,
					0,
					-1.734723475976807e-18,
					0,
					0,
					-0.010077620803154781,
					0,
					0,
					0,
					0,
					0,
					-0.3049505763301812,
					0,
					-0.009422433453865033,
					0,
					-3.469446951953614e-18,
					-0.046675712842050215,
					-3.469446951953614e-18,
					0,
					0,
					0,
					0,
					0,
					2.168404344971009e-19,
					-0.11305433075217043,
					0,
					0,
					0,
					0,
					0,
					2.168404344971009e-19,
					-0.00020312238034174068,
					0,
					0.3468621894235619,
					-0.05274757443606374,
					-0.00020312238034174068,
					-0.00020312238034174068,
					-0.00020312238034174068,
					-0.00020312238034174068,
					-0.00020312238034174068,
					-0.00020312238034174068,
					-0.00020312238034174242,
					-0.00020312238034174068,
					-0.00020312238034174068,
					0,
					0,
					0,
					0,
					-1.734723475976807e-18,
					2.168404344971009e-19,
					0,
					-0.07573224447904275,
					-0.07314608025617003,
					0,
					0,
					0,
					0,
					0,
					0,
					0,
					0,
					0,
					-0.010077620803154781,
					0,
					0,
					0,
					0,
					0,
					0,
					-0.046675712842050215,
					-0.046675712842050215,
					-0.046675712842050215,
					-0.06882658996896479,
					-0.06882658996896479,
					-0.06882658996896479,
					0.5392816491234442,
					0.5392816491234442,
					-0.09299617242176832,
					0,
					0,
					-0.09299617242176832,
					-0.09299617242176832,
					-0.09299617242176832,
					-0.09299617242176832,
					-0.22996197005268798,
					-0.22996197005268798
				]
			},
			"{\"Offer\": {\"Promotion Possibilities\": \"Fast promotion track\"}}": {
				"N": 100,
				"D": 183,
				"b": -1.1375046750629894,
				"kernelType": "linear",
				"w": [
					0,
					0,
					0,
					0,
					0.03303074128595851,
					0,
					-0.029329890092674712,
					0.06953372810806555,
					0,
					0.00841069737718761,
					0.07309740228469874,
					0.024132796505056196,
					-0.03431118192204788,
					1.0090496574298013,
					0.5816277675069388,
					0.5816277675069388,
					-0.12338908409264615,
					-0.03883670223197872,
					-0.03883670223197872,
					-0.03539818055625572,
					0.24085443827725236,
					-0.003002053973351463,
					0.01865114895535623,
					-0.022030119496168715,
					0.058335994547698555,
					-0.026513172313365904,
					0.12618808421730712,
					-0.002322364026176627,
					-4.336808689942018e-18,
					-4.336808689942018e-18,
					0.11312567014122821,
					-0.04329740271913159,
					-0.09395613741556125,
					0,
					-0.04099206942997806,
					0.18046474663424963,
					-0.023355610954537864,
					-0.05552183599587909,
					-0.05552183599587909,
					0.040681268451524935,
					0.08393367676363894,
					0.03538731559060834,
					-0.045281384417710464,
					-0.045281384417710464,
					0.04616446746045559,
					-0.009985191463282776,
					-0.009985191463282776,
					-0.009985191463282776,
					-0.009985191463282776,
					-0.009985191463282776,
					-0.009985191463282776,
					-0.009985191463282776,
					-0.009985191463282776,
					-0.009985191463282776,
					-0.009640819269456855,
					-0.009985191463282776,
					0.0971700946053511,
					0.05038595183365653,
					0.06647401761710893,
					0.02630569116170573,
					0.03738759172239514,
					-0.012653987917435466,
					-0.17639184081719478,
					-0.001333325070791841,
					0.06647401761710893,
					-0.0957030388205648,
					0.06647401761710893,
					-0.05510503306834321,
					0.007066196784480623,
					0.06647401761710893,
					0.7445189292891456,
					-0.2673757984030729,
					0,
					-0.011081900560689412,
					0.014269488390600549,
					0.10964906436890269,
					-0.00995781200369341,
					-0.00995781200369341,
					-0.009957812003693412,
					-0.009957812003693412,
					-0.05327756705286932,
					0,
					-0.016088065783452402,
					0,
					0,
					-0.09441309588733351,
					-0.06780734268790077,
					0.06541609681921882,
					-0.05628908933062321,
					0.06541609681921882,
					-0.12508024088156386,
					-0.12508024088156386,
					-0.13807860099282523,
					-0.10397279002725629,
					0.1326052364838575,
					0.060807307402792055,
					0.18790713669389286,
					0.18790713669389286,
					-0.13807860099282523,
					-0.12470786477772972,
					0.02450993996876918,
					0,
					0,
					-0.14496180906682593,
					-0.7291307461769927,
					-0.9899604753122722,
					-0.0028546062337462663,
					-0.010240451578168636,
					-0.029329890092674712,
					-0.2673757984030729,
					-0.10276923560504542,
					0.016806582735810007,
					8.673617379884035e-19,
					8.673617379884035e-19,
					8.673617379884035e-19,
					0.05104161357179657,
					-0.012998360111261388,
					0.09169907963340784,
					0,
					0,
					0,
					0,
					0.05998243697221312,
					0,
					0,
					0,
					-0.019715740892210027,
					0,
					0,
					0,
					-0.019715740892210027,
					0,
					0,
					0,
					0,
					0,
					0,
					0,
					0,
					0,
					0,
					0.2364548488250081,
					-0.04331975504917591,
					-0.04331975504917591,
					-0.04331975504917591,
					0,
					0,
					0,
					0,
					0,
					0.279774603874184,
					0,
					0.02450993996876918,
					0,
					0,
					0,
					0,
					0,
					0,
					0,
					0,
					0.06403997368305796,
					0.06403997368305796,
					0,
					0,
					0,
					0,
					0,
					0,
					0,
					0,
					0,
					0,
					0,
					-0.019715740892210027,
					-0.019715740892210027,
					-0.019715740892210027,
					0,
					0,
					0,
					0,
					0,
					0
				]
			},
			"{\"Offer\": {\"Job Description\": \"Programmer\"}}": {
				"N": 100,
				"D": 183,
				"b": -1.0292956573095917,
				"kernelType": "linear",
				"w": [
					0,
					0,
					0,
					0,
					-0.018499070004158194,
					2.7647155398380363e-18,
					3.198396408832238e-18,
					-0.03577333120745313,
					0.2548097940880483,
					0.24865927204286412,
					0.19203770798416236,
					1.3043925751554755,
					-0.016252577466967177,
					0.030245925742614116,
					0.007779946739701782,
					0.007779946739701782,
					0.15559273523275297,
					0.1160432107095515,
					0.09210230474025538,
					0.1305336731267192,
					-0.09365541331970575,
					-0.2067080530814821,
					0.036649785443145066,
					0.07277528304520872,
					-0.04813997529184422,
					0.13488559720073093,
					-0.08230236162732224,
					0.1501058076860106,
					0.18858014947276014,
					0.18858014947276014,
					0.006789168380111579,
					0.05761772360166019,
					0.15034990947538535,
					-0.08100804921742781,
					-0.19276269627609555,
					0.23030995505471377,
					0.08649639150468869,
					-0.0732654734536669,
					-0.05292157381978746,
					0.014374748626703938,
					0.19747962484071951,
					-0.08269016664078557,
					-0.06614822238423806,
					-0.06614822238423806,
					0.07753776450919886,
					0,
					-0.005469262740901454,
					0,
					0,
					0.1150219586618791,
					0,
					0,
					0,
					0,
					-0.1874453482253861,
					0,
					0.032389154402900106,
					0.3051829431421928,
					0.12259422348930074,
					-0.3415145156686368,
					-0.1881254128594944,
					0.08045507171842328,
					-0.19075725010225647,
					0.029332380174591513,
					-0.023422888508750662,
					0.3421147110095043,
					-0.023422888508750662,
					-0.13066086643981126,
					0.15916583114414143,
					-0.023422888508750662,
					-0.05228026659361512,
					-0.07834482229185663,
					-0.10020498083716854,
					-0.23966282203695338,
					-0.10768402838526786,
					-0.04715148170083827,
					-0.02251559547616175,
					-0.017046332735260294,
					1.734723475976807e-18,
					1.734723475976807e-18,
					3.144186300207963e-18,
					0.010136805605287532,
					0.17597248889785194,
					-0.10637327002021743,
					-0.10637327002021743,
					-0.14262110756875818,
					-0.09326184331470923,
					0.1932509142698975,
					-0.00915832043437409,
					0.21367664325672692,
					-0.11928878845547303,
					-0.03858808662160462,
					0.13437302249541944,
					1.3593485892099764,
					-0.04715148170083827,
					0.17139057742750613,
					0.006260325953704848,
					0.006260325953704848,
					-0.11928878845547303,
					-0.023628936777730758,
					-0.10056677731583903,
					-3.469446951953614e-18,
					-0.016838966929847845,
					0.05341180765454314,
					0.09051237444351666,
					0.0298193795960639,
					0,
					0.013226648564450607,
					-0.005469262740901454,
					-0.02114533731579584,
					0.016019159770351427,
					-0.1786337859601013,
					-0.017046332735260294,
					0.4364401450210288,
					-0.017046332735260294,
					-0.10725501079320401,
					-0.0807007018338684,
					-0.3409691732865748,
					0.09226040728315565,
					0.09226040728315565,
					0.11967827211098804,
					0,
					1.214306433183765e-17,
					-0.0831509172386031,
					-0.0831509172386031,
					-0.005469262740901454,
					-0.07737408824700309,
					-0.005469262740901454,
					-0.005469262740901454,
					-0.005469262740901454,
					0.23192271015012408,
					-0.1053741364968878,
					0,
					0,
					0,
					0,
					0,
					0,
					-0.03685558534218136,
					0,
					0,
					-0.11166280376467361,
					1.4094628242311558e-18,
					1.4094628242311558e-18,
					1.4094628242311558e-18,
					-0.03685558534218136,
					0.1460171119980514,
					0.1460171119980514,
					0,
					0,
					-0.11166280376467361,
					3.469446951953614e-18,
					-0.10056677731583903,
					8.131516293641283e-19,
					8.131516293641283e-19,
					8.131516293641283e-19,
					8.131516293641283e-19,
					8.131516293641283e-19,
					8.131516293641283e-19,
					0,
					-3.469446951953614e-18,
					-0.026554308959335613,
					-0.026554308959335613,
					0,
					0,
					0,
					0.4534864777562891,
					0.4534864777562891,
					0.4534864777562891,
					-0.05926579472264164,
					-0.05926579472264164,
					-0.05926579472264164,
					-0.04428480560317554,
					-0.04428480560317554,
					-0.07190482550610164,
					-0.07190482550610164,
					-0.07190482550610164,
					0,
					0,
					0,
					0,
					0,
					0
				]
			},
			"{\"Offer\": {\"Salary\": \"12,000 NIS\"}}": {
				"N": 100,
				"D": 183,
				"b": -1.0085334235190744,
				"kernelType": "linear",
				"w": [
					0,
					-3.686287386450715e-18,
					-3.686287386450715e-18,
					-3.686287386450715e-18,
					-0.04389944021863445,
					-5.637851296924623e-18,
					-0.009088331960096419,
					0.016314753319099113,
					-0.07655308518123928,
					-0.028254294875474723,
					0.018423547325430674,
					0.08661052880073822,
					-0.029157245838739573,
					0.08311093407487286,
					-0.022744874712277898,
					-0.022744874712277898,
					1.6753494551317587,
					0.09496414329530724,
					0.03986149311188091,
					0.05267419490338515,
					-0.0052719434084555015,
					-0.03526579304062387,
					0.0011101925467794326,
					0.15143925851711168,
					-0.045604591438473015,
					-0.03967064139453472,
					-0.04966708308029946,
					0.04213971237863742,
					0,
					0,
					0.0023530899008632642,
					-0.05451539252377261,
					0.02983704705790686,
					-0.0017970315174198302,
					0.05392131079846062,
					0.0979253447727685,
					0.17166726395617055,
					-0.047529588809518894,
					0.007573061373907434,
					0.0057774599235641015,
					0.07962030753341581,
					0.028334688833518192,
					-0.005631960105664716,
					-0.005631960105664716,
					0.053820650616464724,
					-0.03198319506691375,
					0.10408480615667376,
					-0.03198319506691375,
					-0.03198319506691375,
					0,
					0,
					-0.03741153080369749,
					-0.03741153080369749,
					0,
					-0.04300408980873668,
					0,
					0.04038877398271371,
					0.003912059780800486,
					0.022791445265174407,
					-0.08208436069113059,
					0.06294515885585364,
					-0.025446307399819654,
					0.012870138572304408,
					0.0015448791890646484,
					0,
					-0.043273382237832475,
					0,
					0.004622137466776968,
					-0.04028552607803182,
					0,
					-0.03261822377656844,
					0.1550810549229036,
					0.06005431946294702,
					0.06312211762091702,
					-0.04189762870385418,
					-0.03858526956179029,
					-0.03741153080369749,
					5.421010862427522e-20,
					-0.010689040531961364,
					0,
					-0.021406140593657898,
					0.0007147498317501031,
					0.003368077683722194,
					0.08589676880114244,
					0.07520772826918108,
					-0.011285481220441804,
					-0.02124656607610976,
					-0.030289208193060444,
					0.027816964588315174,
					-0.3524675094565575,
					0.11524947325004335,
					-0.012190554476235882,
					-0.060428307141229945,
					0.05702246997081822,
					-0.012157005410759099,
					0.09215690211344388,
					-0.003193871879878324,
					-0.003193871879878324,
					0.0017805699646650172,
					-0.23800033159554723,
					0.12375241922577182,
					0.017437042952252645,
					0.05097536483112742,
					0.008996682596357525,
					-5.204170427930421e-18,
					-0.0015456783862940748,
					0.05555911903287283,
					0.013205021479572143,
					-1.3010426069826053e-17,
					0.06859696331273846,
					0.1974625966359399,
					0,
					5.421010862427522e-20,
					5.421010862427522e-20,
					5.421010862427522e-20,
					-0.015553874652219564,
					0.01390402630994734,
					0.04420205322322094,
					0.018522801947015666,
					0.018522801947015666,
					-0.029739834947171626,
					2.710505431213761e-20,
					0,
					-0.056060271712837256,
					-0.056060271712837256,
					-3.0357660829594124e-18,
					-0.03559311269365128,
					-3.0357660829594124e-18,
					-0.010689040531961368,
					-3.0357660829594124e-18,
					-0.03559311269365127,
					0,
					-0.010689040531961364,
					-0.010689040531961364,
					-0.010689040531961364,
					-0.010689040531961364,
					-0.010689040531961364,
					-0.010689040531961364,
					-0.011279137121620106,
					-0.010689040531961364,
					-0.010689040531961364,
					0.042663071848558415,
					-0.021406140593657898,
					-0.021406140593657898,
					-0.021406140593657898,
					-0.0005900965896587416,
					0.022791445265174407,
					0.022791445265174407,
					0,
					-0.05247002609340126,
					-0.0030949433115495064,
					0.0870741881998239,
					0,
					0,
					0,
					0,
					0,
					0,
					0,
					-0.055102650183426326,
					0.06716415575376582,
					-0.029457900962166904,
					-0.029457900962166904,
					-1.734723475976807e-18,
					-1.734723475976807e-18,
					-1.734723475976807e-18,
					0,
					0,
					0,
					0.05172112234668031,
					0.05172112234668031,
					0.05172112234668031,
					0,
					0,
					-0.03559311269365127,
					-0.03559311269365127,
					-0.03559311269365127,
					0,
					0,
					0,
					0,
					0,
					0
				]
			},
			"{\"Offer\": {\"Pension Fund\": \"10%\"}}": {
				"N": 100,
				"D": 183,
				"b": -1.2563861066981812,
				"kernelType": "linear",
				"w": [
					0,
					0,
					0,
					0,
					-0.12781769312648955,
					0,
					0.0016621747441016308,
					0.1260047240444284,
					-0.044095512235723014,
					0.29009794151746393,
					0.1916115708606537,
					-0.01938355300426367,
					-0.4068998083307391,
					-0.06389854287394775,
					0.33379819851593334,
					-0.025363309449761007,
					0.13260347654591398,
					-0.24070720290274145,
					-0.10534627925718854,
					-0.024866299035935985,
					-6.071532165918825e-18,
					0.015263623451757094,
					0.14130082428768512,
					-0.25177443627521273,
					0.967928702339504,
					0.22647297557299398,
					-0.045846577233221456,
					-0.10815484882425827,
					0.0476411474577759,
					0.0476411474577759,
					-0.147155303185924,
					0.07262385989676104,
					1.0434946728250194,
					-0.03247749802092592,
					0.3630350074847911,
					0.6728917279192798,
					0.11778519675439582,
					-0.0014400906622678202,
					0.344613391497662,
					0.08442175679870263,
					0.012927103048432122,
					-0.11960754092851843,
					0.10606273518730013,
					0.10606273518730013,
					-0.7115337351596857,
					0,
					-0.16385756347994207,
					-0.029811675405813687,
					0,
					-0.045853437392078436,
					0,
					-0.03744791597654884,
					-1.0408340855860843e-17,
					0,
					-0.30777616956312176,
					-0.03744791597654883,
					0.04135117472410482,
					-0.037262845062954256,
					-0.013744212706598587,
					0.3248784150239339,
					-0.12941229585351646,
					-0.4520065782076524,
					0.13664025366898366,
					-0.24684243716083795,
					-0.013744212706598587,
					-0.24403147786486476,
					-0.013744212706598587,
					-0.10776110591234819,
					-0.037262845062954256,
					-0.013744212706598587,
					0.3701686072158859,
					-0.24070720290274145,
					-0.2642258352590971,
					0.24594503301506068,
					0.16170019737299385,
					-0.15538940956442968,
					-0.1414966619890723,
					-0.2110515854419183,
					-0.21126956696113716,
					-0.15538940956442968,
					-0.15538940956442968,
					0.022924249165761867,
					-0.062289173426739605,
					0,
					-0.05588015739670749,
					0.06757041390433297,
					-0.23309822445423936,
					0.26920302322256184,
					-1.930572939915307,
					0.06700854759474584,
					0.11842461758942568,
					0.2276616712927681,
					0.1004142719158973,
					-0.03109154291731444,
					6.667843360785852e-18,
					-0.25816454221324125,
					0.3741156413928587,
					0.3741156413928587,
					0.024923817815908723,
					0.0310298413415594,
					0.04287450131066223,
					-0.06247095843195756,
					-0.11847021471436114,
					0.5943450615729272,
					-0.09612639363901504,
					0.12365452781300978,
					-0.18681105425893524,
					0.23855065631036204,
					0.0016621747441016342,
					0,
					-0.25380589751462185,
					-0.15004084148642682,
					-0.05566217587748861,
					-0.05566217587748861,
					-0.05566217587748861,
					-0.09200762406101717,
					-0.015736253929825444,
					0.09350079977351697,
					-0.14298365330669624,
					-0.14298365330669624,
					-0.11831115729289585,
					-3.469446951953614e-18,
					-0.7358411443899766,
					-0.1164627510146306,
					-0.1164627510146306,
					0,
					0.10534066468529321,
					0.0016621747441016308,
					-0.05588015739670749,
					0,
					0.16995795082904494,
					0.20740586680559378,
					-0.05588015739670749,
					-0.05588015739670749,
					-0.05588015739670749,
					-0.05588015739670749,
					-0.05588015739670749,
					-0.05588015739670749,
					-0.0558801573967075,
					-0.05588015739670749,
					-0.05588015739670749,
					0,
					0,
					0,
					0,
					-8.673617379884035e-18,
					0.0016621747441016308,
					0,
					-0.029811675405813687,
					-0.013861773407912425,
					0,
					0,
					0.26920302322256184,
					0.21470269719944557,
					0.21470269719944557,
					0.21470269719944557,
					0.21470269719944557,
					0.21470269719944557,
					0.21470269719944557,
					-0.10534627925718854,
					0,
					-0.07627137013119173,
					-0.07627137013119173,
					0.10534066468529323,
					0.10534066468529323,
					0.10534066468529323,
					0,
					0,
					0,
					0,
					0,
					0,
					3.469446951953614e-18,
					3.469446951953614e-18,
					-0.03744791597654885,
					-1.214306433183765e-17,
					-1.214306433183765e-17,
					-0.03744791597654883,
					-0.03744791597654883,
					-0.03744791597654883,
					-0.03744791597654883,
					0,
					0
				]
			},
			"{\"Accept\": \"previous\"}": {
				"N": 100,
				"D": 183,
				"b": -0.5087414714119307,
				"kernelType": "linear",
				"w": [
					0,
					-0.16368620886956448,
					-0.16368620886956448,
					-0.16368620886956448,
					0.6666620449904762,
					-1,
					0.17508422467124252,
					-0.04450424603317852,
					0,
					-0.37764754741360324,
					0.0028849142613950997,
					-0.5788263181383692,
					-0.4901080845843179,
					0.17944950712564872,
					-0.13111133991714763,
					-0.13111133991714763,
					-0.275259680726349,
					-0.13141494123009,
					-0.30923124461849577,
					-0.04177502587325542,
					-0.4783356869237528,
					0.34053496220816776,
					0.014711406424958821,
					-0.09153068751428545,
					0.00042939593386976944,
					0.7230132443044064,
					0.6379788521676252,
					-0.537343025079652,
					-0.15558129088667405,
					-0.15558129088667405,
					0.627866289504674,
					-0.365230847017835,
					-0.41417896486378747,
					0.7821724781726346,
					-0.2402812157854919,
					8.673617379884035e-19,
					-0.1557444197835076,
					-0.0351523912746042,
					-0.016269221242092034,
					-0.018883486973872744,
					0.11510938791563234,
					-0.016269221242092027,
					-0.016269221242092034,
					-0.016269221242092034,
					-0.4343042148723153,
					-0.04810392390330523,
					-0.34694825174813604,
					-0.04810392390330523,
					-0.04810392390330523,
					-0.09153068751428543,
					0,
					-0.1308266241471027,
					-0.0510366063670407,
					0,
					-0.6095371055986257,
					-0.07979001778006199,
					0.39306148333963775,
					-0.07793067551544053,
					0,
					1.0408340855860843e-17,
					3.469446951953614e-18,
					0.02622244569541883,
					0.3055109118585845,
					-0.041059841894699335,
					0,
					-0.5182826488335073,
					0,
					0.025805982355957113,
					-0.16341272601069756,
					0,
					-0.08185098336749644,
					-0.16733835554375254,
					-0.2093456167455305,
					-0.2093456167455305,
					-0.018883170032512154,
					-0.16211875708772078,
					0.08214502115563448,
					0.2674149697572129,
					-0.16211875708772078,
					-0.16211875708772078,
					-0.2476008075829778,
					0,
					-0.8466559547233475,
					-0.030167528324977978,
					-0.030167528324977978,
					0.08123132785870563,
					-0.041059841894699335,
					9.107298248878237e-18,
					-0.26589472754918425,
					-3.1694136056847726e-7,
					5.204170427930421e-18,
					-8.673617379884035e-18,
					-0.04059699863393689,
					-0.05686621987602892,
					0,
					-0.09811988766822788,
					-8.673617379884035e-18,
					-8.673617379884035e-18,
					0,
					-0.3290656733940738,
					-0.3706505757628352,
					-0.2931422590804112,
					0.7418811954347426,
					0,
					-0.01626890430073145,
					1.0408340855860843e-17,
					0,
					0,
					0.8419389932566543,
					0,
					-0.09419957981617198,
					-6.938893903907228e-18,
					0.4295337268449337,
					0.619071787900564,
					0.4295337268449337,
					-0.08185098336749645,
					-8.673617379884035e-18,
					-8.673617379884035e-18,
					-0.04059699863393689,
					-0.04059699863393689,
					0.07525908170695346,
					0.8418990362818117,
					0,
					-0.1685897142364616,
					-0.1685897142364616,
					-0.17029940479536612,
					-0.17029940479536612,
					-0.05444332445447578,
					-0.17029940479536612,
					-0.17029940479536612,
					0.32109110937888397,
					0.6331060819193891,
					0,
					0,
					0,
					0,
					0,
					0,
					-0.03592341431366257,
					0,
					0,
					-0.2979230098698255,
					-0.08548205049525703,
					-0.08548205049525703,
					-0.08548205049525703,
					-0.03592341431366257,
					0.11585608034089034,
					0,
					0,
					-0.05412115493055838,
					-0.21244095937456847,
					1.3877787807814457e-17,
					9.107298248878237e-18,
					-0.0820105539749571,
					-0.0820105539749571,
					-0.0820105539749571,
					-0.0820105539749571,
					-0.0820105539749571,
					-0.0820105539749571,
					0.11253177119757782,
					0,
					-0.08185098336749644,
					-0.08185098336749644,
					0,
					0,
					0,
					0.18953806105563042,
					0.18953806105563042,
					0.18953806105563042,
					0.1495613728416004,
					0.1495613728416004,
					0.1495613728416004,
					-0.42176301581607356,
					-0.42176301581607356,
					-0.07979001778006199,
					0,
					0,
					-0.07979001778006199,
					-0.07979001778006199,
					-0.07979001778006199,
					-0.07979001778006199,
					0.6006991162297362,
					0.6006991162297362
				]
			},
			"{\"Offer\": {\"Working Hours\": \"9 hours\"}}": {
				"N": 100,
				"D": 183,
				"b": -1.022439197650523,
				"kernelType": "linear",
				"w": [
					0,
					0,
					0,
					0,
					-0.1351599086370669,
					0,
					-0.05994373610610668,
					0.021207392299338323,
					0,
					-0.17938314744823097,
					0.037769463232453164,
					0.09075470508741976,
					-0.012032715041188913,
					0.04985502107379846,
					0.15741834776309782,
					-0.17303439577298393,
					0.08290461358996479,
					-4.87890977618477e-19,
					-0.0017662798899877527,
					0.01972048430268014,
					-4.87890977618477e-19,
					0.015257113979592847,
					-0.09097143476809014,
					-0.09562199008244958,
					-0.3437644462524447,
					-0.10144056350306517,
					0.09529921229681601,
					-0.05670966322205469,
					-5.637851296924623e-18,
					-5.637851296924623e-18,
					-0.020926311824734513,
					0.06386913225252352,
					0.011957886511768219,
					-0.05443891589444699,
					0.0005839572706072623,
					1.670868222828583,
					0.00023462146975760517,
					0.04411083853404519,
					0.04411083853404519,
					-0.15370205524282865,
					0.10771876293089816,
					0.11248298358063724,
					0.04411083853404519,
					0.04411083853404519,
					0.21504559147216715,
					-0.0032132009290216047,
					-0.012832804833772249,
					-0.0032132009290216077,
					-0.0032132009290216047,
					-0.0032132009290216047,
					-0.0032132009290216047,
					-0.005905280189861309,
					-0.0032132009290216047,
					-0.0032132009290216047,
					-0.0037360028099980456,
					-0.005905280189861309,
					-0.003213200929021598,
					0,
					0,
					-0.04964778379754045,
					-4.336808689942018e-19,
					-0.01367812499139374,
					-0.00986392483911173,
					6.5052130349130266e-18,
					0,
					-0.050875949390309046,
					0,
					0.000920412610846362,
					-0.005818573420615593,
					0,
					0.12825793829387153,
					-0.021936695090479845,
					0,
					-0.04964778379754045,
					3.903127820947816e-18,
					-0.004091112284297371,
					-0.002692079260839697,
					6.938893903907228e-18,
					0,
					0,
					-0.005818573420615593,
					-0.02454258042761729,
					-3.5236570605778894e-18,
					-0.03051639097414208,
					-0.03051639097414208,
					0.04909087093695307,
					6.5052130349130266e-18,
					-0.06330968922246148,
					-0.01463266908102799,
					-0.004091112284297365,
					-0.01616388253566549,
					-0.004091112284297371,
					-0.017246435394714668,
					0.08080537345412792,
					-0.004091112284297371,
					-0.1498505924472578,
					-0.10605979316747682,
					-0.10605979316747682,
					-0.0040911122842973695,
					0,
					-0.009619603904750643,
					0,
					-0.03861266378008967,
					0.12882296948427702,
					-0.08122808352675073,
					0.050669547083066764,
					7.37257477290143e-18,
					3.903127820947816e-18,
					-0.034497880086998715,
					-0.009863924839111731,
					-0.045057375969693454,
					-0.09562199008244958,
					6.938893903907228e-18,
					6.938893903907228e-18,
					6.938893903907228e-18,
					-0.032644626463165384,
					1.734723475976807e-18,
					0,
					-0.013155323110417297,
					-0.013155323110417297,
					-0.013155323110417299,
					0,
					-0.11816210714236038,
					0.06386913225252352,
					0.06386913225252352,
					0,
					0.016108841365219204,
					0,
					0,
					0,
					0.011650482214391748,
					8.673617379884035e-19,
					0,
					0,
					0,
					0,
					0,
					0,
					0,
					0,
					0,
					-0.005818573420615593,
					-0.005818573420615593,
					-0.005818573420615593,
					-0.005818573420615593,
					0,
					0,
					0,
					-3.0899761915836876e-18,
					0,
					0,
					-0.012072770251368116,
					0,
					-4.336808689942018e-19,
					-4.336808689942018e-19,
					-4.336808689942018e-19,
					-4.336808689942018e-19,
					-4.336808689942018e-19,
					-4.336808689942018e-19,
					0,
					0,
					-0.032644626463165384,
					-0.032644626463165384,
					0,
					0,
					0,
					0,
					0,
					0,
					0,
					0,
					0,
					-0.0017662798899877523,
					-0.0017662798899877523,
					0.0134167621043795,
					0.016108841365219204,
					0.016108841365219204,
					-0.002692079260839704,
					-0.002692079260839704,
					-0.002692079260839704,
					-0.002692079260839704,
					0,
					0
				]
			},
			"{\"Offer\": {\"Leased Car\": \"With leased car\"}}": {
				"N": 100,
				"D": 183,
				"b": -1.4422311329405455,
				"kernelType": "linear",
				"w": [
					0,
					-3.469446951953614e-18,
					-3.469446951953614e-18,
					-3.469446951953614e-18,
					0.16014188359039927,
					0,
					-1.3877787807814457e-17,
					-0.15933457784163968,
					-0.03991738467259918,
					-0.10397620370131383,
					-0.11365461182036674,
					0.3984799494102272,
					0.2618072920864676,
					-0.09248868049198224,
					0.06599038606505786,
					0.06599038606505786,
					0.15703322663852726,
					0.0660015297164762,
					8.673617379884035e-19,
					-0.04418940643821363,
					-3.0357660829594124e-18,
					0.11212553061335526,
					-0.28055815519324523,
					-0.09839661860411651,
					0.26594601450503697,
					-0.18229888693495802,
					-0.29049827244869897,
					0.11195334432834422,
					-0.030982236723238372,
					-0.030982236723238372,
					0.017494845065374298,
					-0.05454453026507069,
					0.096070770192007,
					-0.15479310746869251,
					-0.05179910769812083,
					0.2706140378327783,
					0.12888242862275723,
					0.046648244531921235,
					-0.019353285184554758,
					0.4541899925258188,
					0.6307698584320833,
					-0.03553441822778153,
					-0.03553441822778147,
					-0.03553441822778147,
					0.17554130351912678,
					0,
					0,
					0,
					0,
					0.26473692955623185,
					0,
					0,
					0,
					0,
					-0.1891686292278844,
					0,
					0.200487960107959,
					-0.04521501745565967,
					-0.026765820499284686,
					0.07001997038044994,
					0.07765264628298979,
					0.25476489685654036,
					-0.190043119890958,
					-0.026765820499284686,
					-0.004078017620525973,
					-0.022527214576900968,
					-0.004078017620525973,
					-0.07957194597766945,
					-0.022527214576900965,
					-0.004078017620525973,
					-0.1338863451612287,
					0.0660015297164762,
					0.0660015297164762,
					0.06597855507384356,
					0.08130817209662927,
					-0.12275702353301252,
					-4.336808689942018e-19,
					-4.336808689942018e-19,
					-0.007609701259907222,
					0,
					0,
					0.11162887052606874,
					-0.1732423044250675,
					3.469446951953614e-18,
					-0.007609701259907218,
					-1.9838188669567733,
					0,
					-0.18412312210337198,
					0.001385403820407749,
					0.033512591169801036,
					-0.32844866332584144,
					-0.2040637095077397,
					0.0774670078480853,
					0.32992708877438215,
					-0.42712110643899215,
					0.41455018945925914,
					-0.02880023570095344,
					-0.02880023570095344,
					-0.02408458041986178,
					-0.006500720609574145,
					-0.0008744906630736063,
					3.469446951953614e-18,
					1.734723475976807e-18,
					0.5203701758295419,
					0.22305739693125248,
					0.06930801478701613,
					7.047314121155779e-18,
					0.01618113304322666,
					0,
					0,
					-4.336808689942018e-18,
					-0.35552384690044114,
					-4.336808689942018e-19,
					-0.00009238871767964412,
					-4.336808689942018e-19,
					0.17997912908787794,
					0.17997912908787794,
					-0.2438724749986938,
					-0.14721831936825638,
					-0.14721831936825638,
					-0.022833365550154652,
					0,
					0,
					0,
					0,
					0,
					-0.017423585938928933,
					0,
					-0.007609701259907222,
					0,
					-0.03391028794721267,
					-0.016394313290604094,
					-0.007609701259907222,
					-0.007609701259907222,
					-0.007609701259907222,
					-0.007609701259907222,
					-0.007609701259907222,
					-0.007609701259907222,
					-0.007609701259907222,
					-0.007609701259907222,
					-0.007609701259907222,
					3.469446951953614e-18,
					0,
					0,
					0,
					0,
					-0.02268780287875871,
					-0.02268780287875871,
					0,
					0,
					0,
					0,
					-0.0008744906630736063,
					0,
					0,
					0,
					0,
					0,
					0,
					1.734723475976807e-18,
					3.469446951953614e-18,
					0,
					0,
					0,
					0,
					0,
					-0.00009238871767964368,
					-0.00009238871767964368,
					-0.00009238871767964368,
					-0.1492065384361081,
					-0.1492065384361081,
					-0.1492065384361081,
					0,
					0,
					-0.017423585938928933,
					-0.017423585938928933,
					-0.017423585938928933,
					0,
					0,
					0,
					0,
					0,
					0
				]
			},
			"{\"Insist\": \"previous\"}": {
				"N": 100,
				"D": 183,
				"b": -0.6814759303748738,
				"kernelType": "linear",
				"w": [
					0,
					-0.10602265984371437,
					-0.10602265984371437,
					-0.10602265984371437,
					-0.3689937296608697,
					0,
					-0.13918351328856415,
					0.0972392642387317,
					0,
					3.881443777498106e-17,
					-0.15214721423966748,
					-0.08115533971455703,
					-0.1625877487490383,
					-0.05302156903143851,
					-0.05117175579761894,
					-0.05117175579761894,
					-0.37610027298864,
					3.9898639947466563e-17,
					-0.19388240379368912,
					-0.14735433285502503,
					3.9898639947466563e-17,
					0.4237627487653149,
					-0.1442310877562988,
					-0.025561556342113774,
					-0.4791944601056699,
					-0.017320756663213893,
					-0.24612887429034358,
					0.31732951622928485,
					-1.734723475976807e-18,
					-1.734723475976807e-18,
					-0.04956556137622912,
					-0.05510890980063915,
					-0.18137023165780902,
					-0.11013037177820596,
					0.1606703904805436,
					-0.13265439490763153,
					-0.066886318039443,
					0,
					0,
					0,
					-0.030285069369071542,
					0,
					0,
					0,
					-0.23647651081068477,
					0.3273456036209782,
					0.4527513728814872,
					0.5747275904637269,
					0.3273456036209782,
					1.734723475976807e-18,
					1.734723475976807e-18,
					0.43337814060678287,
					0.29364240549593723,
					1.734723475976807e-18,
					-0.21165530102688054,
					0.13973573511084564,
					-0.049565561376229125,
					-0.10252233407195804,
					0,
					-0.08115533971455707,
					-0.050872318346610566,
					-0.19695536307948702,
					-0.02321680759122053,
					0,
					0,
					0.02836437172909132,
					0,
					0.05441080164300924,
					-0.10252233407195804,
					0,
					-5.5294310796760726e-18,
					-0.019170569897033463,
					-0.02136699435740097,
					-0.05165001572534747,
					0,
					-0.01933981079863794,
					0.4050359874013466,
					-0.12316192670169115,
					-0.01933981079863794,
					-0.01933981079863794,
					-0.01933981079863794,
					0,
					0.27574635857184004,
					0,
					0,
					-0.19695536307948702,
					0,
					0,
					-3.469446951953614e-18,
					0,
					0,
					0,
					0,
					-3.469446951953614e-18,
					0,
					-5.5294310796760726e-18,
					-3.469446951953614e-18,
					-3.469446951953614e-18,
					0,
					-0.01732075666321389,
					-0.2777563476790766,
					-0.025561556342113812,
					-0.2777563476790766,
					-3.469446951953614e-18,
					0,
					0,
					0,
					0,
					-0.029663801844915752,
					-0.0018498132338195749,
					-0.02136699435740097,
					0,
					-0.10382211590305322,
					-0.11748408830002194,
					-0.10382211590305322,
					-2.0599841277224584e-18,
					0,
					0,
					0,
					0,
					1.8214596497756474e-17,
					0,
					0,
					-0.040408971853245615,
					-0.040408971853245615,
					0.10951971144364839,
					0.0025743504418689334,
					0.1095197114436484,
					0.10951971144364839,
					0.10951971144364839,
					-0.16005406413419815,
					4.336808689942018e-18,
					0,
					0,
					0,
					0,
					0,
					0,
					-0.01732075666321389,
					0,
					0,
					-0.025561556342113812,
					0,
					0,
					0,
					-0.01732075666321389,
					1.3010426069826053e-17,
					0,
					0.24738198684274873,
					0.7798078218438025,
					0,
					0,
					0,
					0,
					0,
					0,
					0,
					0,
					0,
					0,
					-0.025561556342113812,
					-2.0599841277224584e-18,
					-2.0599841277224584e-18,
					-0.014699937947393531,
					-0.014699937947393531,
					-0.014699937947393531,
					-0.01366197239696871,
					-0.01366197239696871,
					-0.01366197239696871,
					-0.04956556137622912,
					-0.04956556137622912,
					-0.04956556137622912,
					-0.19388240379368915,
					-0.19388240379368915,
					0.04749031205645972,
					-0.09224542305438592,
					-0.09224542305438592,
					0.13973573511084564,
					0.13973573511084564,
					0.13973573511084564,
					0.13973573511084564,
					0,
					0
				]
			},
			"{\"Offer\": {\"Working Hours\": \"10 hours\"}}": {
				"N": 100,
				"D": 183,
				"b": -1.2507618803993346,
				"kernelType": "linear",
				"w": [
					0,
					0,
					0,
					0,
					0.19917132486651118,
					0,
					1.1709383462843448e-17,
					-0.1627691159105315,
					3.469446951953614e-18,
					0.151185664138086,
					0.06925359885843024,
					-0.3007788040917475,
					0.07080518587177854,
					0.09565499350896456,
					-0.09581524760863033,
					0.14928539075782046,
					0.017314984320518978,
					-0.03778811125604167,
					0.11433106135188562,
					0.18011831125158118,
					-0.10786523929908362,
					-0.13428767826639118,
					0.05873638577574534,
					0.04147548847568702,
					0.8408539582151039,
					0.026404319271569693,
					-0.16183843230832912,
					0.026857091689447048,
					1.734723475976807e-18,
					1.734723475976807e-18,
					0.07323654689275175,
					0.06529646530584893,
					-0.40913316676943,
					2.3852447794681098e-18,
					-0.5489109166589272,
					-1.488703104213777,
					-0.06267848267121534,
					0.07564160914414697,
					-0.07647756346378021,
					0.16570315799466007,
					-0.009642989317402068,
					0.015204394685477067,
					-0.0769366902147367,
					-0.0769366902147367,
					1.345831920395009,
					0,
					-0.003932430042421144,
					0,
					0,
					0,
					0,
					0,
					0,
					0,
					0.04802175226733118,
					0,
					0.15766268123061195,
					0.06137086970929392,
					0.10715986911461318,
					0.06383902569140427,
					0.008586868966706828,
					0.10715986911461318,
					-0.1708062699497501,
					0.2563979348267606,
					0.00858686896670681,
					0.0273630778671191,
					0.00858686896670681,
					-0.019166029309953127,
					0.03923306652475025,
					0.00858686896670681,
					-0.29499899910750943,
					-5.204170427930421e-18,
					6.044427111606687e-18,
					0.11439027357197944,
					-0.07218521624017807,
					0.12280262378311635,
					0.31331972524313056,
					0.31725215528555173,
					0.23868822675138623,
					0.2978263435986682,
					0.3742615405620309,
					0.252237878491031,
					-0.04972142944774042,
					0,
					-0.05913811684728199,
					-0.09364518072981554,
					0.14923806571214743,
					-0.786279223434696,
					0.26712256235383736,
					-0.24898075718752793,
					-0.05716810509440326,
					-0.16063973652740868,
					-0.16063973652740868,
					-0.05421933736077281,
					-0.17502371981555184,
					0.2786174106940932,
					0.0932971994578701,
					0.0932971994578701,
					0.006254784829554216,
					-0.06296376317300101,
					-0.22476351559906182,
					-6.179952383167375e-18,
					-0.036313421662876405,
					-0.050755275046563714,
					0.07780687321210064,
					0.09579901282085518,
					0,
					0.0004591267509564701,
					-0.0039324300424211376,
					0,
					6.044427111606687e-18,
					0.13840171657901068,
					0.019425811686883506,
					0.019425811686883506,
					0.019425811686883506,
					0.040048741509047955,
					0.040048741509047955,
					0.053127344460632,
					0.040048741509047955,
					0.040048741509047955,
					0,
					0,
					0.06842281135342015,
					0.042248915044856956,
					0.042248915044856956,
					-0.003932430042421144,
					-0.003932430042421151,
					-0.003932430042421144,
					-0.06307054688970314,
					-0.003932430042421144,
					-0.05995388983634973,
					-0.05995388983634973,
					-0.05913811684728199,
					-0.05913811684728199,
					-0.05913811684728199,
					-0.05913811684728199,
					-0.05913811684728199,
					-0.05913811684728199,
					-0.059138116847282,
					-0.05913811684728199,
					-0.05913811684728199,
					0.0063580689203207525,
					0.0764351969633627,
					0.0764351969633627,
					0.0764351969633627,
					-5.204170427930421e-18,
					0.09857300014790638,
					0.09857300014790638,
					0,
					0,
					-0.07007712804304195,
					0,
					-0.22476351559906182,
					-0.09824905683671868,
					-0.09824905683671868,
					-0.09824905683671868,
					-0.09824905683671868,
					-0.09824905683671868,
					-0.09824905683671868,
					0.1521191726079273,
					-6.179952383167375e-18,
					0,
					0,
					-6.938893903907228e-18,
					-6.938893903907228e-18,
					-6.938893903907228e-18,
					0,
					0,
					0,
					-0.008937488916530621,
					-0.008937488916530621,
					-0.008937488916530621,
					-8.673617379884035e-19,
					-8.673617379884035e-19,
					0,
					0,
					0,
					0,
					0,
					0,
					0,
					1.1709383462843448e-17,
					1.1709383462843448e-17
				]
			},
			"{\"Offer\": {\"Job Description\": \"Team Manager\"}}": {
				"N": 100,
				"D": 183,
				"b": -1.5261629653276,
				"kernelType": "linear",
				"w": [
					0,
					0,
					0,
					0,
					-0.03600206305716593,
					0,
					-0.010405297229654085,
					-0.03677715165698324,
					0,
					0.12291514367258355,
					0.030914404844951712,
					-0.3568475186029646,
					0.05156613670148677,
					-0.029230506571816896,
					0.0570085666386342,
					0.0570085666386342,
					0.24615610790930553,
					0.14716855700050602,
					-0.0917901137258493,
					-0.030058082843254945,
					-1.734723475976807e-18,
					0.15486660655411771,
					-0.028324666241415337,
					0.14854430649837036,
					0.12854347315526715,
					-0.22391340496125448,
					0.17235321105950915,
					-0.03718653493067928,
					0,
					0,
					-0.07392401793231704,
					-0.10391425477762699,
					0.05168758165680511,
					-6.5052130349130266e-18,
					0.31090189468334867,
					-0.04759736403086358,
					0.03597006602952817,
					0.023488772882757303,
					-0.031889670391899445,
					0.006564690484253955,
					0.16252503206358693,
					0.14873750629290608,
					-0.021095582873120883,
					-0.021095582873120883,
					0.05733399039866359,
					-0.012696504146896522,
					-0.012696504146896522,
					-0.012696504146896522,
					-0.012696504146896522,
					-0.01269650414689652,
					-0.01269650414689652,
					-0.01269650414689652,
					-0.01269650414689652,
					-0.01269650414689652,
					0.03347359864866346,
					-0.01269650414689652,
					0.05500094256791064,
					0.07901693553928059,
					0.00636187640227813,
					0.6816510907773046,
					0.5475522228323464,
					0.17726720301784213,
					0.255044097362235,
					0.00636187640227813,
					0.056216670990909795,
					-0.23165111347652845,
					0.056216670990909795,
					-0.053037042488505146,
					0.12887173012791225,
					0.056216670990909795,
					-0.05624475327086273,
					0.09371484297859106,
					0.5000551435409698,
					0.5476493247893115,
					0.009524428456173031,
					0.11294149606757369,
					-0.04491483057674884,
					-0.015510000457804568,
					0.08319388651930497,
					-0.003310800177311537,
					-0.003310800177311537,
					-0.047188654436853314,
					-0.2802315274034613,
					-7.589415207398531e-19,
					0.08650468669661651,
					0.07658069795018206,
					8.673617379884035e-19,
					-0.035059927299705126,
					-0.07804796591966384,
					-0.035059927299705126,
					-0.1394737195801349,
					-0.08234995778472325,
					0.11625229624488521,
					-0.5450951234176209,
					-0.08234995778472325,
					0.17847977968673934,
					-0.08234995778472325,
					-0.08234995778472325,
					0.059128534449473566,
					2.6020852139652106e-18,
					-0.035059927299705126,
					-0.05981949387612149,
					-0.0917901137258493,
					-5.204170427930421e-18,
					-0.007636257063976941,
					0.09666636952337582,
					-0.08812978505016597,
					-0.01079408751877856,
					-0.010405297229654078,
					-0.053453714021914955,
					0.3452503294764869,
					0.12185911367787536,
					-0.012199200280493032,
					-0.012199200280493032,
					-0.012199200280493032,
					0.11136702575714753,
					0.1414784922341968,
					-0.08234995778472325,
					-0.057123761795411655,
					-0.057123761795411655,
					-0.010405297229654078,
					0,
					-0.07477646098385367,
					0,
					0,
					0,
					-0.03641995924553307,
					-0.010405297229654078,
					0.08650468669661651,
					0,
					-0.017420426356242875,
					0,
					0.08650468669661651,
					0.08650468669661651,
					0.08650468669661651,
					0.08650468669661651,
					0.08650468669661651,
					0.08650468669661651,
					0.08650468669661651,
					0.08650468669661651,
					0.08650468669661651,
					-0.05981949387612149,
					0,
					0,
					0,
					2.6020852139652106e-18,
					-0.060260091818285746,
					-0.049854794588631665,
					0,
					0,
					0,
					0,
					-0.035059927299705126,
					0,
					0,
					0,
					0,
					0,
					0,
					-0.0917901137258493,
					-0.05981949387612149,
					-0.03011146647704928,
					-0.03011146647704928,
					-0.018999532889290193,
					-0.018999532889290193,
					-0.018999532889290193,
					0,
					0,
					0,
					0,
					0,
					0,
					0,
					0,
					-0.017420426356242875,
					-0.017420426356242875,
					-0.017420426356242875,
					0,
					0,
					0,
					0,
					0,
					0
				]
			},
			"{\"Insist\": \"Working Hours\"}": {
				"N": 100,
				"D": 183,
				"b": -1.2592586332002993,
				"kernelType": "linear",
				"w": [
					0,
					0,
					0,
					0,
					0.15879444945329507,
					-8.673617379884035e-19,
					-0.04321994944891556,
					-0.07321895040058632,
					0,
					-0.002346706890015043,
					0.12107132111235931,
					-0.03843617913080842,
					-0.00658769199673295,
					-0.0023467068900150452,
					-0.039755200406647685,
					-0.039755200406647685,
					-0.027711281494464352,
					0,
					0,
					-0.005730859792151921,
					-0.03740849351663264,
					-0.11541900781110463,
					-0.05197786557281762,
					0.08926071952417337,
					0.1462684788507399,
					1.3010426069826053e-18,
					-0.005730859792151922,
					0.21464820508542426,
					0,
					0,
					-0.04407136485553919,
					-0.010047024241043428,
					-0.05137723370503264,
					-0.01263380618321361,
					0.11251108316979486,
					0,
					-0.002346706890015043,
					-0.002346706890015043,
					-0.002346706890015043,
					0.08691401263415834,
					-0.03658669294840371,
					-0.002346706890015043,
					-0.002346706890015043,
					-0.002346706890015043,
					-0.060535015128427024,
					0,
					-1.3010426069826053e-18,
					0,
					0,
					0,
					0,
					-3.0357660829594124e-18,
					0,
					0,
					0.0535308587803507,
					-3.0357660829594124e-18,
					-0.002346706890015042,
					-0.06614746062527277,
					1.0570971181733668e-18,
					0.046583555286647045,
					-0.035140305075666164,
					-0.034319703632338786,
					0.018329488580793467,
					-0.0043161644488915055,
					1.0570971181733668e-18,
					-0.03843617913080842,
					1.0570971181733668e-18,
					-0.005730859792151923,
					-0.06614746062527277,
					1.0570971181733668e-18,
					1.0570971181733668e-18,
					-2.168404344971009e-18,
					-0.02771128149446435,
					-0.03524814065632451,
					0,
					0.2570481624381242,
					0.162707179620972,
					0.2116579888620395,
					0.3505498670690154,
					0.26128914754484206,
					0.26128914754484206,
					0,
					-0.03843617913080842,
					0,
					0.08926071952417337,
					-0.029999000951670757,
					-0.004316164448891506,
					0,
					-1.6263032587282567e-19,
					-0.002346706890015043,
					0,
					0,
					-0.004320702680668026,
					-0.002426424463965165,
					0,
					-0.0042409851067179045,
					0,
					0,
					-0.0042409851067179045,
					0,
					0,
					-8.673617379884035e-19,
					1.734723475976807e-18,
					0,
					0,
					0,
					0,
					0,
					-0.04321994944891556,
					-2.168404344971009e-18,
					-0.02771128149446435,
					0,
					-0.04963115868280257,
					-0.04963115868280257,
					-0.04963115868280257,
					-0.0042409851067179045,
					-0.0042409851067179045,
					0,
					-0.00007971757395012179,
					-0.00007971757395012179,
					-0.04329966702286568,
					0,
					0,
					0,
					0,
					-1.3010426069826053e-18,
					-0.0057308597921519235,
					-0.04321994944891556,
					0.08926071952417337,
					-1.3010426069826053e-18,
					4.336808689942018e-19,
					3.469446951953614e-18,
					0.08926071952417337,
					0.08926071952417337,
					0.08926071952417337,
					0.08926071952417337,
					0.08926071952417337,
					0.08926071952417337,
					0.08926071952417337,
					0.08926071952417337,
					0.08926071952417337,
					-0.03740849351663264,
					-4.336808689942018e-19,
					-4.336808689942018e-19,
					-4.336808689942018e-19,
					0,
					-0.04321994944891556,
					0,
					0,
					0,
					-0.03740849351663264,
					0,
					0,
					0,
					0,
					0,
					0,
					0,
					0,
					0,
					-8.673617379884035e-19,
					0,
					0,
					-0.005730859792151922,
					-0.005730859792151922,
					-0.005730859792151922,
					0,
					0,
					0,
					0,
					0,
					0,
					0,
					0,
					-3.0357660829594124e-18,
					0,
					0,
					-3.0357660829594124e-18,
					-3.0357660829594124e-18,
					-3.0357660829594124e-18,
					-3.0357660829594124e-18,
					0,
					0
				]
			},
			"{\"Reject\": \"Job Description\"}": {
				"N": 100,
				"D": 183,
				"b": -1.1111671625954134,
				"kernelType": "linear",
				"w": [
					0,
					0,
					0,
					0,
					0.06320952589799221,
					0,
					-0.02930971800946546,
					-0.029309718009465455,
					-0.009429525749580569,
					-0.19301910369496425,
					0.16137319636369876,
					0.3317085942262461,
					-0.10581971183855447,
					-0.00942952574958057,
					-0.0342580786498631,
					-0.0342580786498631,
					0.141761728385114,
					0,
					0,
					0.007510857216621043,
					-0.003939848129354665,
					-0.36652163297857815,
					-0.1835895779453837,
					-1.734723475976807e-18,
					-0.0317687079639196,
					-0.07832410876535381,
					-0.02930971800946546,
					0.1395286549064959,
					0,
					0,
					-0.09548156328982398,
					0,
					-0.08551018289598214,
					0.19158545940718874,
					-0.15317794333807716,
					-1.734723475976807e-18,
					-0.01913678696525755,
					-0.01321760639511551,
					-0.01321760639511551,
					-1.734723475976807e-18,
					-0.10960779248408939,
					-0.013217606395115497,
					-0.01321760639511551,
					-0.01321760639511551,
					-0.11009281672927342,
					0,
					-0.029754111695117286,
					0,
					0,
					-1.734723475976807e-18,
					0,
					6.071532165918825e-18,
					6.071532165918825e-18,
					0,
					-0.09318128127179452,
					0,
					-0.007671098375812368,
					0.14346850303585057,
					-0.007671098375812366,
					0.2780953448051236,
					0.28785425874383225,
					-0.018551101568804112,
					-0.23868812623405933,
					-0.007671098375812366,
					-0.007671098375812366,
					0.2904953035097815,
					-0.007671098375812366,
					-0.128966925231399,
					0.06514439427049676,
					-0.007671098375812366,
					-0.007671098375812367,
					0,
					-0.1455068449622648,
					0.15113960141166294,
					0,
					-0.010880003192991736,
					-0.029754111695117276,
					1.0408340855860843e-17,
					1.0408340855860843e-17,
					1.0408340855860843e-17,
					-0.0783241087653538,
					0,
					0.4877875120954646,
					-0.00591918057014205,
					-0.00591918057014205,
					-0.013217606395115496,
					0,
					0,
					-8.673617379884035e-19,
					0,
					-8.673617379884035e-19,
					-8.673617379884035e-19,
					-0.010880003192991747,
					-0.013217606395115508,
					-8.673617379884035e-19,
					-0.024097609588107242,
					-8.673617379884035e-19,
					-8.673617379884035e-19,
					-0.010880003192991747,
					0,
					0,
					0,
					-6.505213034913027e-19,
					0,
					-0.013217606395115508,
					1.2685165418080402e-17,
					0,
					0,
					-0.029754111695117293,
					0,
					0.14768090895525607,
					0,
					0,
					0,
					0,
					-0.010880003192991747,
					-0.010880003192991747,
					-8.673617379884035e-19,
					0,
					0,
					0,
					-8.673617379884035e-19,
					0,
					0,
					0,
					-0.029754111695117293,
					-0.029754111695117293,
					-0.029754111695117293,
					-0.029754111695117293,
					-0.029754111695117293,
					0,
					0,
					0,
					0,
					0,
					0,
					0,
					0,
					0,
					0,
					0,
					-0.08226395689470847,
					-0.07832410876535381,
					-0.07832410876535381,
					-0.07832410876535381,
					0,
					0,
					0,
					0,
					0,
					-0.003939848129354665,
					0,
					0,
					0,
					0,
					0,
					0,
					0,
					0,
					0,
					0,
					0,
					0,
					0,
					0,
					0,
					0,
					0,
					0,
					0,
					0,
					0,
					0,
					0,
					0,
					0,
					0,
					0,
					0,
					0,
					0,
					0,
					0
				]
			},
			"{\"Offer\": {\"Pension Fund\": \"0%\"}}": {
				"N": 100,
				"D": 183,
				"b": -1.6894455555911083,
				"kernelType": "linear",
				"w": [
					0,
					0,
					0,
					0,
					0.27156753021554664,
					0,
					-0.04497684601455476,
					0.15944825297630166,
					1.734723475976807e-18,
					-0.2646404812667332,
					-0.5897265932789518,
					-0.053989257128435525,
					0.39322308419308455,
					0.11168568221798414,
					-0.014404985294600714,
					-0.014404985294600714,
					0.10341412972962533,
					0,
					0,
					-0.04595424565098759,
					-8.239936510889834e-18,
					0.31362976935771514,
					-0.2652738706038204,
					0.39432416966342093,
					-0.10946266762948766,
					-0.06485286142688046,
					-0.1489482778444055,
					0.36323171706982976,
					-0.06484826520927248,
					-0.06484826520927248,
					-0.18722750297178103,
					-0.11080251086026006,
					0.7708793689680218,
					-0.19576590077539796,
					-0.10901843015527707,
					-0.3070550679523295,
					0.2670703477663771,
					-0.08553679619842788,
					-0.08553679619842788,
					-0.06124257558015512,
					-0.369439071919254,
					0.2886899514520717,
					-0.0612471717977631,
					-0.0612471717977631,
					-0.1535834188913856,
					-0.06306418450428948,
					-0.06306418450428948,
					-0.06306418450428948,
					-0.06306418450428948,
					0.3312645813767394,
					-0.06306418450428948,
					-0.06306418450428948,
					-0.06306418450428948,
					-0.06306418450428948,
					0.25587413719807334,
					-0.06306418450428948,
					0.09198093384143141,
					-0.024923013737752037,
					-0.024923013737752034,
					-0.13703241399275673,
					-8.673617379884035e-18,
					0.3716952972134279,
					-0.2412216353981704,
					-0.024923013737752034,
					-1.734723475976807e-18,
					8.673617379884035e-19,
					-1.734723475976807e-18,
					-0.021031231913235558,
					-3.5236570605778894e-18,
					-1.734723475976807e-18,
					1.2441219929271163e-17,
					-0.0205327208850204,
					-1.7889335846010823e-18,
					-0.13703241399275673,
					-0.024289624400664785,
					-6.938893903907228e-18,
					-0.02103123191323555,
					0,
					0,
					0,
					0,
					0,
					-0.19576590077539796,
					0,
					0,
					-0.08682232328530787,
					0,
					-0.1791036850683053,
					-0.39306532842264846,
					-0.06124257558015512,
					0,
					0,
					-0.16404015717756854,
					0.20287859572399453,
					0,
					0.4187455196647644,
					1.1140177322288558e-17,
					1.1140177322288558e-17,
					-6.938893903907228e-18,
					0,
					0,
					0,
					0,
					-0.00959097440484855,
					-0.00959097440484856,
					-0.13703241399275673,
					0,
					-0.024289624400664785,
					4.336808689942018e-18,
					-0.0205327208850204,
					-1.7889335846010823e-18,
					-0.000004596217607981379,
					0,
					0,
					0,
					-3.903127820947816e-18,
					-6.938893903907228e-18,
					0,
					-0.16404015717756854,
					-0.16404015717756854,
					-0.16404015717756854,
					0,
					0.794024605194921,
					0,
					0,
					2.6020852139652106e-18,
					-0.021031231913235554,
					4.336808689942018e-18,
					2.6020852139652106e-18,
					2.6020852139652106e-18,
					-0.049103436683899326,
					-0.049103436683899326,
					0,
					0,
					0,
					0,
					0,
					0,
					0,
					0,
					0,
					-1.3010426069826053e-18,
					0,
					0,
					0,
					0,
					-0.024923013737752034,
					-0.024923013737752034,
					0,
					0,
					-1.3010426069826053e-18,
					0,
					0,
					-2.7755575615628914e-17,
					-2.7755575615628914e-17,
					-2.7755575615628914e-17,
					-2.7755575615628914e-17,
					-2.7755575615628914e-17,
					-2.7755575615628914e-17,
					0,
					0,
					3.0357660829594124e-18,
					3.0357660829594124e-18,
					-0.021031231913235558,
					-0.021031231913235558,
					-0.021031231913235558,
					0,
					0,
					0,
					-0.1780410719551529,
					-0.1780410719551529,
					-0.1780410719551529,
					0,
					0,
					0,
					0,
					0,
					0,
					0,
					0,
					0,
					-0.04497684601455476,
					-0.04497684601455476
				]
			},
			"{\"Offer\": {\"Pension Fund\": \"20%\"}}": {
				"N": 100,
				"D": 183,
				"b": -1.0000446530896356,
				"kernelType": "linear",
				"w": [
					0,
					0,
					0,
					0,
					0.0004668463762730786,
					-1.0842021724855044e-19,
					1.6263032587282567e-19,
					-0.00017724938147511943,
					-0.000020017902773567566,
					0.001219858400193452,
					-0.001014827089714232,
					-0.0006071157342085806,
					-0.0008111421681193491,
					0.000027006623299907773,
					0.00012966243202197208,
					0.0016183796121121098,
					-0.0005756573651510423,
					-0.0005892503772560617,
					-0.0005892503772560618,
					-0.0007342381541622834,
					0.0008552867539326554,
					-0.0003723364491002407,
					0.0015278998840040359,
					0.00008606565192822513,
					-0.0029110950609453345,
					0.0008745508221923172,
					0.000014982051797111603,
					0.0002694449600206157,
					0,
					0,
					-0.00046780019196386233,
					-0.0003512803402460731,
					0.002955361491453413,
					-0.0005236232881181951,
					-5.421010862427522e-19,
					-0.000014830694274450774,
					-0.000869326469012454,
					0.0000994830620366649,
					0.0000994830620366649,
					0.0007268100628867735,
					0.0006461670898898061,
					-0.001606209265475389,
					0.00002388017875754045,
					0.00002388017875754045,
					0.0015568714872096212,
					0,
					3.5236570605778894e-19,
					0,
					0,
					-0.0005093138702901394,
					0,
					0,
					0,
					0,
					-0.0005236232881181524,
					0,
					0.0003274143437307815,
					-2.168404344971009e-19,
					0,
					0.00013359826691977593,
					0.0003100790772820665,
					-0.0003465534836929288,
					-0.0007299158514580462,
					0,
					0,
					-4.2378752417027155e-17,
					0,
					-0.0003512803402460727,
					1.2197274440461925e-19,
					0,
					0.00009228071920227692,
					-1.3552527156068805e-19,
					-2.168404344971009e-19,
					-0.0001764808103623335,
					-0.00013068968006076928,
					0.0009946915449623233,
					-4.0657581468206416e-19,
					-6.505213034913027e-19,
					0,
					0,
					3.3881317890172014e-19,
					-0.0005086142412223133,
					-0.0005236232881181951,
					0,
					0,
					-0.0016759059118614849,
					0,
					0.00003448736133107095,
					1.9969242497101496,
					0.0017925081730898462,
					-0.00019829686786340065,
					-0.00019829686786340065,
					-0.0005448503515563294,
					-0.00007815788423048975,
					0.0009946915449623233,
					0.0011103901378315339,
					0.0002979877332116021,
					0.0002979877332116021,
					-0.00019829686786340065,
					-0.0006135557913693392,
					-0.00020629256333989379,
					-4.336808689942018e-19,
					-8.131516293641283e-20,
					-0.0004456739742700333,
					0.0002276892723323137,
					0.00008143512556828064,
					0.0005854640356648903,
					0.00007560288327912446,
					2.439454888092385e-19,
					-1.3552527156068805e-19,
					-4.290730097611384e-17,
					0.0011846298994744261,
					-6.505213034913027e-19,
					-7.589415207398531e-19,
					-6.505213034913027e-19,
					-0.00022904757915773606,
					0,
					0.0009946915449623238,
					-0.0003465534836929288,
					-0.0003465534836929288,
					-0.00034655348369292836,
					0,
					-0.0013588200373949688,
					-0.00014498777690617938,
					-0.00014498777690617938,
					-2.710505431213761e-20,
					-2.710505431213761e-20,
					2.439454888092385e-19,
					-2.710505431213761e-20,
					-2.710505431213761e-20,
					-2.710505431213761e-19,
					0,
					0,
					0,
					0,
					0,
					0,
					0,
					0,
					0,
					0,
					-0.00029874930838135437,
					3.3881317890172014e-19,
					3.3881317890172014e-19,
					3.3881317890172014e-19,
					0,
					2.710505431213761e-19,
					0,
					0,
					0,
					-0.0002987493083813547,
					0,
					-0.00020629256333989373,
					0,
					0,
					0,
					0,
					0,
					0,
					0,
					0,
					-0.00022904757915773606,
					-0.00022904757915773606,
					0,
					0,
					0,
					-1.0842021724855044e-19,
					-1.0842021724855044e-19,
					-1.0842021724855044e-19,
					0,
					0,
					0,
					-1.6263032587282567e-19,
					-1.6263032587282567e-19,
					0,
					0,
					0,
					0,
					0,
					0,
					0,
					0,
					0
				]
			},
			"{\"Offer\": {\"Leased Car\": \"Without leased car\"}}": {
				"N": 100,
				"D": 183,
				"b": -1.83118687439217,
				"kernelType": "linear",
				"w": [
					0,
					0,
					0,
					0,
					-0.2376390640452941,
					0,
					0,
					0.0987938784109339,
					0,
					0.15860695865767893,
					0.6194229729577955,
					-0.19423299610966002,
					-0.04969809742209222,
					0.03206309412686206,
					0.04296938243506557,
					0.04296938243506557,
					0.03788781700974425,
					-0.05949598081616854,
					0.06076701537405214,
					-0.023996448164883555,
					-0.02399644816488355,
					-0.09334207769470927,
					0.2891395467718982,
					0.29833168192963405,
					-0.0827230185851266,
					0.19745034074380546,
					0.17183480830320635,
					-0.11860956041747638,
					6.938893903907228e-18,
					6.938893903907228e-18,
					0.05094773598054504,
					6.938893903907228e-18,
					-0.5094581856619262,
					0,
					-2.2985086056692694e-17,
					-0.08037121538907008,
					0.1388794006141828,
					-0.04496228219857243,
					-0.094226213086223,
					-0.32198478857309604,
					0.8710595076335261,
					0.28700047934759276,
					-0.04892058936622942,
					-0.04892058936622942,
					0.1334138734246243,
					4.336808689942018e-18,
					-9.540979117872439e-18,
					1.3877787807814457e-17,
					4.336808689942018e-18,
					4.336808689942018e-19,
					0,
					-1.3877787807814457e-17,
					-1.3877787807814457e-17,
					0,
					-0.10941742525974076,
					0,
					-0.14060168598813802,
					-6.071532165918825e-18,
					-1.3010426069826053e-17,
					0.08021388028272344,
					0.034648798622217855,
					-0.19964641598823502,
					0.08476346353893563,
					-1.3010426069826053e-17,
					-1.3010426069826053e-17,
					-2.168404344971009e-19,
					-1.3010426069826053e-17,
					-1.3010426069826053e-17,
					-6.071532165918825e-18,
					-1.3010426069826053e-17,
					0.22951165527566889,
					-0.03549953265128499,
					-0.035499532651284985,
					0.010065549009220603,
					0.003958307167657105,
					0.3260571998822946,
					-1.3877787807814457e-17,
					0,
					-1.214306433183765e-17,
					0,
					0,
					-0.04972743174294045,
					9.540979117872439e-18,
					4.336808689942018e-19,
					-1.1709383462843448e-17,
					2.000072163454919,
					0,
					0.255451170931158,
					0.0003938653483160637,
					0.038821569596689795,
					0.16562110831003174,
					0.16562110831003174,
					0.07539211758153748,
					-0.08257242765972145,
					0.41628619061078886,
					-0.2531954733292312,
					0.09384036211493807,
					0.09384036211493807,
					0.07539211758153748,
					0.038173565842864826,
					0,
					-1.2793585635328952e-17,
					0.08476346353893566,
					-0.43743961763587713,
					-0.2506650823007571,
					0.032059715333291744,
					0,
					-0.04530562371999358,
					0,
					0,
					6.938893903907228e-18,
					0.3223281300945176,
					0,
					0,
					0,
					-0.09022899072849426,
					-0.09022899072849426,
					0.25674503785874814,
					2.168404344971009e-19,
					2.168404344971009e-19,
					0,
					0,
					-1.0842021724855044e-18,
					0,
					0,
					0,
					-1.734723475976807e-18,
					0,
					-1.214306433183765e-17,
					0,
					3.122502256758253e-17,
					0,
					-1.214306433183765e-17,
					-1.214306433183765e-17,
					-1.214306433183765e-17,
					-1.214306433183765e-17,
					-1.214306433183765e-17,
					-1.214306433183765e-17,
					-1.214306433183765e-17,
					-1.214306433183765e-17,
					-1.214306433183765e-17,
					-1.2793585635328952e-17,
					0,
					0,
					0,
					0,
					0,
					0,
					9.540979117872439e-18,
					0,
					0,
					0,
					0,
					0,
					0,
					0,
					0,
					0,
					0,
					0.08476346353893566,
					-1.2793585635328952e-17,
					0,
					0,
					0,
					0,
					0,
					0,
					0,
					0,
					0,
					0,
					0,
					3.2959746043559335e-17,
					3.2959746043559335e-17,
					-1.734723475976807e-18,
					-1.734723475976807e-18,
					-1.734723475976807e-18,
					0,
					0,
					0,
					0,
					0,
					0
				]
			},
			"{\"Offer\": {\"Working Hours\": \"8 hours\"}}": {
				"N": 100,
				"D": 183,
				"b": -1.306937302880213,
				"kernelType": "linear",
				"w": [
					0,
					0,
					0,
					0,
					-0.03807065957759457,
					0,
					-1.3010426069826053e-18,
					0.14365700569794138,
					-0.03156790554805022,
					0.10218508986260932,
					-0.02694275741163403,
					0.15339882915042669,
					0.17020847358039168,
					-0.00556157012388061,
					-0.027131429897037235,
					-0.027131429897037235,
					-0.07726217368244356,
					0,
					-1.6263032587282567e-18,
					-0.09910289454282116,
					6.071532165918825e-18,
					0.12586998867898092,
					0.09979399959559818,
					-0.06952768585183,
					-0.36765051780226937,
					-0.028476011516947043,
					-0.0284250563788146,
					0.017480205398878776,
					-0.024801459469350074,
					-0.024801459469350074,
					0.037372945908548616,
					0.08521197167741817,
					0.13569711572871446,
					-0.027120014879378818,
					-0.00828799225185065,
					-0.08447590394378583,
					0.06262118368790892,
					-0.15614093066106022,
					-0.15614093066106022,
					-0.10458322409941415,
					0.03324207014645042,
					-0.10458322409941415,
					-0.10458322409941415,
					-0.10458322409941415,
					0.23260505306736606,
					0,
					0,
					0,
					0,
					-0.06952768585183,
					0,
					0,
					0,
					0,
					-0.10328581243121329,
					0,
					-0.17411090995124415,
					-0.004664395342386128,
					-0.004664395342386128,
					-4.336808689942018e-19,
					0,
					-0.07616579755183447,
					0.16374572330171075,
					-0.004664395342386128,
					0,
					-0.0099625952566492,
					0,
					0.10920473254130103,
					-0.0036745520475969643,
					0,
					-0.0032277737375866478,
					-0.0017985419002563884,
					0,
					-4.336808689942018e-19,
					0.14397242696182963,
					0.11010819277269496,
					-1.734723475976807e-18,
					0,
					0,
					0,
					-0.0036745520475969643,
					0,
					-0.027120014879378818,
					0,
					0,
					0.1017552569363395,
					0,
					0.8591347009151439,
					0.14823185691322932,
					0.34503354102467615,
					0.10830965087243855,
					0.11010819277269496,
					0.11010819277269496,
					0.09328130559716825,
					0.11010819277269496,
					-0.06170897430369851,
					-0.0032277737375866478,
					-0.0032277737375866478,
					0.11010819277269496,
					-0.018342086035570034,
					0.1955301335234757,
					0,
					0,
					-0.11333596651028159,
					0,
					-0.018342086035570034,
					0,
					-0.05155770656164607,
					0,
					6.938893903907228e-18,
					0,
					0,
					0,
					0,
					0,
					-4.336808689942018e-19,
					-4.336808689942018e-19,
					-0.2573144053382012,
					-4.336808689942018e-19,
					-4.336808689942018e-19,
					0,
					0,
					0,
					-0.08085230703432131,
					-0.08085230703432131,
					0,
					-0.003623596909464524,
					0,
					0,
					0,
					-0.0036235969094645273,
					-3.469446951953614e-18,
					0,
					0,
					0,
					0,
					0,
					0,
					-1.734723475976807e-18,
					0,
					0,
					-0.0036745520475969643,
					-0.0036745520475969643,
					-0.0036745520475969643,
					-0.0036745520475969643,
					-1.734723475976807e-18,
					-0.004664395342386128,
					-0.004664395342386128,
					0,
					1.0842021724855044e-18,
					0,
					-0.0017985419002563936,
					0.1955301335234757,
					0,
					0,
					0,
					0,
					0,
					0,
					0,
					0,
					0,
					0,
					-1.734723475976807e-18,
					-1.734723475976807e-18,
					-1.734723475976807e-18,
					0,
					0,
					0,
					0,
					0,
					0,
					-1.6263032587282567e-18,
					-1.6263032587282567e-18,
					-0.003623596909464522,
					-0.003623596909464522,
					-0.003623596909464522,
					0,
					0,
					0,
					0,
					-1.3010426069826053e-18,
					-1.3010426069826053e-18
				]
			},
			"{\"Offer\": {\"Salary\": \"20,000 NIS\"}}": {
				"N": 100,
				"D": 183,
				"b": -1.3056568649045026,
				"kernelType": "linear",
				"w": [
					0,
					-1.951563910473908e-18,
					-1.951563910473908e-18,
					-1.951563910473908e-18,
					0.11678810848974608,
					-3.469446951953614e-18,
					-3.469446951953614e-18,
					-0.1857140280765669,
					-0.032849425334656276,
					-0.09135853740324029,
					0.24307503213995985,
					-0.11690099062755505,
					-0.09746993442894147,
					-0.08676136091231679,
					0.24411821804483883,
					0.24411821804483883,
					-0.8297101938223104,
					-1.734723475976807e-18,
					8.673617379884035e-19,
					-0.07060330539911902,
					0.2731800373512855,
					-0.017066122166019437,
					0.048247100812665256,
					-0.0007798246900622834,
					-0.006884843328809788,
					-0.08261287753512234,
					-0.14641014081779768,
					0.2897103643919049,
					-0.050362501453173086,
					-0.050362501453173086,
					0.135037202549678,
					0.07407835590267418,
					-0.08345755033263313,
					0,
					-0.09755567207083504,
					-0.006271583525713717,
					0.08578736049254632,
					-0.058509112068584,
					-0.058509112068584,
					0.04746727612260293,
					-0.006926839715742236,
					0.048247100812665256,
					0.048247100812665256,
					0.048247100812665256,
					0.04357727308464965,
					0,
					5.204170427930421e-18,
					0,
					0,
					0,
					0,
					0,
					0,
					0,
					-0.06772806774937659,
					0,
					-0.08615346786912914,
					-0.03979161707494618,
					-0.03835292931716977,
					-0.040571441765008466,
					-0.03835292931716977,
					-0.06694824305931431,
					0.10891240689119512,
					-0.061957232859749675,
					-0.03835292931716977,
					-0.07204199315689544,
					-0.03835292931716977,
					-0.01860578386531643,
					-0.07204199315689544,
					-0.03835292931716977,
					0.04182465677781638,
					-3.469446951953614e-18,
					-3.469446951953614e-18,
					-0.0014386877577764181,
					0.04128894801717789,
					-0.031795479164158855,
					-0.03481861452102308,
					-0.034818614521023084,
					-0.03559843921108537,
					-0.034818614521023084,
					-0.06706899060297233,
					0,
					-0.0014386877577764095,
					0,
					-0.0007798246900622851,
					0.0005909466899413213,
					-0.023604303542579908,
					0.1510682962552914,
					-0.0005909466899398667,
					1.1702989280945328,
					0.0030231353568642362,
					0.0030231353568642362,
					0.0030231353568642345,
					0.08578736049254632,
					0.003023135356864226,
					-0.02657862678626316,
					0.14429647256113018,
					0.14429647256113018,
					0.0030231353568642345,
					-0.10675621288124928,
					0.14804516089842717,
					0,
					0,
					0.14127333720426596,
					1.0408340855860843e-17,
					-0.10675621288124928,
					0,
					-0.10675621288124928,
					5.204170427930421e-18,
					0,
					0,
					0,
					0,
					0,
					0,
					-0.06411888646614403,
					-1.734723475976807e-18,
					-1.734723475976807e-18,
					0,
					0,
					0,
					2.168404344971009e-18,
					0,
					0,
					0,
					5.204170427930421e-18,
					5.204170427930421e-18,
					5.204170427930421e-18,
					-0.0007798246900622799,
					5.204170427930421e-18,
					-8.673617379884035e-19,
					0,
					-0.0007798246900622851,
					-0.0007798246900622851,
					-0.0007798246900622851,
					-0.0007798246900622851,
					-0.0007798246900622851,
					-0.0007798246900622851,
					-0.0007798246900622851,
					-0.0007798246900622851,
					-0.0007798246900622851,
					0.3635607589786395,
					-0.03225037608194926,
					-0.03225037608194926,
					-0.03225037608194926,
					0,
					0,
					0,
					0,
					0,
					0.39581113506058874,
					0,
					0.14804516089842717,
					0,
					0,
					0,
					0,
					0,
					0,
					0,
					0,
					-0.06411888646614403,
					-0.06411888646614403,
					0,
					0,
					0,
					0,
					0,
					0,
					0,
					0,
					0,
					-8.673617379884035e-19,
					-8.673617379884035e-19,
					0,
					0,
					0,
					0,
					0,
					0,
					0,
					0,
					0
				]
			},
			"{\"Offer\": {\"Salary\": \"7,000 NIS\"}}": {
				"N": 100,
				"D": 183,
				"b": -1.0212097838533363,
				"kernelType": "linear",
				"w": [
					0,
					-2.168404344971009e-19,
					-2.168404344971009e-19,
					-2.168404344971009e-19,
					-0.03202191030207132,
					0,
					-0.049336873996959435,
					0.034146078026427606,
					-0.010839839026142026,
					0.07378073675440142,
					0.05237292295050711,
					-0.015742705616127964,
					0.16789642395806828,
					-0.23148007744465307,
					-0.007174725867448535,
					-0.007174725867448535,
					-0.4108846399476937,
					0,
					-0.01733061303918738,
					-0.009469830069196182,
					0,
					-0.05707156545130196,
					-0.012205754277385092,
					-0.0260386726327804,
					-0.09440252290752107,
					0.09510233537706675,
					-0.06514791620813663,
					-0.02715296997326454,
					0,
					0,
					0.04588214893746176,
					-0.016504947213908366,
					-0.037316574528171186,
					-0.06240274549566936,
					0.1156344396510767,
					-0.004566963479210231,
					0.18006734342885947,
					0.06728996274135608,
					0.08462057578054347,
					-0.029536367316572474,
					-0.02700935640540774,
					-0.012205754277385093,
					-0.012205754277385093,
					-0.012205754277385093,
					-0.04874023024624352,
					0,
					-0.1280193015730326,
					-0.012587982438850074,
					0,
					0,
					0,
					-0.013343378034541505,
					0,
					0,
					0,
					-0.013343378034541505,
					-0.012205754277385093,
					0,
					0,
					-0.013343856524913869,
					-0.013343856524913869,
					-0.06312788197278404,
					-0.08948373790003185,
					-0.016504947213908393,
					0,
					-0.004902866589985944,
					0,
					-0.004902866589985919,
					-0.004902866589985947,
					0,
					-0.0701605169987031,
					0.1721583268278972,
					0,
					0,
					0.07949571701874118,
					-0.06607474265851052,
					-0.013343378034541505,
					0,
					0,
					0,
					-0.004902866589985947,
					0,
					-0.012587982438850074,
					0,
					0,
					0.062066086153634695,
					-0.016504947213908393,
					-0.05273088613359662,
					-0.06493664041098174,
					-0.05273088613359662,
					0.08139199346824173,
					0.09457772089107944,
					0.031449838918295406,
					-0.028689281424070203,
					-0.05273088613359664,
					0.002527010911164711,
					0.09457772089107944,
					0.09457772089107944,
					-0.07926047008134822,
					1.0621220690679771,
					0.2971692651659317,
					0.39914989410618384,
					0.14710457453697343,
					1.4094628242311558e-18,
					1.4094628242311558e-18,
					0.29446586857590773,
					-0.01220575427738509,
					0.09682633005792854,
					-0.06058095272892639,
					0,
					0,
					0,
					0,
					0,
					0,
					0.10334939221181803,
					0.1207790230769245,
					0.14730860702467607,
					0.0843388541539682,
					0.0843388541539682,
					-0.049784025447870174,
					0,
					0,
					0,
					0,
					0,
					-0.004566963479210237,
					0,
					0,
					0,
					-0.017910341513751742,
					0,
					0,
					0,
					0,
					0,
					0,
					0,
					0.1721583268278972,
					0,
					0,
					-0.030941539222766348,
					-0.004902866589985947,
					-0.004902866589985947,
					-0.004902866589985947,
					0.1721583268278972,
					0,
					0,
					-0.012587982438850074,
					-0.01038025221666921,
					0,
					0,
					2.7755575615628914e-17,
					1.734723475976807e-18,
					1.734723475976807e-18,
					1.734723475976807e-18,
					1.734723475976807e-18,
					1.734723475976807e-18,
					1.734723475976807e-18,
					-0.01733061303918738,
					-0.0260386726327804,
					-0.01742963086510646,
					-0.01742963086510646,
					0,
					0,
					0,
					0,
					0,
					0,
					0,
					0,
					0,
					0,
					0,
					-0.017910341513751742,
					-0.004566963479210237,
					-0.004566963479210237,
					-0.013343378034541505,
					-0.013343378034541505,
					-0.013343378034541505,
					-0.013343378034541505,
					-0.049336873996959435,
					-0.049336873996959435
				]
			},
			"{\"Offer\": {\"Promotion Possibilities\": \"Slow promotion track\"}}": {
				"N": 100,
				"D": 183,
				"b": -1.2879992367270399,
				"kernelType": "linear",
				"w": [
					0,
					0,
					0,
					0,
					-0.02387193083816122,
					0,
					-1.734723475976807e-18,
					-0.18256987801745506,
					0,
					-0.06714130216454019,
					0.030250699674443035,
					-0.04189585074138984,
					0.05157703815761173,
					-0.926455730965809,
					0.2296790545110591,
					0.051912636213204494,
					0.07150559519955113,
					1.3877787807814457e-17,
					-0.0036136844838396244,
					1.919037845299343e-17,
					1.3877787807814457e-17,
					-0.05946620845593226,
					-0.032191358791320054,
					-0.023661165180772558,
					0.13537919400331178,
					-0.008416139134932846,
					-0.12938524908361762,
					-0.05585252397209262,
					0,
					0,
					-0.015258835550786515,
					-2.531612072753653e-17,
					0.19679744056343856,
					-0.012226779771214372,
					-0.010132807618832016,
					-0.03906868629930981,
					0.12499730121780922,
					0.026637015190603394,
					0.030250699674443035,
					-0.01757035771454237,
					0.1243812744238903,
					-0.07852675197249695,
					0.06520064304766322,
					0.06520064304766322,
					0.09748331682401726,
					0,
					0,
					0,
					0,
					-0.02366116518077257,
					0,
					0,
					0,
					0,
					-0.012226779771214374,
					0,
					-0.03761783841147531,
					1.1655173354219173e-17,
					0,
					0.01490961526072374,
					-0.047561465090724966,
					-0.0720490342410192,
					-0.02425660338998686,
					-2.531612072753653e-17,
					0,
					0.07915731627836597,
					0,
					0.060598460310395015,
					1.1763593571467723e-17,
					0,
					-0.6452582876874073,
					-0.018558855967970946,
					0,
					0.06247108035144871,
					-0.03856362785705979,
					-0.1650803792310811,
					-1.734723475976807e-18,
					0,
					-2.222614453595284e-18,
					0,
					1.0842021724855044e-19,
					1.3877787807814457e-17,
					-0.01222677977121436,
					-1.0842021724855044e-19,
					-2.3310346708438345e-18,
					0.07813273573270763,
					-2.531612072753653e-17,
					-0.05644482393305929,
					0.07836139934053707,
					-0.03821013837244196,
					0.14125095838676988,
					0.22259571690660082,
					0.15054668266558163,
					0.22202918077723055,
					-0.11751891414035612,
					0.1057576998667294,
					-0.17575840755683272,
					-0.17575840755683272,
					0.11224834926401589,
					0.07314298842272957,
					0,
					0,
					-0.012029823618772483,
					0.12119943780623599,
					0.7280961276316531,
					1.0732969455326227,
					0.0018398322284969826,
					-0.034949943373220146,
					-1.734723475976807e-18,
					0,
					0.07915731627836596,
					0,
					0,
					0,
					0,
					-0.11034736764258496,
					-0.11034736764258496,
					-0.07930877576791415,
					-0.0872734717021542,
					-0.0872734717021542,
					-0.03462037676912622,
					0,
					-0.11874861985806189,
					0,
					0,
					0,
					5.204170427930421e-18,
					-1.734723475976807e-18,
					-2.222614453595284e-18,
					0,
					5.204170427930421e-18,
					0,
					-2.222614453595284e-18,
					-2.222614453595284e-18,
					-2.222614453595284e-18,
					-2.222614453595284e-18,
					-2.222614453595284e-18,
					-2.222614453595284e-18,
					-2.222614453595284e-18,
					-2.222614453595284e-18,
					-2.222614453595284e-18,
					1.0842021724855044e-19,
					1.0842021724855044e-19,
					1.0842021724855044e-19,
					1.0842021724855044e-19,
					0,
					-1.734723475976807e-18,
					0,
					0,
					0,
					0,
					-0.018558855967970946,
					0,
					0,
					0,
					0,
					0,
					0,
					0,
					-0.0036136844838396383,
					0,
					0,
					0,
					0,
					0,
					0,
					0,
					0,
					0,
					0,
					0,
					0,
					0,
					0,
					5.204170427930421e-18,
					5.204170427930421e-18,
					5.204170427930421e-18,
					0,
					0,
					0,
					0,
					0,
					0
				]
			},
			"{\"Offer\": {\"Leased Car\": \"No agreement\"}}": {
				"N": 100,
				"D": 183,
				"b": -1.1934266064408146,
				"kernelType": "linear",
				"w": [
					0,
					0,
					0,
					0,
					-0.0027327193081047104,
					0,
					0,
					0,
					0,
					0,
					-0.01074034972004131,
					0,
					-0.08646000656475789,
					2.168404344971009e-19,
					-0.10010012457035439,
					-0.10010012457035439,
					0.10046468517911109,
					0,
					-4.7704895589362195e-18,
					0,
					0,
					-0.010471609281444694,
					-0.007738889973339976,
					0,
					0.13695660660093356,
					-0.00005697951463004298,
					0,
					-0.0027327193081047125,
					0,
					0,
					-0.013473069028146028,
					-0.01074034972004131,
					-0.07667578418536863,
					2.6020852139652106e-18,
					0.0572893970940284,
					0,
					0.1334133462767921,
					-4.7704895589362195e-18,
					0,
					-4.7704895589362195e-18,
					-0.15349751100817116,
					-4.336808689942018e-19,
					0,
					0,
					0.05656133467080277,
					0,
					-1.0842021724855044e-18,
					0,
					0,
					0,
					0,
					0,
					0,
					0,
					0,
					0,
					-0.002732719308104713,
					0,
					0,
					-0.05339738643781676,
					-0.05339738643781676,
					-0.1300731706231854,
					-4.553649124439119e-18,
					-0.01074034972004131,
					0,
					0,
					0,
					-0.03300564061231107,
					0,
					0,
					-0.059876337421463637,
					-0.03306262012694112,
					0,
					-4.336808689942018e-19,
					-4.7704895589362195e-18,
					-0.11327372385928039,
					-0.007738889973339976,
					-0.007738889973339976,
					0,
					0,
					0,
					0,
					0,
					-0.01985884783779807,
					-0.01985884783779807,
					-5.204170427930421e-18,
					-0.01074034972004131,
					0,
					-0.059876337421463637,
					0,
					0.27821788154587523,
					0.055061504650506986,
					-0.07501166597267842,
					-0.11689957133425939,
					-0.059876337421463637,
					-0.15349751100817116,
					0.055061504650506986,
					0.055061504650506986,
					0.10266450649950815,
					0.15047801456351026,
					-0.004626635142721068,
					-0.004626635142721067,
					-0.004626635142721073,
					-0.04022378714889076,
					-0.04022378714889076,
					-4.336808689942018e-19,
					0,
					0,
					0,
					2.168404344971009e-19,
					0,
					0,
					-0.007738889973339976,
					-0.007738889973339976,
					-0.007738889973339976,
					0.35792626029072394,
					0.35792626029072394,
					0.09528529179939774,
					0.3346478625431721,
					0.3346478625431721,
					-0.07667578418536863,
					0,
					0,
					0,
					0,
					0,
					0,
					0,
					0,
					0,
					0,
					0,
					0,
					0,
					0,
					0,
					0,
					0,
					-0.00005697951463004298,
					0,
					0,
					0,
					0,
					0,
					0,
					-0.00005697951463004298,
					0,
					0,
					0,
					0,
					0,
					-0.03300564061231107,
					0,
					0,
					0,
					0,
					0,
					0,
					0,
					-4.7704895589362195e-18,
					0,
					0,
					0,
					0,
					0,
					0,
					0,
					0,
					0,
					-0.002732719308104713,
					-0.002732719308104713,
					-0.002732719308104713,
					0,
					0,
					0,
					0,
					0,
					0,
					0,
					0,
					0,
					0,
					0
				]
			},
			"{\"Offer\": {\"Job Description\": \"QA\"}}": {
				"N": 100,
				"D": 183,
				"b": -1.3937253253212964,
				"kernelType": "linear",
				"w": [
					0,
					0,
					0,
					0,
					-0.01835442551902044,
					0,
					3.469446951953614e-18,
					2.6291902682773483e-18,
					0,
					-6.2341624917916505e-19,
					-0.018503844402057053,
					-0.01912299087051579,
					-0.0342651513179925,
					-0.019122990870515787,
					0.01569020767653405,
					0.01569020767653405,
					0.15428747080128233,
					-1.0842021724855044e-18,
					-1.734723475976807e-18,
					-0.00014941888303661232,
					-1.734723475976807e-18,
					-0.00014941888303661492,
					3.496552006265752e-18,
					-2.574980159653073e-18,
					0.26669099517817246,
					4.607859233063394e-19,
					4.580754178751256e-18,
					-0.01850384440205705,
					0,
					0,
					-1.2739375526704677e-18,
					8.673617379884035e-19,
					-0.019122990870515787,
					3.469446951953614e-18,
					0.12754568482436693,
					-9.974659986866641e-18,
					-0.09328053350637452,
					1.111307226797642e-18,
					4.607859233063394e-19,
					-6.505213034913027e-19,
					0.000697466112093936,
					4.607859233063394e-19,
					4.607859233063394e-19,
					4.607859233063394e-19,
					-0.1276951037074036,
					0,
					0,
					0,
					0,
					0,
					0,
					0,
					0,
					0,
					-0.00014941888303661753,
					0,
					-0.00014941888303661427,
					-0.00014941888303661492,
					-0.00014941888303661492,
					-0.01529157933051333,
					-0.015291579330513328,
					-0.01529157933051333,
					-0.00014941888303661536,
					-0.00014941888303661492,
					-0.00014941888303661492,
					-0.00014941888303661492,
					-0.00014941888303661492,
					-0.00014941888303661406,
					-0.00014941888303661492,
					-0.00014941888303661492,
					0.17937555308723613,
					6.505213034913027e-19,
					6.505213034913027e-19,
					6.505213034913027e-19,
					6.505213034913027e-19,
					0.14602838600377557,
					-0.01835442551902043,
					-0.01835442551902043,
					-0.018354425519020435,
					-0.018354425519020435,
					-0.018354425519020435,
					0,
					0,
					-2.3310346708438345e-18,
					-3.63207727782644e-18,
					6.071532165918825e-18,
					0,
					-0.26669099517817263,
					0.16040198109975695,
					-0.26669099517817263,
					0.09445599622495407,
					0.22269914716141503,
					0.20755698671393832,
					-0.4112533497183589,
					0.17952497197027273,
					0.000697466112093936,
					0.22269914716141503,
					0.22269914716141503,
					-0.10842269395385123,
					0.18773652973132862,
					1.3010426069826053e-18,
					1.3010426069826053e-18,
					1.3010426069826053e-18,
					-0.1445623545401863,
					-0.1445623545401863,
					0,
					0,
					0,
					0,
					0,
					0,
					4.607859233063394e-19,
					3.903127820947816e-18,
					3.903127820947816e-18,
					3.903127820947816e-18,
					0.044351218347390954,
					0.04435121834739095,
					0.633952496879774,
					0.05949337879486766,
					0.05949337879486766,
					2.6020852139652106e-18,
					0,
					0,
					8.673617379884035e-19,
					8.673617379884035e-19,
					0,
					0,
					0,
					-1.3010426069826053e-18,
					0,
					-2.3852447794681098e-18,
					-2.3852447794681098e-18,
					-1.3010426069826053e-18,
					-1.3010426069826053e-18,
					-1.3010426069826053e-18,
					-1.3010426069826053e-18,
					-1.3010426069826053e-18,
					-1.3010426069826053e-18,
					-1.3010426069826053e-18,
					-1.3010426069826053e-18,
					-1.3010426069826053e-18,
					0,
					0,
					0,
					0,
					0,
					0,
					0,
					0,
					0,
					0,
					0,
					0,
					0,
					0,
					0,
					0,
					0,
					0,
					0,
					0,
					7.37257477290143e-18,
					7.37257477290143e-18,
					0,
					0,
					0,
					0,
					0,
					0,
					0,
					0,
					0,
					0,
					0,
					0,
					0,
					0,
					0,
					0,
					0,
					0,
					0,
					0
				]
			},
			"{\"Offer\": {\"Pension Fund\": \"No agreement\"}}": {
				"N": 100,
				"D": 183,
				"b": -0.9662176002613643,
				"kernelType": "linear",
				"w": [
					0,
					-0.01128475795897898,
					-0.01128475795897898,
					-0.01128475795897898,
					-0.09931278083757243,
					0,
					0,
					-0.07334498648531966,
					0,
					0,
					-6.288372600415926e-18,
					-6.288372600415926e-18,
					-0.028416281933556865,
					1.5178830414797062e-17,
					-0.03324531688564272,
					-0.015367487371457947,
					-0.03464731147160602,
					0,
					0,
					1.8973538018496328e-19,
					-0.025967794352252774,
					-0.07334498648531966,
					-2.710505431213761e-20,
					0,
					-0.23074339442849143,
					-1.0408340855860843e-17,
					-0.01118667955519284,
					-0.07334498648531966,
					0,
					0,
					-2.710505431213761e-20,
					-2.710505431213761e-20,
					0.13279750113895938,
					2.168404344971009e-19,
					-0.18559583470922492,
					-0.017877829514184762,
					-0.050014798843063986,
					0,
					0,
					0,
					-0.04378376930501482,
					1.6479873021779667e-17,
					0,
					0,
					-0.06051504709072447,
					-0.0086027601920409,
					-0.0086027601920409,
					-0.0086027601920409,
					-0.0086027601920409,
					0,
					0,
					8.673617379884035e-19,
					0,
					0,
					-0.07334498648531966,
					8.673617379884035e-19,
					0,
					-6.532318089225164e-18,
					-2.710505431213761e-20,
					-0.010538452419372095,
					-0.010538452419372088,
					0.2993731156396294,
					-1.1302807648161384e-17,
					-2.710505431213761e-20,
					0,
					-6.288372600415926e-18,
					0,
					0,
					-6.5052130349130266e-18,
					0,
					-0.015367487371457962,
					2.6020852139652106e-18,
					0,
					-6.5052130349130266e-18,
					0,
					-0.02590593979083005,
					8.673617379884035e-19,
					0,
					0,
					0,
					0,
					0,
					-6.288372600415926e-18,
					-0.00003820417171160762,
					-0.00003820417171160762,
					-0.07334498648531965,
					0,
					-0.015367487371457962,
					-0.04133528172371074,
					-0.015367487371457962,
					-0.084426156812788,
					-0.06769487902707835,
					0.30502322309787067,
					0.35001123765867836,
					-0.015367487371457962,
					-0.02590593979083005,
					-0.06769487902707835,
					-0.06769487902707835,
					-0.0426372175765397,
					-0.05232739165562039,
					0,
					0,
					-0.011186679555192851,
					2.168404344971009e-19,
					0,
					-0.017877829514184776,
					0,
					0,
					-0.01118667955519284,
					8.673617379884035e-19,
					2.168404344971009e-19,
					0,
					0,
					-0.006720490028874864,
					0,
					-0.07959712186070213,
					-0.07959712186070213,
					-0.05232739165562039,
					0.31419788510299107,
					0.31419788510299107,
					0.2499881114907166,
					0,
					0,
					0,
					0,
					0,
					0,
					0,
					0,
					0,
					-0.006720490028874863,
					0,
					0,
					0,
					0,
					0,
					0,
					0,
					1.734723475976807e-18,
					0,
					0,
					0,
					0,
					0,
					0,
					1.734723475976807e-18,
					-2.710505431213761e-20,
					-2.710505431213761e-20,
					0,
					0,
					0,
					0,
					0,
					0,
					0,
					0,
					0,
					0,
					0,
					0,
					0,
					0,
					0,
					0,
					0,
					0,
					-0.006720490028874864,
					-0.006720490028874864,
					-0.006720490028874864,
					0,
					0,
					0,
					0,
					0,
					8.673617379884035e-19,
					0,
					0,
					8.673617379884035e-19,
					8.673617379884035e-19,
					8.673617379884035e-19,
					8.673617379884035e-19,
					0,
					0
				]
			},
			"{\"Accept\": \"Leased Car\"}": {
				"N": 100,
				"D": 183,
				"b": -1.2960068929771602,
				"kernelType": "linear",
				"w": [
					0,
					4.336808689942018e-19,
					4.336808689942018e-19,
					4.336808689942018e-19,
					0.12920336330661725,
					1.734723475976807e-18,
					-0.022055035241292775,
					-0.07810255575538724,
					0,
					-0.0005293547514705209,
					-0.08782864899730447,
					-0.0833867317358593,
					0.2996452589559894,
					-0.03418865551130708,
					-0.04950135636107888,
					-0.01690618871456697,
					-0.1363233536065829,
					0,
					0,
					-0.04379348060183771,
					-0.025987511175590762,
					-0.10452939401676717,
					1.5937771935536915e-17,
					-0.043886417804156065,
					-0.1255315609026919,
					-0.059808644705828,
					-4.336808689942018e-19,
					-0.11721640511499062,
					0,
					0,
					-0.03666892023884656,
					-0.010393515640449848,
					0.22219336339589751,
					0.27965799516806866,
					-0.1120593095837917,
					-0.03259516764651191,
					-0.07179372056135949,
					-0.0005293547514705394,
					-0.0005293547514705394,
					-0.007746852316780045,
					0.3109295213063617,
					-0.002529632676001016,
					0,
					0,
					-0.0521122518040492,
					0,
					-0.0024781471263173914,
					0,
					0,
					-0.03613956548737602,
					0,
					0,
					0,
					0,
					0.35863510288147943,
					0,
					-0.03613956548737602,
					0,
					0,
					-0.010357747759750367,
					-0.04640437604480805,
					-0.058129061205594246,
					0.32027547467358014,
					0,
					0,
					-0.0462716277281551,
					0,
					-0.012871662766767239,
					8.673617379884035e-19,
					0,
					0,
					-0.017811821548210646,
					0,
					0,
					-0.010922870391920384,
					-0.0026108954429703217,
					-0.008341959202352072,
					0,
					-0.007746852316780045,
					0,
					8.673617379884035e-19,
					0,
					0.3756284932327283,
					0,
					-0.007746852316780045,
					-0.056047520514094465,
					0,
					-0.010393515640449845,
					-0.02944119682223633,
					-0.010393515640449845,
					0,
					0,
					-0.0026108954429703217,
					-0.035654155073983465,
					0,
					-0.009123568517087446,
					0,
					0,
					-0.0026108954429703217,
					-0.0005293547514705394,
					-0.010393515640449845,
					0,
					-0.059808644705828,
					0,
					0,
					-0.03312452239798245,
					0,
					-0.0005293547514705394,
					-0.008341959202352072,
					-0.017811821548210646,
					-0.04379348060183773,
					0,
					0,
					0,
					0,
					-0.0026108954429703217,
					-0.0026108954429703217,
					0,
					0,
					0,
					-0.00586381207603468,
					0,
					-0.002529632676001016,
					-2.6020852139652106e-18,
					-2.6020852139652106e-18,
					-0.0024781471263173914,
					-0.0024781471263173914,
					-0.008341959202352072,
					-0.010224999443097436,
					-0.0024781471263173914,
					0,
					0,
					-0.007746852316780045,
					-0.007746852316780045,
