{
	"createNewClassifierString": "function () {\n\tvar FeatureExtractor = require('../FeatureExtractor');\n\tvar BinaryClassifierSet = require('../BinaryClassifierSet');\n\tvar ClassifierWithFeatureExtractor = require('../ClassifierWithFeatureExtractor');\n\t\n\tvar baseBinaryClassifierType = require('../svmjs').SVM;\n\t//var baseBinaryClassifierType = require('../brain').NeuralNetwork;\n\t//var baseBinaryClassifierType = require('../classifier/lib/bayesian').Bayesian;\n\t\n\treturn new ClassifierWithFeatureExtractor({\n\t\tclassifierType: BinaryClassifierSet,\n\t\tclassifierOptions: {\n\t\t\t\tbinaryClassifierType: baseBinaryClassifierType,\n\t\t//binaryClassifierType: ClassifierWithFeatureExtractor,\n\t\t//binaryClassifierOptions: {\n\t\t\t\t//classifierType:   baseBinaryClassifierType,\n\t\t\t\tbinaryClassifierOptions: {\n\t\t\t\t\tC: 1.0,\n\t\t\t\t\t//iterations: 10,\n\t\t\t\t\t//log: true\n\t\t\t\t},\n\t\t},\n\t\tfeatureExtractor: FeatureExtractor.CollectionOfExtractors([\n\t\t\t\t\tFeatureExtractor.WordsFromText(1),\n\t\t\t\t\t//FeatureExtractor.WordsFromText(2),\n\t\t\t\t\t//FeatureExtractor.LettersFromText(2), \n\t\t\t\t\t//FeatureExtractor.LettersFromText(4),\n\t\t]),\n\t\tfeatureLookupTable: new FeatureExtractor.FeatureLookupTable(),\n\t});\n}",
	"trainedClassifier": {
		"classifier": {
			"{\"Quit\": true}": {
				"N": 100,
				"D": 183,
				"b": -0.8125234263020127,
				"kernelType": "linear",
				"w": [
					0,
					0.60422381307727,
					0.60422381307727,
					0.60422381307727,
					-0.1180829696739854,
					0,
					-0.02387398608483621,
					-0.04862088539168919,
					-0.00006509422604523019,
					-0.00006509422604523019,
					-0.004908694381240891,
					-0.004908694381240891,
					-0.05847189686322902,
					-0.03413128312995621,
					-0.04737907138832889,
					-0.04737907138832889,
					-0.06140805213061631,
					0,
					-0.02477117703233811,
					-0.026563796467249955,
					-0.014969075960273576,
					-0.05605998664045752,
					-0.0026898103824137447,
					-0.009444405748666451,
					-0.11142570473679232,
					-0.010799855905334936,
					-0.0648382847457316,
					-0.02994233474479238,
					0,
					0,
					0,
					-0.0026898103824137447,
					-0.039678829034798996,
					-0.02387398608483621,
					-0.07619119316817535,
					-0.0026898103824137447,
					-0.04922274445934692,
					0,
					0,
					0,
					-0.013247788258372677,
					4.163336342344337e-17,
					0,
					0,
					-0.07575773250030819,
					-0.03978280330973117,
					-0.06452970261658415,
					-0.043283067945840116,
					-0.03978280330973117,
					0,
					0,
					-0.02474689930685298,
					-0.02474689930685298,
					0,
					0,
					0,
					0,
					-0.004843600155195662,
					0,
					-0.00484360015519562,
					-0.0025489751609624584,
					-0.024709753074525463,
					-2.168404344971009e-19,
					0,
					0,
					-0.004843600155195662,
					0,
					-0.01623056821035162,
					-0.004843600155195662,
					0,
					-0.013247788258372719,
					-0.024340613733272808,
					0,
					-0.0022946249942331614,
					0,
					0,
					-0.02474689930685298,
					0,
					0,
					0,
					0,
					0,
					-0.008343864791304605,
					-0.038422888554012026,
					-0.038422888554012026,
					-0.013247788258372677,
					0,
					0,
					-0.014969075960273576,
					0,
					-0.013540757827937873,
					0,
					-0.024709753074525463,
					-0.024709753074525463,
					0,
					-0.013247788258372677,
					0,
					0,
					0,
					-0.023249208737118422,
					-0.012449352831783488,
					-0.021893758580449937,
					-0.053413651492678876,
					0,
					0,
					4.163336342344337e-17,
					0,
					0,
					-0.06940969091128155,
					-4.336808689942018e-19,
					0,
					0,
					0,
					-0.032541079333129844,
					0,
					-0.013247788258372719,
					0,
					0,
					-0.024709753074525463,
					-0.024709753074525463,
					-0.024709753074525463,
					-0.06982490130813,
					0,
					-0.0026898103824137447,
					-0.0026898103824137447,
					0,
					0,
					0,
					0,
					0,
					-0.05731225636546795,
					0,
					0,
					0,
					0,
					0,
					0,
					0,
					-0.010799855905334936,
					0,
					0,
					-0.009444405748666451,
					0,
					0,
					0,
					-0.010799855905334936,
					0,
					0,
					-0.0035002646361089436,
					-0.02509873458959672,
					0,
					-0.013540757827937873,
					0,
					-0.012659347256878135,
					-0.012659347256878135,
					-0.012659347256878135,
					-0.012659347256878135,
					-0.012659347256878135,
					-0.012659347256878135,
					0,
					-0.009444405748666451,
					-0.013247788258372719,
					-0.013247788258372719,
					0,
					0,
					0,
					-0.032541079333129844,
					-0.032541079333129844,
					-0.032541079333129844,
					0,
					0,
					0,
					-0.02477117703233811,
					-0.02477117703233811,
					0,
					0,
					0,
					0,
					0,
					0,
					0,
					0,
					0
				]
			},
			"{\"Reject\": \"previous\"}": {
				"N": 100,
				"D": 183,
				"b": -1.1603822277676263,
				"kernelType": "linear",
				"w": [
					0,
					-1.496198998029996e-17,
					-1.496198998029996e-17,
					-1.496198998029996e-17,
					0.27327061726387725,
					0.9999999999999999,
					0.35999657380640504,
					0.21671739906383367,
					0,
					-0.06612439911413891,
					-0.1347263946994448,
					-0.06612439911413891,
					-0.23010357113934712,
					-0.0035695665056873337,
					-0.0035695665056873272,
					-0.0035695665056873272,
					-0.1443643025608753,
					-0.06612439911413891,
					0.4632741805509935,
					-0.17136530454625462,
					-0.06612439911413891,
					0.27161950660042367,
					-0.06612439911413891,
					-0.06639946767308597,
					-0.06676943921817785,
					1.0842021724855044e-19,
					-0.11170565851291929,
					-0.0595558388995814,
					0,
					0,
					-0.13518915654861363,
					0,
					-0.2037368775044195,
					-0.1341294695784968,
					0.02125069875205536,
					0,
					-0.06869478588938281,
					-0.009953604777022826,
					0,
					-0.010228673335969884,
					-0.06901048280497518,
					0,
					0,
					0,
					-0.013523171282710153,
					0.09458268561668742,
					-0.04764859349755987,
					0.018749547888959953,
					0.09458268561668742,
					0.3017637630470158,
					0.3017637630470158,
					0.06654338141327983,
					0.1595324839327685,
					0.3017637630470158,
					0.09166613833221757,
					0.20877466052752713,
					0.22949941065194562,
					-0.009545117557353551,
					6.5052130349130266e-18,
					-0.0002750685589470519,
					6.5052130349130266e-18,
					-0.2098225561558512,
					-0.019773790893323442,
					6.5052130349130266e-18,
					6.5052130349130266e-18,
					6.5052130349130266e-18,
					6.5052130349130266e-18,
					-0.0035695665056873264,
					-0.009545117557353551,
					6.5052130349130266e-18,
					6.5052130349130266e-18,
					1.0842021724855044e-19,
					-0.009545117557353558,
					-0.009545117557353558,
					-0.009953604777022826,
					0,
					-0.235220381633736,
					0,
					-0.0002750685589470584,
					0,
					0,
					0,
					-0.07583313772772747,
					0,
					-0.0002750685589470584,
					-0.219776160932874,
					0,
					0,
					0,
					0,
					-1.734723475976807e-18,
					-1.734723475976807e-18,
					-1.734723475976807e-18,
					0,
					0,
					0,
					-1.734723475976807e-18,
					-1.734723475976807e-18,
					0,
					-1.6263032587282567e-18,
					0,
					0,
					-0.009953604777022826,
					0,
					0,
					0,
					0,
					0,
					-0.304658949622132,
					0,
					-0.009545117557353558,
					0,
					0,
					-0.04677566846271562,
					0,
					-1.734723475976807e-18,
					-1.734723475976807e-18,
					-1.734723475976807e-18,
					-1.734723475976807e-18,
					-1.734723475976807e-18,
					-5.204170427930421e-18,
					-0.11327532017472088,
					0,
					0,
					0,
					0,
					0,
					-5.204170427930421e-18,
					-0.0002750685589470584,
					0,
					0.34661621408343035,
					-0.05297119937652064,
					-0.0002750685589470584,
					-0.0002750685589470584,
					-0.0002750685589470584,
					-0.0002750685589470584,
					-0.0002750685589470584,
					-0.0002750685589470584,
					-0.0002750685589470583,
					-0.0002750685589470584,
					-0.0002750685589470584,
					0,
					0,
					0,
					0,
					1.0842021724855044e-19,
					-5.204170427930421e-18,
					0,
					-0.07583313772772747,
					-0.07298207378506259,
					0,
					0,
					0,
					0,
					0,
					0,
					0,
					0,
					0,
					-0.009953604777022826,
					0,
					0,
					0,
					0,
					0,
					0,
					-0.04677566846271562,
					-0.04677566846271562,
					-0.04677566846271562,
					-0.06869478588938281,
					-0.06869478588938281,
					-0.06869478588938281,
					0.5393521844421553,
					0.5393521844421553,
					-0.09298910251948868,
					0,
					0,
					-0.09298910251948868,
					-0.09298910251948868,
					-0.09298910251948868,
					-0.09298910251948868,
					-0.23010357113934712,
					-0.23010357113934712
				]
			},
			"{\"Offer\": {\"Promotion Possibilities\": \"Fast promotion track\"}}": {
				"N": 100,
				"D": 183,
				"b": -1.1365450127302381,
				"kernelType": "linear",
				"w": [
					0,
					0,
					0,
					0,
					0.03303660820156918,
					0,
					-0.029324457268248016,
					0.06953351542655872,
					0,
					0.008515087685582425,
					0.07324089116816418,
					0.02399498649995419,
					-0.03454763739970696,
					1.0090795362093297,
					0.5815736409462289,
					0.5815736409462289,
					-0.12321710045818993,
					-0.03882625198899282,
					-0.03882625198899282,
					-0.035330212600467883,
					0.24080683054743757,
					-0.0029165097927055694,
					0.018832525719174816,
					-0.021926927985004445,
					0.058285463452190905,
					-0.026356610938334354,
					0.1261636563419808,
					-0.0025599816991055025,
					0,
					0,
					0.11315703310191116,
					-0.04323382923246093,
					-0.09387269352625888,
					0,
					-0.04092822629914579,
					0.18023930366477772,
					-0.023382952044503996,
					-0.05551970892413502,
					-0.05551970892413502,
					0.04075945370417926,
					0.08389112106606259,
					0.035520139458303734,
					-0.045202270890542615,
					-0.045202270890542615,
					0.046069620857080607,
					-0.010003340849071127,
					-0.010003340849071132,
					-0.010003340849071129,
					-0.010003340849071127,
					-0.010003340849071129,
					-0.010003340849071129,
					-0.010003340849071129,
					-0.010003340849071129,
					-0.010003340849071129,
					-0.009564069400053193,
					-0.010003340849071129,
					0.09727760333978547,
					0.05046761154738495,
					0.06652149048467734,
					0.026442262385933255,
					0.03752692192434327,
					-0.01250141817402374,
					-0.17661783012579146,
					-0.001196212793774438,
					0.06652149048467734,
					-0.09564937199364804,
					0.06652149048467734,
					-0.055111619010364786,
					0.00721167660506223,
					0.06652149048467734,
					0.744752888512798,
					-0.2676231946564597,
					-2.710505431213761e-19,
					-0.011084659538410018,
					0.014166436012398476,
					0.10966603302509993,
					-0.00995915650247053,
					-0.009959156502470526,
					-0.009959156502470526,
					-0.009959156502470526,
					-0.05321509144479325,
					6.938893903907228e-18,
					-0.016053878937292397,
					0,
					0,
					-0.0945322625962002,
					-0.06771770327845178,
					0.06533432604456238,
					-0.056195660736891695,
					0.06533432604456238,
					-0.12521690451490414,
					-0.12521690451490414,
					-0.13815759413794582,
					-0.10401371965813458,
					0.13256587915061213,
					0.060667389184088455,
					0.18792103835275742,
					0.18792103835275742,
					-0.13815759413794582,
					-0.12533469786177592,
					0.024483874045990853,
					0,
					0,
					-0.14481726644255677,
					-0.7291779045180699,
					-0.9903544541611089,
					-0.0022836816350970826,
					-0.010317438033592391,
					-0.02932445726824803,
					-0.2676231946564597,
					-0.10286104859871026,
					0.016899324003988372,
					0,
					0,
					0,
					0.05122523977766394,
					-0.012940689623041679,
					0.0917154271520406,
					0,
					0,
					-2.6020852139652106e-18,
					0,
					0.06015989667779016,
					0,
					0,
					-4.336808689942018e-18,
					-0.019769516153829693,
					-4.336808689942018e-18,
					-4.336808689942018e-18,
					-4.336808689942018e-18,
					-0.01976951615382969,
					8.673617379884035e-19,
					0,
					0,
					0,
					0,
					0,
					0,
					0,
					0,
					0,
					0.23639444530449794,
					-0.04325593494232272,
					-0.04325593494232272,
					-0.04325593494232272,
					0,
					-8.673617379884035e-19,
					-8.673617379884035e-19,
					-1.734723475976807e-18,
					0,
					0.27965038024682065,
					0,
					0.024483874045990853,
					0,
					0,
					0,
					0,
					0,
					0,
					0,
					0,
					0.06416592940070562,
					0.06416592940070562,
					0,
					0,
					0,
					0,
					0,
					0,
					0,
					0,
					0,
					0,
					0,
					-0.01976951615382969,
					-0.01976951615382969,
					-0.01976951615382969,
					0,
					0,
					0,
					0,
					9.324138683375338e-18,
					9.324138683375338e-18
				]
			},
			"{\"Offer\": {\"Job Description\": \"Programmer\"}}": {
				"N": 100,
				"D": 183,
				"b": -1.0289575584008395,
				"kernelType": "linear",
				"w": [
					0,
					0,
					0,
					0,
					-0.01869570159541448,
					0,
					-4.336808689942018e-19,
					-0.03582196160144952,
					0.25509966637911063,
					0.24881580261264508,
					0.19208309272280322,
					1.304266250406795,
					-0.016270395761298007,
					0.03015440615964532,
					0.007795885513280643,
					0.007795885513280643,
					0.1556743916732572,
					0.11588658990156522,
					0.09199257599965358,
					0.13072082614719888,
					-0.09355595153328371,
					-0.20662734369680824,
					0.03658493840354582,
					0.07269877368354594,
					-0.04832772298699989,
					0.13469552204137752,
					-0.08219049843640074,
					0.15000526725918772,
					0.18854681963379571,
					0.18854681963379571,
					0.0068283542847723255,
					0.05771897967855977,
					0.1503350315459463,
					-0.08100272652019376,
					-0.19279287199965722,
					0.23033900984020322,
					0.08655741037691339,
					-0.07343958682281701,
					-0.05310606215143418,
					0.014188294904188624,
					0.19763304091458028,
					-0.0827838922340205,
					-0.06625153598536819,
					-0.06625153598536819,
					0.07764280249186584,
					-1.0842021724855044e-18,
					-0.0055617537650887216,
					-1.0842021724855044e-18,
					-1.0842021724855044e-18,
					0.11497017909843202,
					0,
					0,
					0,
					0,
					-0.1875253864425057,
					0,
					0.032462168287576365,
					0.3050724035344818,
					0.12261073635156308,
					-0.34123033984575024,
					-0.18781143055311889,
					0.0805330592254887,
					-0.1907956576949119,
					0.029342941700487762,
					-0.02329474536684961,
					0.3420984317667869,
					-0.02329474536684961,
					-0.13042694128078294,
					0.15916692181606912,
					-0.02329474536684961,
					-0.052248832312936144,
					-0.07831870669722193,
					-0.10019658590537656,
					-0.23964066039644305,
					-0.10772070888560528,
					-0.0470502809157754,
					-0.022693681054582564,
					-0.017131927289493844,
					0,
					0,
					-6.505213034913027e-19,
					0.010159934121939496,
					0.17576024813163,
					-0.1065780242236933,
					-0.1065780242236933,
					-0.14287929767767496,
					-0.09326779465107532,
					0.19337968468071098,
					-0.009125820016408714,
					0.2134942391368959,
					-0.11930203983403673,
					-0.03843647811174866,
					0.13464440623448715,
					1.3593338064266383,
					-0.0470502809157754,
					0.17184764691764992,
					0.006091735645998908,
					0.006091735645998908,
					-0.11930203983403673,
					-0.023756209253911545,
					-0.10053265804815648,
					0,
					-0.016949614504572625,
					0.053142016561774294,
					0.0905088876777554,
					0.02991839601505014,
					0,
					0.013145473833934019,
					-0.005561753765088705,
					-0.02108349893799356,
					0.0160068584412998,
					-0.17849151998783414,
					-0.017131927289493844,
					0.436453679401998,
					-0.017131927289493844,
					-0.1072975815103468,
					-0.08086556172228807,
					-0.34089221309403,
					0.09221532262394774,
					0.09221532262394774,
					0.11985233258055789,
					0,
					0.000052294433727143215,
					-0.08293286897441682,
					-0.08293286897441682,
					-0.005561753765088721,
					-0.0774740271760682,
					-0.005561753765088721,
					-0.005561753765088721,
					-0.005561753765088721,
					0.23217381620827848,
					-0.10527197849893939,
					0,
					0,
					0,
					0,
					0,
					0,
					-0.03690168308784556,
					0,
					0,
					-0.11162047096422824,
					-6.505213034913027e-19,
					-6.505213034913027e-19,
					-6.505213034913027e-19,
					-0.03690168308784556,
					0.1459054817184127,
					0.1459054817184127,
					0,
					0,
					-0.11162047096422824,
					0,
					-0.10053265804815648,
					2.168404344971009e-19,
					2.168404344971009e-19,
					2.168404344971009e-19,
					2.168404344971009e-19,
					2.168404344971009e-19,
					2.168404344971009e-19,
					0,
					0,
					-0.026432019788058727,
					-0.026432019788058727,
					0,
					0,
					0,
					0.45358560669149184,
					0.45358560669149184,
					0.45358560669149184,
					-0.059064705779420995,
					-0.059064705779420995,
					-0.059064705779420995,
					-0.044227538573294485,
					-0.044227538573294485,
					-0.07191227341097949,
					-0.07191227341097949,
					-0.07191227341097949,
					0,
					0,
					0,
					0,
					-3.903127820947816e-18,
					-3.903127820947816e-18
				]
			},
			"{\"Offer\": {\"Salary\": \"12,000 NIS\"}}": {
				"N": 100,
				"D": 183,
				"b": -1.0081859505923898,
				"kernelType": "linear",
				"w": [
					0,
					0,
					0,
					0,
					-0.043960265232205455,
					5.204170427930421e-18,
					-0.009002515315848735,
					0.01602740677946629,
					-0.07684668638413052,
					-0.028544141650170475,
					0.018425286812120082,
					0.08690256009119683,
					-0.029425769731087854,
					0.08306769081005974,
					-0.022686105437973534,
					-0.022686105437973534,
					1.6756243254905376,
					0.09494321048398828,
					0.03979228674231755,
					0.05282073419424455,
					-0.00561705868236028,
					-0.03525103742819998,
					0.0011365237042537876,
					0.15150380678335879,
					-0.0458550972993018,
					-0.04005415947071135,
					-0.04972147321692662,
					0.04207010693571585,
					8.673617379884035e-19,
					8.673617379884035e-19,
					0.001960551907166007,
					-0.05430916804845356,
					0.03027389397683254,
					-0.001735864687561867,
					0.05404104789169188,
					0.09770442190796001,
					0.17125875541993527,
					-0.04749662212461055,
					0.007654301617060176,
					0.006010106155313923,
					0.07974114476689921,
					0.02808453664491905,
					-0.005843879320935677,
					-0.005843879320935677,
					0.05412155068689731,
					-0.03215641064862021,
					0.10452246862880804,
					-0.03215641064862021,
					-0.03215641064862021,
					-1.3877787807814457e-17,
					0,
					-0.03753611825964647,
					-0.03753611825964647,
					0,
					-0.04312197423787581,
					0,
					0.040236734522390384,
					0.004208668012901318,
					0.02274663510101758,
					-0.08210783284742029,
					0.06307662196768507,
					-0.025210885299993345,
					0.012865203829993163,
					0.0014840648061793874,
					0,
					-0.04350936835581097,
					0,
					0.004470865916192876,
					-0.040053437968526735,
					0,
					-0.032689729760226494,
					0.15522725817620334,
					0.06035965779911779,
					0.06294882753116068,
					-0.04165274280367491,
					-0.03846589438827624,
					-0.03753611825964647,
					0,
					-0.010874947790373074,
					0,
					-0.021515470880410476,
					0.0006212423380949863,
					0.003007390321020792,
					0.08608890873614485,
					0.07521396094577178,
					-0.011506122503512104,
					-0.021262570294838194,
					-0.030245520486583705,
					0.027314493973003867,
					-0.3528166609206029,
					0.11518436862173945,
					-0.012202218252608359,
					-0.060159738653619295,
					0.05669687014714456,
					-0.012202218252608359,
					0.09214977039187941,
					-0.0032079521166814007,
					-0.0032079521166814007,
					0.0018837846854601256,
					-0.2374114990706697,
					0.12375621711543904,
					0.016976763668107894,
					0.050629995896032884,
					0.008994266135926937,
					2.168404344971009e-19,
					-0.0013970669463828078,
					0.055501588263216176,
					0.013498180937995818,
					-5.773376568485311e-18,
					0.06875374148815733,
					0.19725833455589295,
					-1.3010426069826053e-17,
					0,
					0,
					0,
					-0.015395774705476619,
					0.014086002938068477,
					0.04374328421182848,
					0.0186558348083933,
					0.0186558348083933,
					-0.030266872484093037,
					0,
					0,
					-0.055793232854632946,
					-0.055793232854632946,
					0,
					-0.035461619751702714,
					-1.8431436932253575e-18,
					-0.010874947790373074,
					0,
					-0.035461619751702714,
					0,
					-0.010874947790373074,
					-0.010874947790373074,
					-0.010874947790373074,
					-0.010874947790373074,
					-0.010874947790373074,
					-0.010874947790373074,
					-0.011438338902938532,
					-0.010874947790373074,
					-0.010874947790373074,
					0.04300681515606656,
					-0.021515470880410476,
					-0.021515470880410476,
					-0.021515470880410476,
					-0.0005633911125654577,
					0.022746635101017577,
					0.02274663510101758,
					3.469446951953614e-18,
					-0.05283653161961918,
					-0.002913258053266552,
					0.08703690780061145,
					0,
					0,
					0,
					0,
					0,
					0,
					0,
					-0.05515092374167073,
					0.06743554408974359,
					-0.029481777643545096,
					-0.029481777643545096,
					0,
					0,
					0,
					0,
					0,
					0,
					0.0519591943307962,
					0.0519591943307962,
					0.0519591943307962,
					0,
					0,
					-0.035461619751702714,
					-0.035461619751702714,
					-0.035461619751702714,
					0,
					0,
					0,
					0,
					-5.5294310796760726e-18,
					-5.5294310796760726e-18
				]
			},
			"{\"Offer\": {\"Pension Fund\": \"10%\"}}": {
				"N": 100,
				"D": 183,
				"b": -1.256468765365624,
				"kernelType": "linear",
				"w": [
					0,
					0,
					0,
					0,
					-0.12804420990066137,
					1.734723475976807e-18,
					0.001682465972343282,
					0.12581761243556064,
					-0.04409727930868229,
					0.2903674884210078,
					0.19149050710364557,
					-0.0195420680087501,
					-0.40649919994447603,
					-0.06392684376500843,
					0.33387019905542215,
					-0.025415556796488,
					0.13291185285964252,
					-0.24056667491035252,
					-0.10551666668611909,
					-0.024942909675575303,
					0,
					0.01497291478703331,
					0.14154451879365382,
					-0.2515293415546454,
					0.9679030221407192,
					0.2266784968084108,
					-0.04593998861910728,
					-0.10828132323680537,
					0.04767449481942722,
					0.04767449481942722,
					-0.1472780537867023,
					0.07271888826709862,
					1.0434799859003336,
					-0.0323447745420675,
					0.36318482054600054,
					0.6725150129986848,
					0.11791008764622854,
					-0.0014288394785949565,
					0.3446545021178768,
					0.08438384366496093,
					0.012901340130871547,
					-0.11991581281826136,
					0.10605021976808338,
					0.10605021976808338,
					-0.711560793933171,
					3.469446951953614e-18,
					-0.1640212149411686,
					-0.02986997046036261,
					3.469446951953614e-18,
					-0.04592791418324006,
					3.469446951953614e-18,
					-0.037292378897599315,
					3.469446951953614e-18,
					3.469446951953614e-18,
					-0.3076754636387806,
					-0.037292378897599315,
					0.041321488790422835,
					-0.037438119680168164,
					-0.01382420642954736,
					0.32499617205275855,
					-0.12934270301297202,
					-0.4521563267511882,
					0.13667256613029125,
					-0.24688657565201044,
					-0.01382420642954736,
					-0.24420114695171324,
					-0.01382420642954736,
					-0.10789335576581452,
					-0.037438119680168164,
					-0.01382420642954736,
					0.3702385426801508,
					-0.2405666749103525,
					-0.26418058816097334,
					0.24593898810486822,
					0.16174640666948414,
					-0.15546618753850755,
					-0.14134614408943824,
					-0.21107886314475616,
					-0.21124688873861858,
					-0.15546618753850755,
					-0.15546618753850755,
					0.022808630663745062,
					-0.062214745002430114,
					0,
					-0.05578070120011101,
					0.06768424273300047,
					-0.2330623692224631,
					0.2692254659161625,
					-1.931340839971236,
					0.0665885725109584,
					0.11813167014479746,
					0.22738443527688385,
					0.10012072840287162,
					-0.031015975348266916,
					-5.204170427930421e-18,
					-0.2584555456895098,
					0.37461799865906475,
					0.37461799865906475,
					0.024661738202913487,
					0.031180284930179082,
					0.042914603963288944,
					-0.06228964701170491,
					-0.11852129706213943,
					0.5943773238639549,
					-0.09646243718716602,
					0.12402093732744535,
					-0.1866902874148163,
					0.2386042823497933,
					0.001682465972343263,
					0,
					-0.2539908537727867,
					-0.1498207261712943,
					-0.05561267560624861,
					-0.05561267560624859,
					-0.05561267560624861,
					-0.09218290460945926,
					-0.01578283319020242,
					0.09346993194188397,
					-0.14304654006421463,
					-0.14304654006421463,
					-0.11834444788776,
					0,
					-0.7360856088521863,
					-0.11646133522660189,
					-0.11646133522660189,
					0,
					0.10534263198057395,
					0.0016824659723432803,
					-0.05578070120011101,
					0,
					0.16997316686480493,
					0.20726554576240425,
					-0.05578070120011101,
					-0.05578070120011101,
					-0.05578070120011101,
					-0.05578070120011101,
					-0.05578070120011101,
					-0.05578070120011101,
					-0.055780701200110985,
					-0.05578070120011101,
					-0.05578070120011101,
					8.673617379884035e-19,
					0,
					0,
					0,
					2.7755575615628914e-17,
					0.0016824659723432803,
					0,
					-0.029869970460362612,
					-0.013713737804375832,
					0,
					0,
					0.2692254659161625,
					0.21473260974511524,
					0.21473260974511524,
					0.21473260974511524,
					0.21473260974511524,
					0.21473260974511524,
					0.21473260974511524,
					-0.10551666668611909,
					8.673617379884035e-19,
					-0.07640007141925684,
					-0.07640007141925684,
					0.10534263198057395,
					0.10534263198057395,
					0.10534263198057395,
					1.0408340855860843e-17,
					1.0408340855860843e-17,
					1.0408340855860843e-17,
					0,
					0,
					0,
					0,
					0,
					-0.037292378897599315,
					0,
					0,
					-0.037292378897599315,
					-0.037292378897599315,
					-0.037292378897599315,
					-0.037292378897599315,
					0,
					0
				]
			},
			"{\"Accept\": \"previous\"}": {
				"N": 100,
				"D": 183,
				"b": -0.5086116679053215,
				"kernelType": "linear",
				"w": [
					0,
					-0.1636884088017599,
					-0.1636884088017599,
					-0.1636884088017599,
					0.6667619400714785,
					-1,
					0.17504359562272143,
					-0.04456946618541836,
					0,
					-0.3775533449097116,
					0.0027938771540164907,
					-0.5786876773295249,
					-0.490209986744884,
					0.17953310978747242,
					-0.13116936516802558,
					-0.13116936516802558,
					-0.2752382313892509,
					-0.13128049776361436,
					-0.30933913435856913,
					-0.041664880446642474,
					-0.47831192890733726,
					0.34051825797247426,
					0.014583826796237268,
					-0.09153776891344541,
					0.00039743744824572943,
					0.7230498029445874,
					0.6380187316884114,
					-0.5373630824277809,
					-0.15553401212382092,
					-0.15553401212382092,
					0.6279411070957402,
					-0.36523324030069626,
					-0.41417542029680193,
					0.7819248370823741,
					-0.2404635287773635,
					6.505213034913027e-19,
					-0.15569129042864405,
					-0.034967152545661254,
					-0.01622571894389735,
					-0.018741433601763925,
					0.11512232264203175,
					-0.01622571894389735,
					-0.01622571894389735,
					-0.01622571894389735,
					-0.4342705301961325,
					-0.04793434799153839,
					-0.3469691314458587,
					-0.04793434799153835,
					-0.04793434799153839,
					-0.0915377689134454,
					2.0166160408230382e-17,
					-0.13085300567878522,
					-0.05109037758071198,
					2.0166160408230382e-17,
					-0.6097868288240985,
					-0.07976262809807322,
					0.3932099478393289,
					-0.07794815027344329,
					0,
					1.1275702593849246e-17,
					1.1275702593849246e-17,
					0.026198246111975798,
					0.3052772840763097,
					-0.04116462212155229,
					0,
					-0.5181140946371701,
					0,
					0.025971766128511813,
					-0.16329119941960452,
					0,
					-0.08181197108029668,
					-0.1673536335490448,
					-0.20922864803705765,
					-0.20922864803705765,
					-0.018741433601763897,
					-0.16205293815970723,
					0.08199461781994126,
					0.26733834183795036,
					-0.16205293815970723,
					-0.16205293815970723,
					-0.24739598730586843,
					0,
					-0.846833264219579,
					-0.030254763863737405,
					-0.030254763863737405,
					0.08127533013212275,
					-0.04116462212155229,
					6.938893903907228e-18,
					-0.26564714397603334,
					6.938893903907228e-18,
					-3.469446951953614e-18,
					-3.469446951953614e-18,
					-0.04057570988249054,
					-0.05680142882638793,
					-3.469446951953614e-18,
					-0.09803769002419403,
					-3.469446951953614e-18,
					-3.469446951953614e-18,
					7.806255641895632e-18,
					-0.3290294616348646,
					-0.3706282523220281,
					-0.2929563258494341,
					0.7419108118398223,
					-5.204170427930421e-18,
					-0.016225718943897356,
					-2.6020852139652106e-17,
					0,
					0,
					0.8416424023317772,
					0,
					-0.09417386921734064,
					1.734723475976807e-18,
					0.4293912799976576,
					0.6190271573236731,
					0.4293912799976576,
					-0.08181197108029667,
					1.1275702593849246e-17,
					-3.469446951953614e-18,
					-0.040575709882490554,
					-0.040575709882490554,
					0.07520605117929988,
					0.8421419605524163,
					0,
					-0.16853460605532306,
					-0.16853460605532306,
					-0.17027247940101425,
					-0.17027247940101425,
					-0.05449071833922382,
					-0.17027247940101425,
					-0.17027247940101425,
					0.3211193330688192,
					0.6331242823612965,
					0,
					0,
					0,
					0,
					0,
					0,
					-0.03607313578543046,
					0,
					0,
					-0.2980078340774651,
					-0.08534304914616121,
					-0.08534304914616121,
					-0.08534304914616121,
					-0.03607313578543046,
					0.11578176106179043,
					0,
					4.163336342344337e-17,
					-0.054079978862007404,
					-0.21266478493130392,
					0,
					6.938893903907228e-18,
					-0.0819941746413415,
					-0.0819941746413415,
					-0.0819941746413415,
					-0.0819941746413415,
					-0.0819941746413415,
					-0.0819941746413415,
					0.11253906416185046,
					0,
					-0.08181197108029668,
					-0.08181197108029668,
					2.8189256484623115e-18,
					2.8189256484623115e-18,
					2.8189256484623115e-18,
					0.1896358773260155,
					0.1896358773260155,
					0.1896358773260155,
					0.14968059484148097,
					0.14968059484148097,
					0.14968059484148097,
					-0.4218781985204196,
					-0.4218781985204196,
					-0.07976262809807323,
					6.505213034913027e-19,
					6.505213034913027e-19,
					-0.07976262809807323,
					-0.07976262809807323,
					-0.07976262809807323,
					-0.07976262809807323,
					0.600776212659992,
					0.600776212659992
				]
			},
			"{\"Offer\": {\"Working Hours\": \"9 hours\"}}": {
				"N": 100,
				"D": 183,
				"b": -1.0213161658157395,
				"kernelType": "linear",
				"w": [
					0,
					-3.0899761915836876e-18,
					-3.0899761915836876e-18,
					-3.0899761915836876e-18,
					-0.13501446852129073,
					0,
					-0.06005525269441388,
					0.020965659134358966,
					0,
					-0.17918601673182205,
					0.03751980932877682,
					0.09037000828588536,
					-0.011882799686432435,
					0.04948318238101444,
					0.1575688261897038,
					-0.17299769652068508,
					0.08316080928958272,
					-1.734723475976807e-18,
					-0.0017673009530409984,
					0.01965363225924835,
					-3.469446951953614e-18,
					0.01547625950362903,
					-0.09066363813292659,
					-0.09576764896354588,
					-0.3437993483115696,
					-0.10153794864387175,
					0.09529717153634175,
					-0.056484067583941436,
					0,
					0,
					-0.020118136544799103,
					0.06358836351366418,
					0.012003688224605312,
					-0.05436573485035502,
					0.0002953813307278439,
					1.6705846424175608,
					-0.00089016972869715,
					0.04413651581857162,
					0.04413651581857162,
					-0.15335364012323582,
					0.10774837694380411,
					0.1128749648026436,
					0.04413651581857162,
					0.04413651581857162,
					0.2152280206037675,
					-0.0032153468407453163,
					-0.01315449973659238,
					-0.0032153468407453163,
					-0.0032153468407453163,
					-0.0032153468407453184,
					-0.0032153468407453184,
					-0.0059667690496901125,
					-0.0032153468407453184,
					-0.0032153468407453184,
					-0.004061753650214289,
					-0.0059667690496901125,
					-0.003215346840745317,
					0,
					0,
					-0.049506070664724476,
					4.163336342344337e-17,
					-0.014204456654162626,
					-0.010139264526947285,
					0,
					0,
					-0.050749693943545594,
					0,
					0.0008529596305367343,
					-0.005770299680325826,
					0,
					0.12830519494928924,
					-0.022124974466529126,
					0,
					-0.04950607066472452,
					0,
					-0.004176229399401118,
					-0.002751422208944794,
					0,
					0,
					0,
					-0.005770299680325826,
					-0.024934015085231284,
					0,
					-0.030159946241606127,
					-0.030159946241606127,
					0.049292096317391614,
					0,
					-0.062660582082446,
					-0.01533443818172035,
					-0.004176229399401118,
					-0.016161939338982967,
					-0.004176229399401122,
					-0.01753427924409478,
					0.08121636634798358,
					-0.004176229399401118,
					-0.15008828766602955,
					-0.10610103972957385,
					-0.10610103972957385,
					-0.004176229399401122,
					0,
					-0.009939152895847063,
					-2.710505431213761e-18,
					-0.03882514055681923,
					0.1290166006303275,
					-0.0810580877224735,
					0.0506992720549264,
					0,
					0,
					-0.03457550550503102,
					-0.010139264526947285,
					-0.04497939426321977,
					-0.09576764896354588,
					0,
					-1.6263032587282567e-18,
					0,
					-0.03261386974089089,
					0,
					0,
					-0.013358049844693656,
					-0.013358049844693656,
					-0.013358049844693656,
					0,
					-0.11747767082994413,
					0.06358836351366418,
					0.06358836351366418,
					0,
					0.01620130327626502,
					0,
					0,
					0,
					0.011682580114279232,
					0,
					0,
					0,
					0,
					0,
					0,
					0,
					0,
					0,
					0,
					-0.00577029968032583,
					-0.005770299680325826,
					-0.005770299680325826,
					-0.005770299680325826,
					0,
					0,
					0,
					0,
					0,
					-1.734723475976807e-18,
					-0.011985709939581844,
					0,
					-7.589415207398531e-18,
					-7.589415207398531e-18,
					-7.589415207398531e-18,
					-7.589415207398531e-18,
					-7.589415207398531e-18,
					-7.589415207398531e-18,
					0,
					-2.710505431213761e-18,
					-0.03261386974089089,
					-0.03261386974089089,
					0,
					0,
					0,
					-1.6263032587282567e-18,
					-1.6263032587282567e-18,
					-1.6263032587282567e-18,
					0,
					0,
					0,
					-0.0017673009530409967,
					-0.0017673009530409967,
					0.013449881067320228,
					0.01620130327626502,
					0.01620130327626502,
					-0.002751422208944794,
					-0.002751422208944794,
					-0.002751422208944794,
					-0.002751422208944794,
					0,
					0
				]
			},
			"{\"Offer\": {\"Leased Car\": \"With leased car\"}}": {
				"N": 100,
				"D": 183,
				"b": -1.4421122089748541,
				"kernelType": "linear",
				"w": [
					0,
					0,
					0,
					0,
					0.16001924396427114,
					0,
					3.903127820947816e-18,
					-0.16003095228403832,
					-0.040682842327025716,
					-0.10405987270389269,
					-0.11432415966677015,
					0.39813907739693677,
					0.2618167146056486,
					-0.09242016102264437,
					0.06663135069230658,
					0.06663135069230658,
					0.1579040783750561,
					0.06596070911852665,
					4.824699667560495e-18,
					-0.044175679473119636,
					4.824699667560495e-18,
					0.11170197904754481,
					-0.27955511321943904,
					-0.09796442032516788,
					0.2652035236079397,
					-0.18091211259340634,
					-0.29074788868113005,
					0.11214854240181071,
					-0.0309108082691505,
					-0.0309108082691505,
					0.017844205020703857,
					-0.05449005152702102,
					0.0967453116836797,
					-0.15499209323426733,
					-0.051715637377032074,
					0.2692386355788493,
					0.12826443911025592,
					0.04652167979056268,
					-0.019439029327963903,
					0.45419461873810624,
					0.6311844461981733,
					-0.03552560549259168,
					-0.03552560549259168,
					-0.03552560549259168,
					0.17617342969215238,
					3.903127820947816e-18,
					3.903127820947816e-18,
					3.903127820947816e-18,
					3.903127820947816e-18,
					0.2639811182192861,
					9.540979117872439e-18,
					9.540979117872439e-18,
					9.540979117872439e-18,
					9.540979117872439e-18,
					-0.18940799925506763,
					9.540979117872439e-18,
					0.19997656365175037,
					-0.04459436982393537,
					-0.02687594811688789,
					0.07025715074002623,
					0.07779710864393866,
					0.25443235980353734,
					-0.19054617584335015,
					-0.02687594811688789,
					-0.004434881447299835,
					-0.02215330315434732,
					-0.004434881447299835,
					-0.07961573181009958,
					-0.02215330315434732,
					-0.004434881447299835,
					-0.1334971394323035,
					0.0659607091185266,
					0.06596070911852665,
					0.06596070911852665,
					0.08090910869487195,
					-0.12229356493566856,
					-3.2526065174565133e-18,
					-3.2526065174565133e-18,
					-0.0075399579039124405,
					0,
					0,
					0.11168973088982971,
					-0.1727105149413148,
					0,
					-0.0075399579039124405,
					-1.9839134238353722,
					0,
					-0.18449356756872126,
					-0.0023828464900462476,
					0.033744304819554316,
					-0.32880847658897994,
					-0.20504242455637373,
					0.07626588336405155,
					0.33061968402153447,
					-0.42664825305024023,
					0.41486642521167755,
					-0.02740662573192154,
					-0.02740662573192154,
					-0.024453788474408183,
					-0.005951069722154005,
					-0.0011381765882824684,
					0,
					0,
					0.519191823559103,
					0.2216058284938665,
					0.07094282265338835,
					0,
					0.01608657616462772,
					3.469446951953614e-18,
					-1.3010426069826053e-17,
					-7.589415207398531e-19,
					-0.3544055806405415,
					-3.2526065174565133e-18,
					-3.2526065174565133e-18,
					-3.2526065174565133e-18,
					0.1805886360819655,
					0.1805886360819655,
					-0.24329286206980144,
					-0.14681243222675264,
					-0.14681243222675264,
					-0.023046380194146447,
					0,
					0,
					0,
					0,
					0,
					-0.01729973135623175,
					0,
					-0.0075399579039124405,
					0,
					-0.03378453307718457,
					-0.01648480172095282,
					-0.0075399579039124405,
					-0.0075399579039124405,
					-0.0075399579039124405,
					-0.0075399579039124405,
					-0.0075399579039124405,
					-0.0075399579039124405,
					-0.0075399579039124864,
					-0.0075399579039124405,
					-0.0075399579039124405,
					0,
					0,
					0,
					0,
					-4.640385298237959e-17,
					-0.022441066669588054,
					-0.022441066669588054,
					0,
					0,
					0,
					0,
					-0.0011381765882824684,
					0,
					0,
					0,
					0,
					0,
					0,
					0,
					0,
					0,
					0,
					0,
					0,
					0,
					0,
					0,
					0,
					-0.14877924255493602,
					-0.14877924255493602,
					-0.14877924255493602,
					0,
					0,
					-0.01729973135623175,
					-0.01729973135623175,
					-0.01729973135623175,
					0,
					0,
					0,
					0,
					3.903127820947816e-18,
					3.903127820947816e-18
				]
			},
			"{\"Insist\": \"previous\"}": {
				"N": 100,
				"D": 183,
				"b": -0.6815803342821134,
				"kernelType": "linear",
				"w": [
					0,
					-0.10613988857262885,
					-0.10613988857262885,
					-0.10613988857262885,
					-0.369279527308358,
					0,
					-0.13936386099459958,
					0.09723255927318017,
					0,
					-6.5052130349130266e-18,
					-0.15207615638177635,
					-0.08119462789056395,
					-0.16269821169319712,
					-0.05304082501589938,
					-0.05134031450439499,
					-0.05134031450439499,
					-0.3761424469569024,
					-4.7704895589362195e-18,
					-0.1938816368032517,
					-0.14745122509378703,
					-4.7704895589362195e-18,
					0.4239305105140659,
					-0.14426344050205314,
					-0.02577474563096215,
					-0.478565821558472,
					-0.017401784202836605,
					-0.2464269983262533,
					0.3175200075298384,
					0,
					0,
					-0.04942701096756618,
					-0.05519562261932588,
					-0.1818119073896697,
					-0.11037224949570469,
					0.1606732264448102,
					-0.1326436902365944,
					-0.06682879517040279,
					0,
					0,
					1.3010426069826053e-17,
					-0.029874630225096142,
					0,
					0,
					0,
					-0.23651904297651427,
					0.32720865106477975,
					0.4528795072872376,
					0.574505817283699,
					0.32720865106477975,
					0,
					0,
					0.433475423025353,
					0.293874424190616,
					0,
					-0.21168653761476586,
					0.139600998834737,
					-0.04942701096756617,
					-0.10263097770010905,
					-4.336808689942018e-18,
					-0.08119462789056392,
					-0.051259519481176845,
					-0.19687900275757325,
					-0.023136860321049474,
					-4.7704895589362195e-18,
					0,
					0.028405634178602444,
					0,
					0.05440463944984052,
					-0.10263097770010905,
					0,
					5.6107462426124854e-18,
					-0.019102294714340984,
					-0.0214363498095451,
					-0.0513714582189322,
					0,
					-0.01957054845657116,
					0.4048222490408358,
					-0.12344590119649104,
					-0.019570548456571146,
					-0.01957054845657116,
					-0.01957054845657116,
					0,
					0.2757028003975216,
					0,
					1.3010426069826053e-17,
					-0.19687900275757325,
					-4.336808689942018e-19,
					0,
					0,
					0,
					0,
					0,
					-3.469446951953614e-18,
					-7.806255641895632e-18,
					0,
					5.6107462426124854e-18,
					0,
					0,
					0,
					-0.017401784202836605,
					-0.27780383003732456,
					-0.025774745630962156,
					-0.27780383003732456,
					0,
					0,
					0,
					0,
					0,
					-0.02976359892543319,
					-0.0017005105115043798,
					-0.0214363498095451,
					0,
					-0.10387535273991988,
					-0.11751519154223938,
					-0.10387535273991988,
					5.6107462426124854e-18,
					0,
					0,
					-3.469446951953614e-18,
					-3.469446951953614e-18,
					-3.469446951953614e-18,
					0,
					0,
					-0.040388087762133255,
					-0.040388087762133255,
					0.10960026206916638,
					0.002537124737512636,
					0.10960026206916638,
					0.1096002620691664,
					0.10960026206916638,
					-0.16017607924529534,
					2.6020852139652106e-18,
					1.3010426069826053e-17,
					1.3010426069826053e-17,
					1.3010426069826053e-17,
					1.3010426069826053e-17,
					1.3010426069826053e-17,
					1.3010426069826053e-17,
					-0.01740178420283659,
					1.3010426069826053e-17,
					1.3010426069826053e-17,
					-0.025774745630962156,
					0,
					0,
					0,
					-0.017401784202836605,
					-4.336808689942018e-18,
					-4.336808689942018e-18,
					0.2472971662189192,
					0.7799836603976235,
					0,
					0,
					0,
					0,
					0,
					0,
					0,
					0,
					0,
					0,
					-0.025774745630962156,
					5.6107462426124854e-18,
					5.6107462426124854e-18,
					-0.014807534857192618,
					-0.014807534857192618,
					-0.014807534857192618,
					-0.013639838802319499,
					-0.013639838802319499,
					-0.013639838802319499,
					-0.04942701096756618,
					-0.04942701096756618,
					-0.04942701096756618,
					-0.1938816368032517,
					-0.1938816368032517,
					0.047345396360275877,
					-0.09225560247446113,
					-0.09225560247446113,
					0.139600998834737,
					0.139600998834737,
					0.139600998834737,
					0.139600998834737,
					0,
					0
				]
			},
			"{\"Offer\": {\"Working Hours\": \"10 hours\"}}": {
				"N": 100,
				"D": 183,
				"b": -1.2509979356929903,
				"kernelType": "linear",
				"w": [
					0,
					0,
					0,
					0,
					0.19932310493385977,
					0,
					2.42861286636753e-17,
					-0.1627989446657241,
					0,
					0.15145445377099606,
					0.06933551679935496,
					-0.30113945985655355,
					0.0708336203487728,
					0.09603561804358379,
					-0.09555879076256739,
					0.14896808555457525,
					0.017501646993763748,
					-0.03768693879129255,
					0.11439226776005468,
					0.18044692786686592,
					-0.10769518747747482,
					-0.1343885788954823,
					0.058662957478787074,
					0.041519135150040264,
					0.8404063198704307,
					0.026522103767396138,
					-0.16193682933378997,
					0.02653009007942269,
					-1.0408340855860843e-17,
					-1.0408340855860843e-17,
					0.07300703490804217,
					0.06513179006533243,
					-0.4088083336145397,
					-1.3010426069826053e-18,
					-0.5489179342447819,
					-1.4886037756203763,
					-0.06254764344871741,
					0.07554552648595947,
					-0.07653368006538769,
					0.1657854713766045,
					-0.009431544225348865,
					0.014877342647498303,
					-0.07700156885329762,
					-0.07700156885329762,
					1.345782644782405,
					0,
					-0.0038322666426151533,
					0,
					0,
					6.938893903907228e-18,
					0,
					2.3418766925686896e-17,
					2.3418766925686896e-17,
					0,
					0.047943397034179415,
					0,
					0.15770143931168884,
					0.06101558889268744,
					0.10716603684665808,
					0.06421939550703895,
					0.008729500860874385,
					0.10716603684665808,
					-0.17100999169688025,
					0.25643966172799065,
					0.008729500860874378,
					0.027454333744251457,
					0.008729500860874378,
					-0.019091569112874962,
					0.03912666740111142,
					0.008729500860874378,
					-0.29489424533778297,
					1.4257258568184383e-17,
					0,
					0.11471253445864324,
					-0.07229155779406413,
					0.12274769261692808,
					0.31329294061023416,
					0.3171252072528493,
					0.23862017239486089,
					0.29784281220733955,
					0.3743904267015472,
					0.25230282086713,
					-0.04998271459658583,
					0,
					-0.05922263981247867,
					-0.09356157720279663,
					0.14927362488133256,
					-0.7862125510774269,
					0.26714811224117396,
					-0.2489678656214368,
					-0.05716900055916925,
					-0.16064993612455752,
					-0.16064993612455752,
					-0.054178946969651504,
					-0.17509511959041146,
					0.278630162103567,
					0.09322893333123988,
					0.09322893333123988,
					0.006091162853973875,
					-0.0627922746252332,
					-0.22483865313332124,
					0,
					-0.03637501792927583,
					-0.050823279729248994,
					0.07770534687899702,
					0.09560273833881702,
					0,
					0.00046788878790991734,
					-0.0038322666426151768,
					0,
					-1.3010426069826053e-18,
					0.13842871375381147,
					0.019282395045509784,
					0.019282395045509784,
					0.019282395045509784,
					0.04022077215224517,
					0.04022077215224516,
					0.05299120694423526,
					0.04022077215224516,
					0.04022077215224516,
					0,
					0,
					0.06796017604653384,
					0.042260282331537426,
					0.042260282331537426,
					-0.0038322666426151768,
					-0.0038322666426151785,
					-0.0038322666426151768,
					-0.06305490645509385,
					-0.0038322666426151768,
					-0.05992310454355964,
					-0.05992310454355964,
					-0.05922263981247867,
					-0.05922263981247867,
					-0.05922263981247867,
					-0.05922263981247867,
					-0.05922263981247867,
					-0.05922263981247867,
					-0.059222639812478654,
					-0.05922263981247867,
					-0.05922263981247867,
					0.006539365808025416,
					0.07654761449420769,
					0.07654761449420769,
					0.07654761449420769,
					1.4257258568184383e-17,
					0.09843653598578371,
					0.09843653598578371,
					0,
					0,
					-0.07000824868618227,
					0,
					-0.22483865313332124,
					-0.09836789696200979,
					-0.09836789696200979,
					-0.09836789696200979,
					-0.09836789696200979,
					-0.09836789696200979,
					-0.09836789696200979,
					0.1520792065513472,
					0,
					9.107298248878237e-18,
					9.107298248878237e-18,
					0,
					0,
					0,
					0,
					0,
					0,
					-0.008879458689625376,
					-0.008879458689625376,
					-0.008879458689625376,
					0,
					0,
					-1.734723475976807e-18,
					-1.734723475976807e-18,
					-1.734723475976807e-18,
					0,
					0,
					0,
					0,
					2.42861286636753e-17,
					2.42861286636753e-17
				]
			},
			"{\"Offer\": {\"Job Description\": \"Team Manager\"}}": {
				"N": 100,
				"D": 183,
				"b": -1.526101635146996,
				"kernelType": "linear",
				"w": [
					0,
					0,
					0,
					0,
					-0.03594984342392065,
					0,
					-0.010385044203185456,
					-0.036779772291250394,
					0,
					0.12294838237307355,
					0.030775582352200764,
					-0.3568058041613765,
					0.0510133276304847,
					-0.029307520742381524,
					0.05688411817584048,
					0.05688411817584048,
					0.2464005062134163,
					0.14727667934229677,
					-0.09182797149429964,
					-0.030062845436279326,
					-3.469446951953614e-18,
					0.15516431533643682,
					-0.02819534531396703,
					0.14852090914342603,
					0.12836567967411944,
					-0.22245179762811834,
					0.1726324057291338,
					-0.03682275551031612,
					0,
					0,
					-0.07375001720625021,
					-0.10392048875246283,
					0.05207367243424753,
					0,
					0.3107827453678732,
					-0.048228687668949444,
					0.036131138987482145,
					0.023361034390702737,
					-0.0320876734572944,
					0.006596354112068881,
					0.16236353913293056,
					0.14914661807341875,
					-0.02123728484887317,
					-0.02123728484887317,
					0.05752463814683188,
					-0.012787635890138387,
					-0.012787635890138387,
					-0.012787635890138387,
					-0.012787635890138387,
					-0.012787635890138387,
					-0.012787635890138387,
					-0.012787635890138387,
					-0.012787635890138387,
					-0.012787635890138387,
					0.03322495389642212,
					-0.012787635890138387,
					0.05503522061161212,
					0.07915319224150506,
					0.006288883637024102,
					0.681713335649134,
					0.5479441592992665,
					0.17717473083802943,
					0.2550766067911716,
					0.006288883637024102,
					0.05601245378578284,
					-0.23187107017059316,
					0.05601245378578284,
					-0.05333132275418667,
					0.1288767623902638,
					0.05601245378578284,
					-0.056548443584649506,
					0.09382735228577023,
					0.5002651354150826,
					0.5475261843416033,
					0.009551801651602576,
					0.1129138872918257,
					-0.04514396673917864,
					-0.015608521520262375,
					0.08317515868863079,
					-0.0033329687347159334,
					-0.0033329687347159334,
					-0.04728168598114011,
					-0.28012414746830483,
					0,
					0.08650812742334672,
					0.07707566162449553,
					0,
					-0.0350465175879733,
					-0.07786920452413658,
					-0.0350465175879733,
					-0.13941182237234814,
					-0.08227301143254313,
					0.11624685602654165,
					-0.5452490664505509,
					-0.08227301143254313,
					0.17905411951519196,
					-0.08227301143254313,
					-0.08227301143254313,
					0.05910804508673666,
					3.469446951953614e-18,
					-0.0350465175879733,
					-0.059869791078393755,
					-0.09182797149429964,
					-3.469446951953614e-18,
					-0.007759376488071184,
					0.09705013193441608,
					-0.08807879517813488,
					-0.010850388608421236,
					-0.010385044203185465,
					-0.05344932705652654,
					0.3452290795847146,
					0.12188257279847303,
					-0.01227555278554644,
					-0.01227555278554644,
					-0.01227555278554644,
					0.1110931705813906,
					0.1413810565192798,
					-0.08227301143254313,
					-0.057138810939804996,
					-0.057138810939804996,
					-0.010385044203185454,
					0,
					-0.0750514014889643,
					-8.673617379884035e-19,
					-8.673617379884035e-19,
					0,
					-0.03635172907330342,
					-0.010385044203185456,
					0.08650812742334672,
					0,
					-0.017201328057572615,
					0,
					0.08650812742334672,
					0.08650812742334672,
					0.08650812742334672,
					0.08650812742334672,
					0.08650812742334672,
					0.08650812742334672,
					0.08650812742334672,
					0.08650812742334672,
					0.08650812742334672,
					-0.059869791078393755,
					0,
					0,
					0,
					0,
					-0.060108614351944194,
					-0.049723570148758736,
					0,
					-4.336808689942018e-19,
					0,
					0,
					-0.0350465175879733,
					0,
					0,
					0,
					0,
					0,
					0,
					-0.09182797149429964,
					-0.059869791078393755,
					-0.030287885937889204,
					-0.030287885937889204,
					-0.019150401015730806,
					-0.019150401015730806,
					-0.019150401015730806,
					0,
					0,
					0,
					0,
					0,
					0,
					0,
					0,
					-0.017201328057572615,
					-0.017201328057572615,
					-0.017201328057572615,
					0,
					0,
					0,
					0,
					0,
					0
				]
			},
			"{\"Insist\": \"Working Hours\"}": {
				"N": 100,
				"D": 183,
				"b": -1.2587627945272384,
				"kernelType": "linear",
				"w": [
					0,
					0,
					0,
					0,
					0.15810296943678231,
					0,
					-0.0432087598078361,
					-0.07306468297982441,
					0,
					-0.002394916041299198,
					0.12142004154282889,
					-0.038439746087396975,
					-0.00649013760580426,
					-0.0023774201418771835,
					-0.03992631911043191,
					-0.03992631911043191,
					-0.027703700706782165,
					-0.000017495899422015457,
					-0.000017495899422015457,
					-0.005850434058968966,
					-0.037566394867976735,
					-0.11524495656320197,
					-0.05186989042430656,
					0.0892375249069179,
					0.14683324059665817,
					0,
					-0.0058329381595469505,
					0.2146316927053985,
					0,
					0,
					-0.043865453567239594,
					-0.009772072616354644,
					-0.05141911810926024,
					-0.013302467561358054,
					0.11233470583374423,
					-8.673617379884035e-19,
					-0.0023774201418771835,
					-0.0023774201418771835,
					-0.0023774201418771835,
					0.08687760066446273,
					-0.036346060777792566,
					-0.0023774201418771835,
					-0.0023774201418771835,
					-0.0023774201418771835,
					-0.059904246445619314,
					0,
					0,
					0,
					0,
					0,
					0,
					-6.071532165918825e-18,
					0,
					0,
					0.05356615947480466,
					-6.071532165918825e-18,
					-0.0023774201418771826,
					-0.0661084549953351,
					0,
					0.04672005315443788,
					-0.034672478151977514,
					-0.033968640635915384,
					0.018360056191143663,
					-0.003939134456807693,
					0,
					-0.03842225018797496,
					0,
					-0.0058329381595469505,
					-0.0661084549953351,
					0,
					0,
					0,
					-0.02768620480736015,
					-0.035548694307284676,
					0,
					0.2571546517128869,
					0.1627506968264235,
					0.21179239479380657,
					0.3505223899831538,
					0.2612673691768139,
					0.2612673691768139,
					0,
					-0.03842225018797496,
					0,
					0.08925502080633992,
					-0.029855923171988305,
					-0.003939134456807693,
					0,
					-0.00007794815156788714,
					-0.0023774201418771826,
					0,
					0,
					-0.004112717463927077,
					-0.0023774201418771826,
					0,
					-0.004112717463927077,
					0,
					0,
					-0.004112717463927077,
					0,
					0,
					0,
					0,
					0,
					0,
					-2.168404344971009e-19,
					-2.168404344971009e-19,
					0,
					-0.0432087598078361,
					0,
					-0.02768620480736015,
					0,
					-0.04947497438300736,
					-0.04947497438300736,
					-0.04947497438300736,
					-0.004112717463927077,
					-0.004112717463927077,
					0,
					0,
					0,
					-0.0432087598078361,
					0,
					0,
					0,
					0,
					0,
					-0.0058329381595469505,
					-0.0432087598078361,
					0.08925502080633992,
					0,
					-6.071532165918825e-18,
					0,
					0.08925502080633992,
					0.08925502080633992,
					0.08925502080633992,
					0.08925502080633992,
					0.08925502080633992,
					0.08925502080633992,
					0.08925502080633992,
					0.08925502080633992,
					0.08925502080633992,
					-0.03754889896855472,
					0,
					0,
					0,
					0,
					-0.0432087598078361,
					0,
					0,
					0,
					-0.03754889896855472,
					0,
					0,
					0,
					0,
					0,
					0,
					0,
					0,
					0,
					0,
					0,
					0,
					-0.0058329381595469505,
					-0.0058329381595469505,
					-0.0058329381595469505,
					0,
					0,
					0,
					0,
					0,
					0,
					0,
					0,
					-6.071532165918825e-18,
					0,
					0,
					-6.071532165918825e-18,
					-6.071532165918825e-18,
					-6.071532165918825e-18,
					-6.071532165918825e-18,
					0,
					0
				]
			},
			"{\"Reject\": \"Job Description\"}": {
				"N": 100,
				"D": 183,
				"b": -1.109098763637638,
				"kernelType": "linear",
				"w": [
					0,
					0,
					0,
					0,
					0.06285398585165451,
					0,
					-0.029359343718600026,
					-0.029359343718600026,
					-0.008638949575409961,
					-0.19274021208263573,
					0.1616026994249047,
					0.33166133601213016,
					-0.10542077175832544,
					-0.008638949575409961,
					-0.03368134399028509,
					-0.03368134399028509,
					0.14210655063420144,
					0,
					0,
					0.00716946183045945,
					-0.004108075774987332,
					-0.36604510749755886,
					-0.18410126250722575,
					0,
					-0.03200033828274966,
					-0.07830661665037063,
					-0.029359343718600026,
					0.13937376232143225,
					0,
					0,
					-0.09571231118039032,
					0,
					-0.0857158025400536,
					0.19148058077252303,
					-0.15267059961754031,
					0,
					-0.0194505917849596,
					-0.01329761875503237,
					-0.01329761875503237,
					0,
					-0.11007944093794785,
					-0.013297618755032362,
					-0.01329761875503237,
					-0.01329761875503237,
					-0.11030695493312029,
					0,
					-0.029290902933127434,
					8.673617379884035e-19,
					0,
					0,
					0,
					0,
					0,
					0,
					-0.09335250242490906,
					0,
					-0.007636699884855436,
					0.1434818380964196,
					-0.007636699884855436,
					0.277432060625908,
					0.287870665063794,
					-0.018702719527717297,
					-0.2383687445972593,
					-0.007636699884855436,
					-0.007636699884855436,
					0.2900750640145249,
					-0.007636699884855436,
					-0.12853183822338587,
					0.06517522144604895,
					-0.007636699884855436,
					-0.007636699884855436,
					0,
					-0.14501624217235023,
					0.15111853798127503,
					0,
					-0.011066019642861857,
					-0.02929090293312743,
					3.469446951953614e-18,
					3.469446951953614e-18,
					3.469446951953614e-18,
					-0.07830661665037063,
					0,
					0.4877014592719555,
					-0.006152973029927238,
					-0.006152973029927238,
					-0.013297618755032362,
					0,
					0,
					0,
					0,
					0,
					0,
					-0.01106601964286186,
					-0.01329761875503237,
					0,
					-0.024363638397894224,
					0,
					0,
					-0.01106601964286186,
					0,
					0,
					0,
					0,
					0,
					-0.01329761875503237,
					8.239936510889834e-18,
					0,
					0,
					-0.029290902933127434,
					0,
					0.14825952366412867,
					0,
					0,
					0,
					0,
					-0.01106601964286186,
					-0.01106601964286186,
					0,
					0,
					0,
					0,
					0,
					0,
					0,
					0,
					-0.029290902933127434,
					-0.029290902933127434,
					-0.029290902933127434,
					-0.029290902933127434,
					-0.029290902933127434,
					0,
					0,
					0,
					0,
					0,
					0,
					0,
					0,
					0,
					0,
					0,
					-0.08241469242535795,
					-0.07830661665037063,
					-0.07830661665037063,
					-0.07830661665037063,
					0,
					0,
					0,
					8.673617379884035e-19,
					0,
					-0.004108075774987332,
					0,
					0,
					0,
					0,
					0,
					0,
					0,
					0,
					0,
					0,
					0,
					0,
					0,
					0,
					0,
					0,
					0,
					0,
					0,
					0,
					0,
					0,
					0,
					0,
					0,
					0,
					0,
					0,
					0,
					0,
					0,
					0
				]
			},
			"{\"Offer\": {\"Pension Fund\": \"0%\"}}": {
				"N": 100,
				"D": 183,
				"b": -1.6893894088396104,
				"kernelType": "linear",
				"w": [
					0,
					1.734723475976807e-18,
					1.734723475976807e-18,
					1.734723475976807e-18,
					0.2716604972305268,
					0,
					-0.0450006220147902,
					0.15959185388099384,
					0,
					-0.26467959719168943,
					-0.5897144284663588,
					-0.05380388064545091,
					0.39330720839328553,
					0.11190951553415254,
					-0.014324933385512745,
					-0.014324933385512745,
					0.10351134658681996,
					3.469446951953614e-18,
					0,
					-0.04596643888466452,
					-3.469446951953614e-18,
					0.31356806344024657,
					-0.2653118234393378,
					0.3942572571724036,
					-0.10948725128950366,
					-0.06477007396275994,
					-0.14892461354912562,
					0.36319902605042015,
					-0.06477007396275994,
					-0.06477007396275994,
					-0.18711705568535025,
					-0.11073651284742446,
					0.7708349763183825,
					-0.1956596630110297,
					-0.10901256017007249,
					-0.306922099024736,
					0.267021942296394,
					-0.08555821887950268,
					-0.0855582188795027,
					-0.06133242454344426,
					-0.36946477919766163,
					0.28863456794336234,
					-0.061332424543444265,
					-0.061332424543444265,
					-0.15353425831864634,
					-0.06304612128540797,
					-0.06304612128540797,
					-0.06304612128540797,
					-0.06304612128540797,
					0.33121113588699563,
					-0.06304612128540797,
					-0.06304612128540797,
					-0.06304612128540797,
					-0.06304612128540797,
					0.2559416411948016,
					-0.06304612128540797,
					0.09200796924328009,
					-0.024858020583706793,
					-0.024858020583706793,
					-0.13711383614262673,
					3.7947076036992655e-18,
					0.3717438349671897,
					-0.24119101830484685,
					-0.024858020583706793,
					6.071532165918825e-18,
					2.6020852139652106e-18,
					6.071532165918825e-18,
					-0.02110841830095772,
					7.806255641895632e-18,
					6.071532165918825e-18,
					7.806255641895632e-18,
					-0.02067333471011037,
					3.469446951953614e-18,
					-0.13711383614262673,
					-0.024225794336058426,
					-4.0115480381963664e-18,
					-0.021108418300957724,
					0,
					3.469446951953614e-18,
					0,
					0,
					0,
					-0.1956596630110297,
					-3.469446951953614e-18,
					0,
					-0.08676924343970399,
					0,
					-0.17912137831218672,
					-0.3930850113422435,
					-0.061332424543444265,
					0,
					0,
					-0.16401200882500733,
					0.20285863285406763,
					0,
					0.4186996641454275,
					1.734723475976807e-18,
					1.734723475976807e-18,
					-4.0115480381963664e-18,
					0,
					-1.734723475976807e-18,
					0,
					0,
					-0.009793947487148904,
					-0.009793947487148905,
					-0.13711383614262673,
					0,
					-0.02422579433605843,
					0,
					-0.020673334710110375,
					0,
					0,
					0,
					3.469446951953614e-18,
					0,
					-4.0115480381963664e-18,
					-4.0115480381963664e-18,
					0,
					-0.16401200882500733,
					-0.16401200882500733,
					-0.16401200882500733,
					3.469446951953614e-18,
					0.7940029276541694,
					0,
					0,
					0,
					-0.021108418300957724,
					0,
					3.469446951953614e-18,
					0,
					-0.04919587901932641,
					-0.04919587901932641,
					3.469446951953614e-18,
					3.469446951953614e-18,
					3.469446951953614e-18,
					3.469446951953614e-18,
					3.469446951953614e-18,
					3.469446951953614e-18,
					3.469446951953614e-18,
					3.469446951953614e-18,
					3.469446951953614e-18,
					-3.469446951953614e-18,
					0,
					0,
					0,
					0,
					-0.0248580205837068,
					-0.0248580205837068,
					-3.469446951953614e-18,
					1.734723475976807e-18,
					-3.469446951953614e-18,
					0,
					-1.734723475976807e-18,
					0,
					0,
					0,
					0,
					0,
					0,
					0,
					0,
					0,
					0,
					-0.021108418300957724,
					-0.021108418300957724,
					-0.021108418300957724,
					3.469446951953614e-18,
					3.469446951953614e-18,
					3.469446951953614e-18,
					-0.17787074210027126,
					-0.17787074210027126,
					-0.17787074210027126,
					0,
					0,
					0,
					0,
					0,
					0,
					0,
					0,
					0,
					-0.0450006220147902,
					-0.0450006220147902
				]
			},
			"{\"Offer\": {\"Pension Fund\": \"20%\"}}": {
				"N": 100,
				"D": 183,
				"b": -1.0012291491280794,
				"kernelType": "linear",
				"w": [
					0,
					0,
					0,
					0,
					0.0003962633157247958,
					0,
					-1.6805133673525319e-18,
					-0.00022597442305272327,
					-0.000019953959019236654,
					0.0008275430371926795,
					-0.000654416446676187,
					-0.0002022656787575682,
					-0.00038428233479852745,
					-0.000026788813793587885,
					0.00014625337133472523,
					0.0011901400368234387,
					-0.00004616100048717472,
					-0.0002786035553005384,
					-0.0002786035553005384,
					-0.0003919902592976247,
					0.0008464643654251045,
					-0.00023832455608712442,
					0.0011407939532095401,
					0.0002629075719648079,
					-0.0017102333247893675,
					0.0004886276167907599,
					0.00021000162029954355,
					0.00009759763202450147,
					0,
					0,
					-0.0004818271186100481,
					-0.0002621159182830937,
					0.0020647279220442154,
					-0.0003474351274605078,
					5.9631119486702744e-18,
					0.000023390514231913566,
					-0.000675696222597269,
					0.0000022360311771052466,
					0.0000022360311771052466,
					0.0006471345272176521,
					0.0004336540880695094,
					-0.0011625929341791963,
					0.0000906544378269647,
					0.0000906544378269647,
					0.0011576183767338932,
					0,
					-0.00009674983380293802,
					-5.963111948670274e-19,
					0,
					-0.0003436776732433283,
					0,
					-0.0000967498338029448,
					-0.00009674983380294485,
					0,
					-0.00034743512746050536,
					5.421010862427522e-20,
					0.00023798310856854856,
					0,
					0,
					-0.000046448879925553794,
					0.0003965611837179148,
					-0.00036372313517355593,
					-0.0004976871630049253,
					0,
					0,
					-0.000001522821258405577,
					0,
					-0.00026211591828308666,
					0,
					0,
					0.000013785667232645807,
					2.168404344971009e-19,
					0,
					-0.0004430100636434694,
					-0.000238670442194281,
					0.0006563330574304646,
					-0.00009674983380293797,
					0,
					0,
					0,
					0,
					-0.0003167424330862614,
					-0.0003474351274604999,
					-2.168404344971009e-19,
					-2.168404344971009e-19,
					-0.0010340847971723195,
					0,
					-0.00008431740535772594,
					1.998065781185684,
					0.0010014895318835038,
					-0.000158950590175034,
					-0.0001589505901750342,
					-0.0005226737253485902,
					0.000004634652274404516,
					0.0006563330574304645,
					0.0005703955963488538,
					0.00016865660607989774,
					0.00016865660607989774,
					-0.0001589505901750341,
					-0.0003081275004680478,
					-0.00015025203554441504,
					6.5052130349130266e-18,
					6.640738306473715e-18,
					-0.00018889412368872094,
					0.0001586858602655117,
					0.00020689076436072667,
					0.0005724091009255538,
					-0.00008841840664985945,
					6.261267546103788e-18,
					0,
					-7.589415207398531e-19,
					0.0008851888005086746,
					0,
					0,
					0,
					-0.00029496740624362965,
					1.0842021724855044e-19,
					0.0006563330574304645,
					-0.00036372313517355604,
					-0.00036372313517355604,
					-0.00036372313517355604,
					0,
					-0.0008102373083627564,
					-0.0001118638827386722,
					-0.0001118638827386722,
					6.830473686658678e-18,
					6.830473686658678e-18,
					6.830473686658678e-18,
					6.830473686658678e-18,
					6.830473686658678e-18,
					1.0842021724855044e-19,
					5.421010862427522e-20,
					0,
					0,
					0,
					0,
					0,
					0,
					0,
					0,
					0,
					-0.00020632010673062427,
					0,
					0,
					0,
					0,
					0,
					0,
					-5.963111948670274e-19,
					0,
					-0.00020632010673062427,
					2.168404344971009e-19,
					-0.00015025203554442154,
					0,
					0,
					0,
					0,
					0,
					0,
					0,
					0,
					-0.00029496740624362976,
					-0.00029496740624362976,
					0,
					0,
					0,
					0,
					0,
					0,
					0,
					0,
					0,
					0,
					0,
					5.421010862427522e-20,
					0,
					0,
					5.421010862427522e-20,
					5.421010862427522e-20,
					5.421010862427522e-20,
					5.421010862427522e-20,
					0,
					0
				]
			},
			"{\"Offer\": {\"Leased Car\": \"Without leased car\"}}": {
				"N": 100,
				"D": 183,
				"b": -1.8317572560564397,
				"kernelType": "linear",
				"w": [
					0,
					1.734723475976807e-18,
					1.734723475976807e-18,
					1.734723475976807e-18,
					-0.23756737894351193,
					0,
					5.204170427930421e-18,
					0.09883856244243405,
					0,
					0.15846625987891488,
					0.6194940177683556,
					-0.19403019578372027,
					-0.04985721630659562,
					0.03232530941925314,
					0.043010783494426,
					0.043010783494426,
					0.037735985671922864,
					-0.05950433187843366,
					0.06071531623815696,
					-0.024011319241483017,
					-0.024011319241483045,
					-0.09339324133321375,
					0.2888997872834738,
					0.2981245497779452,
					-0.08231986831126958,
					0.19748354161849913,
					0.17172240635958377,
					-0.11861554493442031,
					0,
					0,
					0.05094068222033386,
					2.8406096919120216e-17,
					-0.5094215443108835,
					0,
					7.806255641895632e-18,
					-0.08053480945933185,
					0.13896522414788337,
					-0.04501375843312308,
					-0.09424738127581259,
					-0.32191889750093344,
					0.8711548199670835,
					0.2869982457128775,
					-0.049016651324194666,
					-0.049016651324194666,
					0.13340210168143218,
					0,
					0,
					0,
					0,
					0,
					0,
					0,
					0,
					0,
					-0.10939078243994893,
					0,
					-0.14067221578487898,
					0,
					-1.734723475976807e-18,
					0.07999892921516433,
					0.03436256945483804,
					-0.19968054038604,
					0.08472663547964,
					-1.734723475976807e-18,
					0,
					1.734723475976807e-18,
					0,
					4.662069341687669e-17,
					1.734723475976807e-18,
					0,
					0.2294388636639545,
					-0.03549301263695061,
					-0.035493012636950615,
					0.010143347123375676,
					0.0040028928910712585,
					0.32613304759692435,
					1.734723475976807e-18,
					-3.469446951953614e-18,
					-3.469446951953614e-18,
					-3.469446951953614e-18,
					-3.469446951953614e-18,
					-0.049709784815990386,
					0,
					0,
					0,
					1.9999530439834718,
					0,
					0.25545133432618117,
					0.00032771331380211655,
					0.03906078036745815,
					0.16576525973008016,
					0.16576525973008016,
					0.0754755017839891,
					-0.08273748570447625,
					0.4164228055430154,
					-0.2531478477672662,
					0.09370176787391316,
					0.09370176787391316,
					0.0754755017839891,
					0.03815713886701883,
					1.3660947373317356e-17,
					7.806255641895632e-18,
					0.08472663547964002,
					-0.4376414876919962,
					-0.25065754581293526,
					0.031904156224153046,
					0,
					-0.04523072995161814,
					5.204170427930421e-18,
					0,
					1.734723475976807e-18,
					0.32213586901942826,
					0,
					2.8189256484623115e-18,
					0,
					-0.09028975794609105,
					-0.09028975794609106,
					0.2569259118702914,
					-1.734723475976807e-18,
					-1.734723475976807e-18,
					5.204170427930421e-18,
					0,
					-5.204170427930421e-18,
					2.42861286636753e-17,
					2.42861286636753e-17,
					0,
					0,
					5.204170427930421e-18,
					0,
					0,
					1.496198998029996e-17,
					1.214306433183765e-17,
					0,
					0,
					0,
					0,
					0,
					0,
					0,
					0,
					0,
					0,
					0,
					0,
					0,
					0,
					3.469446951953614e-18,
					-1.734723475976807e-18,
					0,
					0,
					0,
					5.637851296924623e-18,
					5.854691731421724e-18,
					0,
					0,
					0,
					0,
					0,
					0,
					0.08472663547964,
					0,
					1.214306433183765e-17,
					1.214306433183765e-17,
					0,
					0,
					0,
					2.8189256484623115e-18,
					2.8189256484623115e-18,
					2.8189256484623115e-18,
					0,
					0,
					0,
					0,
					0,
					0,
					0,
					0,
					0,
					0,
					0,
					0,
					0,
					0
				]
			},
			"{\"Offer\": {\"Working Hours\": \"8 hours\"}}": {
				"N": 100,
				"D": 183,
				"b": -1.3070874171611349,
				"kernelType": "linear",
				"w": [
					0,
					0,
					0,
					0,
					-0.037965457097269964,
					0,
					0,
					0.1439398733594642,
					-0.031225194220089486,
					0.10236269260761433,
					-0.02681534868459486,
					0.15290098832139443,
					0.17015913203357233,
					-0.005057942373321253,
					-0.027153714597915928,
					-0.027153714597915928,
					-0.07672965347003524,
					3.469446951953614e-18,
					8.673617379884035e-19,
					-0.09926722738741192,
					-4.336808689942018e-19,
					0.1258303634548718,
					0.09964194942218368,
					-0.06955261918638025,
					-0.3677840944757619,
					-0.02860856416550489,
					-0.02864319216768163,
					0.01738450772120341,
					-0.024967180175261255,
					-0.024967180175261255,
					0.03738394849631767,
					0.08543592057890606,
					0.13568113883947855,
					-0.027017885653735245,
					-0.00834601864947206,
					-0.08432858506256596,
					0.06276605111785635,
					-0.15608001910281447,
					-0.15608001910281447,
					-0.10470337678113731,
					0.03303763208402353,
					-0.10470337678113731,
					-0.10470337678113731,
					-0.10470337678113731,
					0.2326938416956424,
					0,
					0,
					0,
					0,
					-0.06955261918638025,
					0,
					0,
					0,
					0,
					-0.10302934740540157,
					0,
					-0.17425599596751756,
					-0.004670006657051682,
					-0.004670006657051682,
					0,
					0,
					-0.07601146175166631,
					0.16403778817057765,
					-0.004670006657051682,
					0,
					-0.010268635667794256,
					0,
					0.10946946773296438,
					-0.003641383990243635,
					0,
					-0.0032264615439662123,
					-0.00196225568801097,
					3.469446951953614e-18,
					3.469446951953614e-18,
					0.14434903815968747,
					0.11023350957242029,
					0,
					0,
					0,
					0,
					-0.003641383990243635,
					0,
					-0.027017885653735245,
					0,
					0,
					0.10138101505168841,
					0,
					0.8592064055303172,
					0.1484774476047676,
					0.34474790002472455,
					0.10827125388440934,
					0.11023350957242029,
					0.11023350957242029,
					0.09297557056463113,
					0.11023350957242029,
					-0.06198364390279253,
					-0.0032264615439662123,
					-0.0032264615439662123,
					0.11023350957242029,
					-0.018869310680628536,
					0.1957256804813646,
					0,
					8.673617379884035e-19,
					-0.11345997111638648,
					0,
					-0.018869310680628536,
					0,
					-0.05137664232167714,
					0,
					0,
					0,
					0,
					0,
					-1.734723475976807e-18,
					0,
					0,
					0,
					-0.2569520578684634,
					0,
					0,
					0,
					0,
					1.734723475976807e-18,
					-0.0806525730701456,
					-0.0806525730701456,
					0,
					-0.0036760119924203784,
					0,
					0,
					0,
					-0.00367601199242038,
					0,
					0,
					0,
					0,
					0,
					0,
					0,
					0,
					0,
					0,
					-0.003641383990243635,
					-0.003641383990243635,
					-0.003641383990243635,
					-0.003641383990243635,
					0,
					-0.004670006657051682,
					-0.004670006657051682,
					0,
					0,
					0,
					-0.0019622556880109733,
					0.1957256804813646,
					0,
					0,
					0,
					0,
					0,
					0,
					8.673617379884035e-19,
					0,
					0,
					0,
					0,
					0,
					0,
					-1.734723475976807e-18,
					-1.734723475976807e-18,
					-1.734723475976807e-18,
					0,
					0,
					0,
					0,
					0,
					-0.0036760119924203784,
					-0.0036760119924203784,
					-0.0036760119924203784,
					0,
					0,
					0,
					0,
					0,
					0
				]
			},
			"{\"Offer\": {\"Salary\": \"20,000 NIS\"}}": {
				"N": 100,
				"D": 183,
				"b": -1.3057878350202876,
				"kernelType": "linear",
				"w": [
					0,
					0,
					0,
					0,
					0.11676715871869237,
					0,
					0,
					-0.1851300457870741,
					-0.03358178067200073,
					-0.09182433366483866,
					0.24291979294223398,
					-0.11752604266002944,
					-0.09706193886768893,
					-0.08666869491323925,
					0.2443505515540976,
					0.2443505515540976,
					-0.8300065438824256,
					-8.673617379884035e-19,
					0,
					-0.0705784877910319,
					0.2720751902673355,
					-0.017192245629103375,
					0.04816273474843713,
					-0.0008416432840721945,
					-0.006935148716901151,
					-0.082756263233755,
					-0.14670237938417266,
					0.28977865772041667,
					-0.05069033559734732,
					-0.05069033559734732,
					0.13526561600765086,
					0.07366215239008128,
					-0.0847816863564903,
					8.673617379884035e-19,
					-0.0978315834935758,
					-0.007016195362003517,
					0.08560619623906329,
					-0.05824255299283798,
					-0.05824255299283798,
					0.04732109146436492,
					-0.00615825072140183,
					0.04816273474843713,
					0.04816273474843713,
					0.04816273474843713,
					0.043368152648634584,
					1.734723475976807e-18,
					1.734723475976807e-18,
					1.734723475976807e-18,
					1.734723475976807e-18,
					1.734723475976807e-18,
					1.734723475976807e-18,
					1.734723475976807e-18,
					1.734723475976807e-18,
					1.734723475976807e-18,
					-0.06738862588714803,
					1.734723475976807e-18,
					-0.08636186919301247,
					-0.039700558908897926,
					-0.038512560154624204,
					-0.04054220219297012,
					-0.038512560154624204,
					-0.06654698260307586,
					0.10854017817101168,
					-0.062054453776903676,
					-0.038512560154624204,
					-0.0717664865453056,
					-0.038512560154624204,
					-0.018696149968149167,
					-0.0717664865453056,
					-0.038512560154624204,
					0.04160616456526364,
					-8.673617379884035e-19,
					-8.673617379884035e-19,
					-0.0011879987542737242,
					0.041489093868432955,
					-0.03201752738267253,
					-0.03493548643259993,
					-0.03493548643259993,
					-0.03577712971667212,
					-0.03493548643259993,
					-0.06700141406900761,
					0,
					-0.0011879987542737233,
					0,
					-0.0008416432840721945,
					-0.0012616237332523234,
					-0.02354189362227947,
					0.15081234065963547,
					0.001437973016588657,
					1.169912409472472,
					0.00291795904992741,
					0.00291795904992741,
					0.002917959049927399,
					0.08560619623906329,
					0.0029179590499274033,
					-0.026286563021387294,
					0.14384874923190127,
					0.14384874923190127,
					0.0029179590499274033,
					-0.10640528774127511,
					0.14789438160970808,
					0,
					-1.734723475976807e-18,
					0.14093079018197385,
					0,
					-0.10640528774127513,
					-2.3310346708438345e-18,
					-0.10640528774127513,
					0,
					0,
					0,
					0,
					0,
					0,
					0,
					-0.06373002451201346,
					6.938893903907228e-18,
					7.806255641895632e-18,
					-4.336808689942018e-18,
					-4.336808689942018e-18,
					-1.1275702593849246e-17,
					0,
					0,
					-1.3877787807814457e-17,
					-1.3877787807814457e-17,
					0,
					0,
					0,
					-0.0008416432840721945,
					0,
					0,
					0,
					-0.0008416432840721945,
					-0.0008416432840721945,
					-0.0008416432840721945,
					-0.0008416432840721945,
					-0.0008416432840721945,
					-0.0008416432840721945,
					-0.0008416432840721945,
					-0.0008416432840721945,
					-0.0008416432840721945,
					0.3637524420069409,
					-0.03206592763640768,
					-0.03206592763640768,
					-0.03206592763640768,
					0,
					0,
					0,
					0,
					3.469446951953614e-18,
					0.3958183696433486,
					0,
					0.14789438160970808,
					0,
					0,
					0,
					0,
					0,
					0,
					0,
					0,
					-0.06373002451201346,
					-0.06373002451201346,
					0,
					0,
					0,
					0,
					0,
					0,
					0,
					0,
					0,
					0,
					0,
					0,
					0,
					0,
					0,
					0,
					0,
					0,
					0,
					0
				]
			},
			"{\"Offer\": {\"Salary\": \"7,000 NIS\"}}": {
				"N": 100,
				"D": 183,
				"b": -1.0211602884022073,
				"kernelType": "linear",
				"w": [
					0,
					0,
					0,
					0,
					-0.0319017030077709,
					3.469446951953614e-18,
					-0.04940005138784573,
					0.03405630841004553,
					-0.011064739694116718,
					0.07349038307601528,
					0.0521981943592375,
					-0.015916464298884384,
					0.16804061386519975,
					-0.23093540935459134,
					-0.0072688084046300325,
					-0.0072688084046300325,
					-0.41047581632735,
					0,
					-0.017336977244757412,
					-0.00950343362092661,
					0,
					-0.05681918409724375,
					-0.012124529193811724,
					-0.026123034647687813,
					-0.09430034502760054,
					0.0952663058642487,
					-0.06512882516769439,
					-0.02708536448162764,
					0,
					0,
					0.04592595680859679,
					-0.016440464112010125,
					-0.03735298431194164,
					-0.06220504978528952,
					0.11587532671327967,
					-0.004651709016158944,
					0.17992898722371986,
					0.06721814552537457,
					0.08455512277013198,
					-0.029461506438569134,
					-0.026845269759764808,
					-0.012124529193811722,
					-0.012124529193811722,
					-0.012124529193811722,
					-0.0488296765756371,
					7.806255641895632e-18,
					-0.12858834975554545,
					-0.012396842370858679,
					7.806255641895632e-18,
					0,
					0,
					-0.01322329216605246,
					0,
					0,
					0,
					-0.01322329216605246,
					-0.012124529193811722,
					0,
					0,
					-0.013304223804494017,
					-0.013304223804494017,
					-0.06315679633841514,
					-0.08939251179290991,
					-0.016440464112010125,
					0,
					-0.004851724604767667,
					0,
					-0.004851724604767666,
					-0.004851724604767666,
					0,
					-0.07049184146115967,
					0.17217356501716885,
					0,
					0,
					0.07934267471918631,
					-0.06627018905489676,
					-0.013223292166052447,
					1.1709383462843448e-17,
					1.1709383462843448e-17,
					1.1709383462843448e-17,
					-0.004851724604767654,
					0,
					-0.012396842370858686,
					-3.469446951953614e-18,
					-3.469446951953614e-18,
					0.06188130075177725,
					-0.016440464112010125,
					-0.052965965250402765,
					-0.06515499668756233,
					-0.05303046749375063,
					0.08131224995115986,
					0.09481413300150454,
					0.0316573366630894,
					-0.028595267277025434,
					-0.052965965250402765,
					0.0026162366788043435,
					0.09474963075815668,
					0.09474963075815668,
					-0.07977207210524147,
					1.0622017125071743,
					0.2971093778581344,
					0.399574692965992,
					0.14723974991368904,
					-0.00006450224334786673,
					0,
					0.2941584424111209,
					-0.012124529193811722,
					0.09667965196394372,
					-0.06047711615153544,
					0,
					0,
					0,
					0,
					1.3010426069826053e-18,
					0,
					0.10351261742965955,
					0.12097399139706859,
					0.1477800982519073,
					0.08442564266764149,
					0.08442564266764149,
					-0.04985257253392113,
					0,
					0,
					0,
					0,
					0,
					-0.004651709016158944,
					0,
					0,
					0,
					-0.0178750011822114,
					0,
					0,
					0,
					0,
					0,
					0,
					0,
					0.17217356501716885,
					0,
					0,
					-0.030974759252455478,
					-0.004851724604767666,
					-0.004851724604767666,
					-0.004851724604767666,
					0.17217356501716885,
					0,
					0,
					-0.012396842370858686,
					-0.010309126271656983,
					0,
					-2.168404344971009e-19,
					0,
					-2.6020852139652106e-18,
					-2.6020852139652106e-18,
					-2.6020852139652106e-18,
					-2.6020852139652106e-18,
					-2.6020852139652106e-18,
					-2.6020852139652106e-18,
					-0.017336977244757412,
					-0.026123034647687813,
					-0.017461373967409044,
					-0.017461373967409044,
					0,
					0,
					0,
					1.3010426069826053e-18,
					1.3010426069826053e-18,
					1.3010426069826053e-18,
					0,
					0,
					0,
					0,
					0,
					-0.017875001182211404,
					-0.004651709016158944,
					-0.004651709016158944,
					-0.01322329216605246,
					-0.01322329216605246,
					-0.01322329216605246,
					-0.01322329216605246,
					-0.04940005138784573,
					-0.04940005138784573
				]
			},
			"{\"Offer\": {\"Promotion Possibilities\": \"Slow promotion track\"}}": {
				"N": 100,
				"D": 183,
				"b": -1.2874463254518538,
				"kernelType": "linear",
				"w": [
					0,
					0,
					0,
					0,
					-0.024040693304841,
					0,
					0,
					-0.1828610722527738,
					0,
					-0.06719617313601867,
					0.030140010459896963,
					-0.04184850841518879,
					0.05157385140662957,
					-0.9260890471411358,
					0.22968849870473007,
					0.051957203977910746,
					0.0716239590172515,
					0,
					-0.0036439464424267106,
					1.734723475976807e-18,
					-2.5912431922403556e-17,
					-0.05944067027975446,
					-0.03218818199043907,
					-0.023608541846888643,
					0.13552050114943476,
					-0.0084122584932853,
					-0.12962501791828482,
					-0.055796723837327714,
					0,
					0,
					-0.015340541018327766,
					1.734723475976807e-18,
					0.19658506844206095,
					-0.012344098728939946,
					-0.01005153910711974,
					-0.0392501515556688,
					0.12501419717971404,
					0.026496064017470254,
					0.030140010459896963,
					-0.017604065243956364,
					0.12444996766943525,
					-0.0787600822771453,
					0.0651480016054766,
					0.0651480016054766,
					0.09755300837665513,
					0,
					0,
					0,
					0,
					-0.02360854184688868,
					0,
					0,
					0,
					0,
					-0.012344098728939904,
					0,
					-0.037568660648418385,
					0,
					0,
					0.015106612154207642,
					-0.04741388082813016,
					-0.07202358596192497,
					-0.02440030366465192,
					0,
					0,
					0.0791081204070063,
					0,
					0.06058125534038065,
					0,
					0,
					-0.6453963712054875,
					-0.018526865066625646,
					0,
					0.06252049298233776,
					-0.038651937588006315,
					-0.1649548707197685,
					1.734723475976807e-18,
					0,
					3.903127820947816e-17,
					0,
					0,
					0,
					-0.012344098728939946,
					0,
					3.903127820947816e-17,
					0.07820777526673067,
					0,
					-0.056431290373184693,
					0.07843941114332785,
					-0.03820322718427533,
					0.14120385156877885,
					0.22258031650401322,
					0.1505567305420883,
					0.22190796667535123,
					-0.11754098989163836,
					0.10585987031551332,
					-0.17565004689155117,
					-0.17565004689155117,
					0.11231683580727438,
					0.07305469690072133,
					0,
					0,
					-0.01205620493571201,
					0.12126200250510388,
					0.7282255042259594,
					1.0729484128253937,
					0.0025099802957125987,
					-0.035007991145579606,
					0,
					0,
					0.0791081204070063,
					0,
					0,
					0,
					0,
					-0.11026348069673886,
					-0.11026348069673886,
					-0.07933776270736302,
					-0.08745930500240351,
					-0.08745930500240351,
					-0.03466124424091459,
					0,
					-0.11907214850075645,
					0,
					0,
					0,
					1.734723475976807e-18,
					0,
					3.903127820947816e-17,
					0,
					1.6263032587282567e-18,
					1.6263032587282567e-18,
					3.903127820947816e-17,
					3.903127820947816e-17,
					3.903127820947816e-17,
					3.903127820947816e-17,
					3.903127820947816e-17,
					3.903127820947816e-17,
					3.903127820947816e-17,
					3.903127820947816e-17,
					3.903127820947816e-17,
					0,
					0,
					0,
					0,
					0,
					0,
					0,
					0,
					0,
					0,
					-0.018526865066625646,
					0,
					0,
					0,
					0,
					0,
					0,
					0,
					-0.0036439464424267106,
					0,
					0,
					0,
					1.734723475976807e-18,
					1.734723475976807e-18,
					1.734723475976807e-18,
					0,
					0,
					0,
					0,
					0,
					0,
					0,
					0,
					0,
					0,
					0,
					0,
					0,
					0,
					0,
					0,
					0
				]
			},
			"{\"Offer\": {\"Leased Car\": \"No agreement\"}}": {
				"N": 100,
				"D": 183,
				"b": -1.193838047430844,
				"kernelType": "linear",
				"w": [
					0,
					0,
					0,
					0,
					-0.0026894197135239393,
					-2.2768245622195593e-18,
					-5.421010862427522e-19,
					2.0599841277224584e-18,
					0,
					0,
					-0.01077463251226492,
					0,
					-0.08634972013483132,
					0,
					-0.10016400721786842,
					-0.10016400721786842,
					0.10049502271740497,
					0,
					0,
					3.144186300207963e-18,
					0,
					-0.010362098755403611,
					-0.007672679041879668,
					0,
					0.13698212657331388,
					-6.071532165918825e-18,
					2.2768245622195593e-18,
					-0.0026894197135239346,
					0,
					0,
					-0.013464052225788854,
					-0.010774632512264917,
					-0.0766473266163304,
					0,
					0.056982753622208705,
					0,
					0.13334269699287288,
					0,
					0,
					0,
					-0.1536660530772318,
					0,
					0,
					0,
					0.05685592085753029,
					0,
					0,
					-5.9631119486702744e-18,
					0,
					0,
					0,
					0,
					0,
					0,
					3.144186300207963e-18,
					0,
					-0.002689419713523937,
					2.6020852139652106e-18,
					2.6020852139652106e-18,
					-0.05350204585936341,
					-0.05350204585936341,
					-0.1301493724756938,
					-6.938893903907228e-18,
					-0.010774632512264917,
					0,
					0,
					0,
					-0.032847674275467906,
					0,
					0,
					-0.059749921571186124,
					-0.032847674275467906,
					0,
					0,
					0,
					-0.11325196743054954,
					-0.00767267904187967,
					-0.007672679041879671,
					0,
					0,
					0,
					0,
					-5.9631119486702744e-18,
					-0.020101565428561324,
					-0.020101565428561324,
					0,
					-0.01077463251226492,
					0,
					-0.059749921571186124,
					2.6020852139652106e-18,
					0.2784047210670839,
					0.054954705989725336,
					-0.07519466648596847,
					-0.11706141226301267,
					-0.059749921571186124,
					-0.1536660530772318,
					0.054954705989725336,
					0.054954705989725336,
					0.10263163627559473,
					0.15042257266816347,
					-0.004696140539430272,
					-0.004696140539430272,
					-0.004696140539430281,
					-0.040414085646682286,
					-0.040414085646682286,
					0,
					0,
					0,
					1.734723475976807e-18,
					0,
					0,
					0,
					-0.007672679041879671,
					-0.007672679041879671,
					-0.007672679041879671,
					0.35791435670105687,
					0.35791435670105687,
					0.09536879163640762,
					0.3347690759440899,
					0.3347690759440899,
					-0.07664732661633039,
					0,
					0,
					0,
					0,
					0,
					5.421010862427522e-19,
					0,
					0,
					0,
					0,
					0,
					0,
					0,
					0,
					0,
					0,
					0,
					3.469446951953614e-18,
					0,
					0,
					0,
					0,
					0,
					0,
					3.469446951953614e-18,
					2.6020852139652106e-18,
					2.6020852139652106e-18,
					-5.9631119486702744e-18,
					0,
					0,
					-0.032847674275467906,
					0,
					0,
					0,
					0,
					0,
					0,
					0,
					0,
					0,
					0,
					0,
					5.421010862427522e-19,
					5.421010862427522e-19,
					5.421010862427522e-19,
					0,
					0,
					0,
					-0.002689419713523937,
					-0.002689419713523937,
					-0.002689419713523937,
					0,
					0,
					0,
					0,
					0,
					0,
					0,
					0,
					0,
					0,
					0
				]
			},
			"{\"Offer\": {\"Job Description\": \"QA\"}}": {
				"N": 100,
				"D": 183,
				"b": -1.395837739273392,
				"kernelType": "linear",
				"w": [
					0,
					0,
					0,
					0,
					-0.018060253570287295,
					0,
					0,
					-8.673617379884035e-19,
					0,
					0,
					-0.018060253570287288,
					-0.019151058594554723,
					-0.03435932857441508,
					-0.019151058594554723,
					0.01584714238009545,
					0.01584714238009545,
					0.15448960646304294,
					0,
					0,
					6.5052130349130266e-18,
					-1.8973538018496328e-18,
					7.562310153086393e-18,
					0,
					5.854691731421724e-18,
					0.2666692496646372,
					-8.673617379884035e-19,
					-6.505213034913027e-19,
					-0.018060253570287288,
					-8.673617379884035e-19,
					-8.673617379884035e-19,
					-8.673617379884035e-19,
					-6.505213034913027e-19,
					-0.019151058594554723,
					0,
					0.12738791318145454,
					0,
					-0.09302858460703961,
					0,
					0,
					0,
					0.0006388724002350937,
					8.673617379884035e-19,
					0,
					0,
					-0.1273879131814547,
					0,
					0,
					1.0570971181733668e-18,
					0,
					0,
					0,
					0,
					0,
					0,
					6.5052130349130266e-18,
					0,
					6.288372600415926e-18,
					6.288372600415926e-18,
					6.288372600415926e-18,
					-0.015208269979860347,
					-0.015208269979860347,
					-0.015208269979860347,
					6.288372600415926e-18,
					6.288372600415926e-18,
					6.288372600415926e-18,
					6.288372600415926e-18,
					6.288372600415926e-18,
					6.5052130349130266e-18,
					6.288372600415926e-18,
					6.288372600415926e-18,
					0.17953863724625174,
					0,
					0,
					0,
					0,
					0.1462701136961041,
					-0.018060253570287295,
					-0.018060253570287295,
					-0.018060253570287295,
					-0.018060253570287295,
					-0.018060253570287295,
					0,
					1.0570971181733668e-18,
					0,
					0,
					0,
					0,
					-0.2666692496646373,
					0.160387578651697,
					-0.2666692496646373,
					0.09474831587588561,
					0.2227751014575754,
					0.20756683147771504,
					-0.41120968593623886,
					0.17953863724625174,
					0.0006388724002350937,
					0.2227751014575754,
					0.2227751014575754,
					-0.10823685458689997,
					0.1877769004829252,
					1.734723475976807e-17,
					2.3201926491189795e-17,
					1.734723475976807e-17,
					-0.14454043627160157,
					-0.14454043627160157,
					0,
					0,
					0,
					0,
					0,
					0,
					0,
					0,
					8.673617379884035e-19,
					0,
					0.04454184492137503,
					0.04454184492137503,
					0.6339847873938143,
					0.059750114901235385,
					0.059750114901235385,
					0,
					2.7647155398380363e-18,
					8.673617379884035e-19,
					0,
					0,
					0,
					2.168404344971009e-19,
					0,
					0,
					0,
					8.673617379884035e-19,
					0,
					0,
					0,
					0,
					0,
					0,
					0,
					0,
					0,
					0,
					5.854691731421724e-18,
					0,
					0,
					0,
					0,
					0,
					0,
					1.0570971181733668e-18,
					8.673617379884035e-19,
					0,
					0,
					0,
					0,
					0,
					0,
					0,
					0,
					0,
					0,
					5.854691731421724e-18,
					0,
					0,
					2.168404344971009e-19,
					2.168404344971009e-19,
					2.168404344971009e-19,
					8.673617379884035e-19,
					8.673617379884035e-19,
					8.673617379884035e-19,
					0,
					0,
					0,
					0,
					0,
					0,
					0,
					0,
					0,
					0,
					0,
					0,
					0,
					0
				]
			},
			"{\"Offer\": {\"Pension Fund\": \"No agreement\"}}": {
				"N": 100,
				"D": 183,
				"b": -0.9659769786260402,
				"kernelType": "linear",
				"w": [
					0,
					-0.011341007124653307,
					-0.011341007124653307,
					-0.011341007124653307,
					-0.09962370626423914,
					0,
					-5.204170427930421e-18,
					-0.07337970662855502,
					6.5052130349130266e-18,
					7.37257477290143e-18,
					1.0408340855860843e-17,
					7.37257477290143e-18,
					-0.028312758336407035,
					6.667843360785852e-18,
					-0.033181708310040886,
					-0.015412092655045236,
					-0.034631386249739285,
					0,
					-6.938893903907228e-18,
					-4.336808689942018e-18,
					-0.026243999635684127,
					-0.07337970662855503,
					8.673617379884035e-19,
					0,
					-0.230802897902193,
					0,
					-0.011198014935868987,
					-0.07337970662855502,
					0,
					0,
					0,
					0,
					0.1326562551208092,
					-5.204170427930421e-18,
					-0.18562836897104232,
					-0.017769615654995654,
					-0.05004347890478453,
					0,
					0,
					4.336808689942018e-18,
					-0.043724850991452284,
					1.6263032587282567e-19,
					0,
					0,
					-0.06058662158619592,
					-0.008372986843497446,
					-0.008372986843497446,
					-0.008372986843497446,
					-0.008372986843497446,
					0,
					0,
					0,
					0,
					0,
					-0.07337970662855502,
					0,
					0,
					0,
					0,
					-0.010543142681411386,
					-0.010543142681411386,
					0.29946319052058323,
					0,
					0,
					0,
					8.673617379884035e-19,
					0,
					0,
					0,
					0,
					-0.015412092655045246,
					0,
					0,
					0,
					0,
					-0.025955235336456633,
					0,
					0,
					0,
					0,
					0,
					0,
					0,
					5.204170427930421e-18,
					5.204170427930421e-18,
					-0.07337970662855502,
					0,
					-0.015412092655045246,
					-0.04165609229072937,
					-0.015412092655045246,
					-0.08456576943032555,
					-0.06770399883558191,
					0.30513889831355634,
					0.3502043315205088,
					-0.015412092655045246,
					-0.025955235336456633,
					-0.06770399883558191,
					-0.06770399883558191,
					-0.042817005931200275,
					-0.05229190618053667,
					0,
					0,
					-0.011198014935868982,
					0,
					0,
					-0.01776961565499565,
					0,
					0,
					-0.011198014935868982,
					0,
					0,
					0,
					0,
					-0.00663533410505265,
					0,
					-0.0796968194566917,
					-0.0796968194566917,
					-0.05229190618053667,
					0.3142323630552693,
					0.3142323630552693,
					0.250049577040044,
					0,
					1.6263032587282567e-19,
					0,
					0,
					0,
					0,
					0,
					0,
					0,
					-0.006635334105052657,
					0,
					0,
					0,
					0,
					0,
					0,
					0,
					0,
					0,
					0,
					0,
					0,
					0,
					0,
					0,
					0,
					0,
					0,
					0,
					0,
					0,
					0,
					0,
					0,
					0,
					0,
					0,
					0,
					0,
					0,
					0,
					0,
					0,
					0,
					0,
					-0.00663533410505265,
					-0.00663533410505265,
					-0.00663533410505265,
					0,
					0,
					0,
					-6.938893903907228e-18,
					-6.938893903907228e-18,
					0,
					0,
					0,
					0,
					0,
					0,
					0,
					0,
					0
				]
			},
			"{\"Accept\": \"Leased Car\"}": {
				"N": 100,
				"D": 183,
				"b": -1.297325378414393,
				"kernelType": "linear",
				"w": [
					0,
					0,
					0,
					0,
					0.1291987701327186,
					0,
					-0.022314831135130355,
					-0.0781928275375195,
					0,
					-0.00040477632067376887,
					-0.0888963654564201,
					-0.08325336378675359,
					0.3000828563789724,
					-0.034081338427813725,
					-0.049338980061001514,
					-0.01679759967454993,
					-0.1361865327773946,
					4.336808689942018e-19,
					0,
					-0.043708831328176746,
					-0.026322657498201747,
					-0.10440172299541281,
					0,
					-0.04391563979074044,
					-0.1257557078013697,
					-0.06012940043699512,
					4.336808689942018e-19,
					-0.11707737494639336,
					0,
					0,
					-0.036583165587207214,
					-0.010323406631580904,
					0.22286007483315956,
					0.2800566019747634,
					-0.11202204001830038,
					-0.03254138038645159,
					-0.07182781950391065,
					-0.00040477632067376887,
					-0.0004047763206737693,
					-0.00773725052420699,
					0.30984683214592473,
					-0.002703273530251859,
					0,
					0,
					-0.05178563094245982,
					0,
					-0.0024267070155830957,
					0,
					0,
					-0.036178389266533446,
					0,
					0,
					0,
					0,
					0.3587363262934034,
					0,
					-0.036178389266533446,
					-1.734723475976807e-18,
					0,
					-0.010183901405665283,
					-0.046155482209635036,
					-0.057919870963173664,
					0.3199647983348975,
					0,
					0,
					-0.046135538343759844,
					0,
					-0.012750113647164,
					-1.734723475976807e-18,
					0,
					0,
					-0.017688515073937563,
					4.336808689942018e-19,
					4.336808689942018e-19,
					-0.010728182952254674,
					-0.002446650881458292,
					-0.008530132913290862,
					0,
					-0.00773725052420699,
					0,
					0,
					0,
					0.3758112585555659,
					0,
					-0.00773725052420699,
					-0.055877996402389135,
					0,
					-0.010323406631580904,
					-0.029688800690245144,
					-0.010323406631580904,
					0,
					0,
					-0.002446650881458292,
					-0.03564943023737721,
					0,
					-0.008920843924427317,
					0,
					0,
					-0.002446650881458292,
					-0.00040477632067376936,
					-0.010323406631580904,
					0,
					-0.06012940043699512,
					0,
					0,
					-0.032946156707125356,
					0,
					-0.0004047763206737693,
					-0.008530132913290862,
					-0.017688515073937563,
					-0.043708831328176746,
					0,
					0,
					0,
					0,
					-0.002446650881458292,
					-0.002446650881458292,
					0,
					0,
					0,
					-0.006103425897707766,
					-3.469446951953614e-18,
					-0.002703273530251859,
					0,
					0,
					-0.0024267070155830957,
					-0.0024267070155830957,
					-0.008530132913290862,
					-0.010163957539790085,
					-0.0024267070155830957,
					0,
					0,
					-0.00773725052420699,
					-0.00773725052420699,
					-0.00773725052420699,
					-0.00773725052420699,
					-0.00773725052420699,
					-0.00773725052420699,
					-0.00773725052420699,
					-0.00773725052420699,
					-0.00773725052420699,
					0,
					0,
					0,
					0,
					0,
					-0.006103425897707766,
					0,
					0,
					0,
					0,
					0,
					-0.010323406631580904,
					0,
					0,
					0,
					0,
					0,
					0,
					0,
					0,
					0,
					0,
					0,
					0,
					0,
					0,
					0,
					0,
					0,
					0,
					0,
					0,
					0,
					0,
					0,
					0,
					0,
					0,
					0,
					0,
					-0.01621140523742259,
					-0.01621140523742259
				]
			},
			"{\"Reject\": \"Pension Fund\"}": {
				"N": 100,
				"D": 183,
				"b": -1.2965326891629119,
				"kernelType": "linear",
				"w": [
					0,
					0,
					0,
					0,
					0.1293846438170885,
					0,
					-0.022111584919455512,
					-0.07829269297814773,
					0,
					-0.0005566777374673712,
					-0.08796154594034479,
					-0.08338088041858914,
					0.299911950443869,
					-0.03428873103097094,
					-0.04946911585239916,
					-0.016990515185271924,
					-0.13631791739333882,
					0,
					-2.3852447794681098e-18,
					-0.04381314446863812,
					-0.025832547928971293,
					-0.10428787519278696,
					0,
					-0.0436946068905013,
					-0.1257098146251544,
					-0.060086714776509606,
					6.071532165918825e-18,
					-0.11717393079489255,
					0,
					0,
					-0.036567381224158535,
					-0.010273262260088668,
					0.22230482823650732,
					0.27958397073949115,
					-0.11217563382374288,
					-0.03247860066712724,
					-0.07164952461574181,
					-0.0005566777374673736,
					-0.0005566777374673712,
					-0.007683903403810138,
					0.3108937464824743,
